ADM_NM,GAT_embed0,GAT_embed1,GAT_embed2,GAT_embed3,GAT_embed4,GAT_embed5,GAT_embed6,GAT_embed7,GAT_embed8,GAT_embed9,GAT_embed10,GAT_embed11,GAT_embed12,GAT_embed13,GAT_embed14,GAT_embed15,GAT_embed16,GAT_embed17,GAT_embed18,GAT_embed19,GAT_embed20,GAT_embed21,GAT_embed22,GAT_embed23,GAT_embed24,GAT_embed25,GAT_embed26,GAT_embed27,GAT_embed28,GAT_embed29,GAT_embed30,GAT_embed31,GAT_embed32,GAT_embed33,GAT_embed34
사직동,-0.27600503,-0.9387891,-0.38636464,-0.6336411,-0.052587822,-0.13698275,-0.064865015,0.32796374,0.03486421,0.16706738,-0.10901853,-0.033556804,0.18457271,-0.7220952,-0.08841247,-0.44915947,-0.06519284,0.15568349,-0.104950935,0.73841035,-0.5935516,-0.40058738,-0.12366454,0.44300902,0.7199728,-0.69181687,0.4420097,0.43696734,0.29829326,0.18395466,0.24835528,0.5365696,0.72565955,-0.7368512,0.5555651
삼청동,-0.38891053,-0.47957528,-0.1700828,-0.24797547,-0.045668647,-0.14415832,0.017288616,-0.14885516,0.11716091,-0.026273519,0.09553558,-0.1822974,-0.028704032,-0.045895785,0.14115201,-0.35673484,-0.009543543,-0.006158483,-0.181972,0.3239825,-0.2998004,-0.13049224,-0.20954569,0.2970805,0.37894875,0.0060124956,0.24898362,-0.024687782,0.19927368,0.15407702,0.15986012,0.3647885,0.70978534,-0.2340972,0.32211763
부암동,-0.509648,-0.43382058,-0.07103953,-0.2566351,-0.0038902638,-0.13504592,0.060481176,-0.38922855,0.05335059,-0.0028531775,0.14847827,-0.26526225,0.016322955,0.24854846,0.09808463,-0.45253798,-0.022660911,-0.056602377,-0.13089314,0.2537362,-0.35515052,0.0034606336,-0.24440117,0.23070529,0.3313045,0.31364775,0.32117942,-0.10524468,0.05351812,0.08541325,0.20554297,0.30845153,0.909237,-0.13984092,0.37548056
평창동,-0.16022931,-0.2173692,0.36181527,-0.05313153,0.1957319,-0.13640285,0.1035473,-0.5406658,0.049811713,-0.010833416,-0.08505477,-0.14490299,0.3115223,0.54901385,-0.07849458,-0.19967055,0.061903734,0.042058546,-0.26581815,-0.04392544,-0.19876322,0.17828435,-0.30600983,-0.09542979,0.24300472,0.21851626,-0.008602925,-0.1461482,0.04143399,-0.013196704,0.12205455,0.33474687,0.85569245,-0.30666232,0.24631208
한남동,0.75473857,-0.4816288,0.44930878,1.631563,0.38859817,-0.24939048,-0.29296082,0.3620919,-0.5037417,-0.78441066,-0.5420319,-0.08404741,0.18474323,-0.5781599,0.06673285,-0.070652254,0.3667158,-1.1161565,1.2463591,-0.54263294,-0.39477655,-0.52156687,0.74989146,-0.37012905,0.94594216,-0.89965904,0.67657816,0.17616588,-0.16413775,-0.3718134,0.2932948,0.69480217,0.24811813,-0.67550635,0.3726873
왕십리2동,0.076176874,0.38150826,0.25418872,-0.3841692,0.045210287,-0.093265824,0.07157919,0.10651428,0.2687269,0.22170448,0.36759105,0.27656704,0.14008377,0.04204029,-0.23700076,-0.551818,-0.16387191,-0.3004545,0.4733333,0.46469203,0.15708749,0.2752878,-0.09777731,0.5915721,-0.08304173,0.84602416,0.6982233,-0.17085496,-0.90918124,0.17068763,0.39595646,-0.3865814,-1.0318567,0.560578,0.012269361
마장동,0.17768501,-0.19483928,0.24007411,-0.18436712,0.05336897,-0.1608164,0.16405722,-0.025776278,0.020080453,0.13232277,0.065236695,0.2528725,0.110771626,-0.16507792,-0.0054191477,-0.26210412,0.008393335,-0.002128423,0.87094927,0.43161753,0.12658231,-0.14021519,-0.30050808,0.37421274,0.32016152,0.17688659,0.08276513,0.16850948,-0.8536682,-0.03764281,0.4073695,0.06285482,-0.6811412,-0.16473134,-0.15923575
중림동,-0.23781537,-0.30081558,-0.30608684,-0.20698312,-0.1866835,-0.124543585,-0.13672093,0.5354643,0.24005109,0.10143814,0.062379964,0.09999837,0.036319785,-0.54629546,0.12324525,-0.3322817,-0.08467301,-0.040952053,-0.07068576,0.34048334,-0.076715514,-0.29037714,-0.020099215,0.3091393,0.34311932,-0.69168705,0.12976162,0.19320898,0.43194425,0.19203797,0.22204277,0.4761795,0.09080571,-0.59224176,0.2147612
옥수동,0.4694988,-0.24003424,0.34813517,1.1173501,0.24507864,-0.086449526,-0.147369,0.0197534,-0.2650128,-0.49699032,-0.29489356,-0.05549074,0.09166266,-0.3347821,0.08483753,-0.05214868,0.23775747,-0.7636695,1.0003537,-0.34376177,-0.204436,-0.4022714,0.3149764,-0.3963785,0.68654805,-0.5441499,0.44783282,0.21944138,-0.13808951,-0.2934042,0.27391714,0.42679855,0.10401183,-0.5125444,0.22334036
장충동,0.49918658,-0.24970499,0.27154672,1.0897372,0.27076066,-0.10011331,-0.25277895,0.33523706,-0.29479346,-0.49027216,-0.35768515,-0.05501062,0.059245825,-0.44882852,0.10578771,-0.119806044,0.2963628,-0.7231612,0.9376459,-0.4180121,-0.28924325,-0.41111708,0.32145128,-0.2809425,0.6882377,-0.68442184,0.42649364,0.2001016,-0.028421815,-0.33540463,0.16420603,0.44248426,0.042246122,-0.5953962,0.08374873
광희동,0.32054925,0.02730913,0.042342294,0.40501365,0.08925475,-0.15302305,-0.05527562,0.4167199,0.19544825,-0.23339152,-0.14133324,0.30844653,0.014848472,-0.3413912,0.225636,-0.3678945,0.08112203,-0.13864332,0.2489516,0.07914138,-0.0043951925,-0.26074946,0.16791894,-0.07290862,0.5042723,-0.59284973,0.19513541,0.26326716,0.2969801,-0.24565431,0.07826859,0.3326181,-0.23766908,-0.22068371,-0.021871718
사근동,0.26219591,-0.3026696,0.24647126,-0.026285477,0.03529975,-0.16056558,0.13227373,0.006600355,-0.06939733,0.039886065,-0.05200719,0.27242294,0.14502525,-0.23860209,0.010715816,-0.17562278,-0.021774922,0.04591728,0.8777931,0.22654013,0.072203465,-0.22522038,-0.16780175,0.32083237,0.28397015,-0.009623732,0.00706293,0.1837706,-0.6181412,-0.12239205,0.28471446,0.091595165,-0.5834815,-0.28841162,-0.20545591
후암동,-0.013167206,0.15179008,0.006491214,0.0046099555,-0.14918339,-0.09985754,0.015011873,0.29615948,0.25870848,0.032826737,0.13079192,0.19115888,-0.10901326,-0.1974827,0.14746372,-0.12739223,-0.07297392,-0.064380705,0.053201586,0.13060836,0.25845218,-0.09145114,-0.038048923,0.1722138,0.16519165,-0.32439914,0.019001046,0.0022821669,0.17298931,-0.06609917,0.09770563,0.19250794,-0.33070534,-0.21833159,-0.09033297
용산2가동,0.2205931,0.070441246,0.16478887,0.3352344,0.077137135,0.031657413,-0.008869821,0.26227024,0.05914318,-0.06355314,-0.031325396,0.0291588,-0.023726735,-0.16686955,0.12516047,-0.085887596,0.12179892,-0.20650083,0.5640869,-0.049575087,-0.068807855,-0.23684214,-0.118795976,-0.028501231,0.3113575,-0.17193685,0.18022616,0.15991758,-0.12258671,-0.26353067,0.15004979,0.20410924,-0.34234005,-0.36089885,-0.20577225
남영동,0.07466883,0.1889051,0.0888129,-0.064314,-0.1447678,-0.12257435,0.060159378,0.30792987,0.25287282,0.13950762,0.14614514,0.20257361,-0.08979659,-0.13776533,0.08675944,-0.034314238,-0.09889129,-0.027867353,0.15374036,0.18886754,0.26231638,-0.062540844,-0.14298715,0.27383438,0.1476012,-0.16463844,0.038337868,-0.006903358,-0.0074044243,-0.06611859,0.19940718,0.15728265,-0.5062976,-0.23442025,-0.22683752
원효로2동,0.055270113,0.18577951,-0.036312167,-0.054793045,-0.1433694,-0.04764309,-0.000104693696,0.47442076,0.12671663,0.075846076,0.099917285,0.16956376,-0.16177343,-0.2372627,0.21051827,0.05065539,0.00621768,0.019201502,-0.107754074,0.0018354885,0.3124525,-0.09306212,0.0068668425,-0.00077738333,0.18589087,-0.35407895,-0.021964721,0.0849853,0.35612476,-0.087477654,0.018911278,0.08024444,-0.28012052,-0.09381091,-0.10310853
효창동,0.24140401,0.2157658,0.13280271,-0.034803517,-0.195729,-0.121011145,0.0044731814,0.29059047,0.2247754,0.52742887,0.053145155,0.34875354,-0.027677134,-0.07429531,-0.116659455,0.0031222096,-0.16458768,0.18325937,0.06748142,0.40429488,0.17782715,-0.065992504,-0.17644627,0.42370275,-0.12099301,0.019804202,0.04836834,0.07073235,-0.17204377,0.045561902,0.2798783,0.04240317,-0.81723547,-0.05946564,-0.29124475
용문동,0.16321255,0.2615816,0.07103496,-0.25845596,-0.16155179,-0.22647178,0.06295775,0.4931768,0.2436054,0.26528603,0.1400493,0.48731297,-0.07226766,-0.1151798,0.124915436,0.12649213,-0.103709154,0.15426564,-0.020638183,0.3210552,0.33082438,-0.09173548,-0.05686766,0.2456188,0.24805595,-0.10780248,0.064149976,0.1894605,0.030438196,0.0156007325,0.3440654,0.18968889,-0.6631173,0.009649692,-0.19454956
이태원1동,0.51550823,-0.25601757,0.38777703,1.0468723,0.2780883,-0.09981622,-0.085646056,0.22201502,-0.23581484,-0.43274742,-0.33205867,-0.030416619,0.09475457,-0.30043167,0.10747911,-0.04353555,0.2552459,-0.67256284,0.9891777,-0.30741692,-0.27335262,-0.4604044,0.31510872,-0.30493063,0.6964956,-0.5237566,0.4410171,0.24657473,-0.15326348,-0.35810095,0.2509143,0.5101227,0.0073634125,-0.5647181,0.11176908
금호1가동,-0.043319087,0.34406164,0.22906357,-0.39167434,0.052338883,-0.10467424,0.10207592,0.061880026,0.2999638,0.25862777,0.431563,0.19406158,0.10025129,0.10800214,-0.1743069,-0.58047545,-0.12788603,-0.3148897,0.4315797,0.46404642,0.13340624,0.24313232,-0.18499511,0.56502616,-0.01474174,0.8529643,0.6702704,-0.23637342,-0.95115626,0.20720874,0.49808872,-0.21127777,-0.8175106,0.46478328,0.08572212
금호4가동,-0.008378078,0.18089005,0.1642245,0.07267114,0.012706546,-0.01767357,0.080366015,-0.19881798,0.14390883,0.057646982,0.23453324,0.07295589,0.017914992,0.0057517504,0.062904194,-0.2885989,0.001791683,-0.40754953,0.6289004,0.20353152,0.14146766,-0.074434176,-0.20577596,0.018464029,0.312799,0.26340282,0.35322586,-0.008683555,-0.5953306,0.0025152147,0.49757725,0.12189047,-0.38018438,0.017645994,0.17697167
성수1가1동,0.001477412,-0.0073898225,0.1461684,0.3386401,-0.06958859,-0.043268103,0.16840287,-0.53573483,0.045752775,-0.17453778,0.083404474,0.15386033,0.048824277,-0.09285692,0.113828525,-0.09675004,-0.023648556,-0.43052456,0.8718338,0.18738903,0.29114875,-0.2431342,-0.06582751,-0.2818678,0.32841295,0.10899083,0.19773349,0.17635599,-0.4952174,-0.06710699,0.45602834,0.058347963,-0.37122363,-0.008102978,0.2193916
성수2가1동,-0.101212576,-0.2770461,0.050695542,0.7030065,-0.21252969,-0.23038717,0.51565546,-0.7661739,-0.32051983,-0.62873256,-0.18264063,0.31893036,0.23692526,-0.23912619,-0.2085898,0.5325481,0.087969355,0.08585016,0.81359303,0.08411769,0.4563727,-0.17862073,0.41914642,-0.7871349,-0.7268953,0.36092806,-0.12015673,0.25146124,-0.4675496,0.27377155,0.015533272,-0.291936,-0.28950572,0.09572904,0.2606134
송정동,0.32225174,-0.19589734,0.22012374,0.10099665,0.034734957,-0.023769371,0.1323079,0.18648113,-0.07819551,-0.033602588,-0.124629326,0.12609223,0.13824213,-0.20836781,0.11161938,-0.074242026,0.0031842394,0.024819044,0.5243528,-0.062484,0.024252567,-0.2650116,0.026025921,0.03272746,0.16742776,-0.1582574,-0.060183097,0.12688419,-0.14090091,-0.21346551,0.096917644,0.28376192,-0.2082817,-0.47457683,-0.15533447
용답동,0.37692815,-0.23791158,0.23113073,0.14169705,-0.0024373326,-0.12014895,0.063534185,0.17720017,-0.09361544,-0.04078813,-0.12129978,0.29576087,0.13917379,-0.30738178,0.08540153,-0.06160518,-0.053769827,0.023180699,0.7172966,-0.0562193,0.030409787,-0.32178515,-0.013290079,0.19642954,0.22610049,-0.20297526,-0.061795022,0.14668956,-0.23822945,-0.21598428,0.13479544,0.2026492,-0.5101757,-0.44201657,-0.27325958
정릉4동,0.08099313,-0.20507173,0.24955583,0.4887824,0.5173505,0.23898847,-0.014096895,-0.24100785,-0.60797495,-0.43896127,-0.24825896,-0.2375229,0.55218726,0.16148478,0.29723594,-0.20199153,0.13989492,-0.2239546,0.009966567,-0.434131,-0.39944217,0.2481424,0.30978045,-0.057487518,0.5678053,0.023742177,0.3366336,-0.12651138,0.36388165,-0.6037026,-0.42682415,-0.13259348,0.65211445,-0.011647379,0.3620146
길음1동,-0.21567161,-0.01990859,0.12141317,0.49137992,0.54391944,0.3941946,0.09785981,-0.22344969,-0.45299074,-0.31565243,-0.022738047,-0.43214968,0.3972015,0.25892448,0.3845493,-0.4610459,0.066685975,-0.45693284,0.12608093,-0.29410276,-0.40139446,0.26658666,0.32307965,0.11334772,0.3899464,0.32905477,0.57290775,-0.34801683,0.34698164,-0.6900808,-0.41357273,-0.17810489,0.6967407,0.14337714,0.38402098
성북동,-0.35648525,-0.20752114,0.17706272,-0.15017527,0.061689936,-0.15494122,0.13911477,-0.49540725,0.22519849,0.055249874,0.059967335,-0.20570473,0.1371927,0.53916866,0.018648256,-0.33815065,-0.021463312,0.018967716,-0.34186214,0.14354087,-0.21003865,0.07167403,-0.32196328,0.021945044,0.13842513,0.2679871,0.057847746,-0.196115,0.14684987,0.07733424,0.15196387,0.4108335,0.97070646,-0.27951196,0.25341204
삼선동,-0.29835963,-0.15158735,0.5167342,0.10833025,0.1142164,-0.11895818,0.09869299,-0.7416679,0.32224727,0.23038661,-0.16953804,-0.26976755,0.16241394,0.59689915,-0.43148938,-0.033090595,-0.08646756,0.17045656,-0.41900015,-0.10621545,0.18018915,0.36247677,-0.53215915,-0.22230239,-0.33927226,-0.02611779,-0.3566476,-0.35152653,0.3116229,0.054711454,-0.10550806,0.3680482,0.68844235,-0.6215575,-0.23252206
동선동,-0.26427588,-0.11826113,0.46443182,0.08179507,0.086799145,-0.1035123,0.1032085,-0.61793983,0.30189297,0.19435114,-0.12542112,-0.227522,0.15481885,0.47510055,-0.33366004,-0.13181555,-0.07960606,0.096198685,-0.31300217,-0.09602929,0.17693304,0.33956504,-0.46921593,-0.14146735,-0.30341193,-0.0048285127,-0.27909142,-0.29234517,0.21473174,0.059391312,-0.08246982,0.33617735,0.5727034,-0.54510504,-0.19172217
휘경1동,0.11033444,0.4125842,-0.22813116,-0.6038925,-0.50207496,-0.48732492,0.014749534,1.2330583,0.4675303,0.14415011,0.34004763,0.64426154,-0.44093785,-0.51711655,0.5048697,0.27382162,-0.2203489,0.21788442,-0.51301825,0.44357845,0.8513718,-0.2891411,0.2571649,0.29291767,0.13489772,-0.5278412,-0.12226893,0.32807612,0.83049154,0.24539442,0.12616336,0.1303499,-0.67669225,-0.12107769,-0.20011337
이문1동,0.17700599,0.12631696,0.064105704,-0.6699333,-0.19539838,-0.49526623,0.12844065,0.8315901,0.53390557,0.20373574,0.042441793,0.51858103,-0.15742189,-0.045363307,0.34847873,0.082676284,-0.1354412,0.35931176,-0.38107008,0.3734431,0.5697599,-0.21689233,0.06674406,0.16867895,0.3265646,-0.4610241,-0.18807173,0.35623667,0.63423824,0.007873657,0.16076408,0.42783618,-0.20102435,-0.42154372,-0.23787513
이문2동,0.36581153,-0.16580112,0.116230085,-1.054268,0.50697184,-0.27816188,0.09637114,0.38286617,0.45446047,0.18704669,-0.1600427,0.3486855,0.08329898,0.47682774,0.03779395,0.038147744,0.23495142,0.53225493,-0.42325765,0.22140017,0.1515383,-0.35413295,-0.12493318,0.01828137,0.45020032,-0.16462612,-0.50246215,0.5390364,0.42545232,-0.08609592,0.11618744,1.0379452,0.6758726,-0.62664115,0.010509571
답십리1동,0.5036727,-0.13236296,-0.054560203,0.23297149,-0.16177604,-0.16250199,-0.107743345,0.57089186,0.03391216,0.20628966,-0.6455244,0.1896897,-0.08880961,0.007766313,-0.0017209896,0.18332413,-0.13947666,0.006702245,0.06070798,-0.3501962,0.3437089,-0.09856979,-0.008659002,-0.15342492,-0.35043144,-0.5814691,-0.35803255,-0.17604159,0.43541408,-0.033301085,-0.29301956,0.7447375,-0.43867275,-0.9570593,-0.5987532
상봉1동,0.12151961,0.14451972,-0.0011346443,-0.32540858,-0.03298317,-0.13938908,0.13103834,0.5248555,0.2964669,0.19538614,0.0014040367,0.2644646,-0.120075,-0.040740944,0.15628803,0.1922501,-0.0072114123,0.21147321,-0.18692298,0.23783681,0.32789508,-0.15264577,0.025797553,0.057556294,0.121891424,-0.23231591,-0.11041248,0.20172355,0.3122083,-0.011197162,0.17413695,0.3204999,-0.09163934,-0.22580983,-0.18112458
중화1동,0.30586055,0.15456383,-0.10936336,-0.74242866,0.4417795,-0.073812984,-0.12919882,0.2740849,0.22308335,0.2248421,0.07021574,0.24888726,-0.031428587,0.22840789,-0.14033908,0.25151154,0.29977438,0.42107436,-0.39751416,0.072881475,0.1600178,-0.3310983,-0.023539562,0.11309283,0.014542607,0.055367146,-0.43134844,0.2930179,0.18676694,0.1477594,0.1431364,0.73455393,0.42517233,-0.29995945,0.073283546
신내1동,0.35995302,0.3758964,-0.16170156,-0.39440733,-0.007761793,0.059577264,0.14718391,0.37830278,0.020408036,0.39590955,0.07153891,0.40398958,-0.12875229,0.05624815,0.039232343,0.5107192,-0.023408957,0.4059911,-0.13612434,0.32805982,0.12793788,0.022442877,0.13737258,0.24961223,-0.11082049,0.30153573,0.0838111,0.2711333,-0.2568097,0.15300442,0.24554195,0.20413885,-0.38055074,0.5421905,-0.1678865
월곡2동,0.22842564,-0.07961206,0.10683044,-0.58896744,0.3866214,-0.17426217,-0.087512754,0.040625755,0.24292697,0.38653654,-0.17526533,0.156699,-0.018562049,0.42569768,-0.23057874,0.13678923,0.10252751,0.5680939,-0.2987557,0.028500278,0.24251139,-0.22920689,-0.16098453,-0.01226036,-0.14377819,-0.085048735,-0.5677591,0.12538242,0.17301469,-0.036460724,-0.086287946,0.62651306,0.38352585,-0.69721663,-0.31334016
자양3동,0.25230023,-0.107180625,-0.5200978,-0.00668307,0.325738,0.34421733,0.14961532,0.41156995,-0.47952402,0.18146092,-0.13336854,0.03296611,-0.22776015,-0.14507331,-0.129806,0.6197054,0.36927783,0.7097577,0.1661597,-0.15167236,-0.31926292,-0.4984635,0.16317274,-0.32312456,-0.78975314,0.54590344,-0.3370184,0.26993257,-0.558407,0.2410745,-0.37332124,-0.045701817,0.14516285,0.12294133,-0.15432006
구의2동,-0.018436119,-0.08768497,0.22492489,0.6576164,0.3382329,0.26811275,-0.06517998,0.056844097,-0.13757038,-0.4419092,-0.03377182,-0.24538459,-5.3725205e-05,-0.64987916,0.30113342,-0.446831,0.62064683,-0.5919484,1.5931141,-0.1309513,-0.27842778,-0.32142705,0.035127394,-0.16252181,0.62628496,-0.59441483,0.3966912,0.49909833,-0.4207305,-0.82930654,-0.18173562,0.19025281,-0.15796027,-0.6370889,-0.0773736
수유1동,0.009173199,-0.07535125,0.22483823,0.6706505,0.49641827,0.3940098,0.052288897,-0.14058985,-0.53464246,-0.3786216,-0.2436387,-0.30874786,0.41309065,0.12875058,0.3803548,-0.34052193,0.07967416,-0.422731,0.31015074,-0.34219176,-0.37774357,0.19058079,0.41256255,0.015801106,0.42804444,0.08082631,0.47231606,-0.1279606,0.37060177,-0.82751447,-0.56712615,-0.19977435,0.44257602,-0.03961909,0.09020331
삼양동,0.015455869,-0.21709272,0.2568884,0.6264031,0.3598595,0.35505584,0.03039064,0.11579826,-0.4383635,-0.277413,-0.33885148,-0.37828842,0.2959563,0.057376914,0.3080086,-0.3204633,0.12387357,-0.30136594,0.34012085,-0.31422588,-0.41529676,0.19348893,0.34920916,0.05671681,0.22813769,0.022339966,0.33450314,-0.097819075,0.24386947,-0.8290779,-0.59899515,-0.14575504,0.21600352,-0.26069957,-0.25078377
송천동,-0.08383634,-0.2944309,0.29919815,0.20544395,0.07321671,0.09174106,0.070247345,0.40293363,0.07696665,0.08586426,-0.2251253,-0.45883417,-0.019676805,0.08240103,0.0019148844,-0.23497547,0.10494798,0.07400363,0.17357676,-0.09756422,-0.3424638,0.28311786,-0.023453757,0.2069526,-0.30143458,0.123421,0.07884416,-0.12950048,-0.08294174,-0.53864574,-0.35481262,0.04767184,-0.07437821,-0.6010514,-0.74321675
삼각산동,-0.11755337,-0.17209254,0.20229337,0.4344028,0.31150436,0.2785031,0.061202727,0.14511968,-0.24891889,-0.16390963,-0.1634111,-0.4437249,0.21640088,0.10936846,0.242222,-0.35811678,0.09263917,-0.23250267,0.19673964,-0.23830466,-0.3976234,0.25823703,0.21041398,0.15123352,0.08708636,0.16310951,0.3266366,-0.22601381,0.17982477,-0.65477824,-0.4456522,-0.09562586,0.2754973,-0.2276283,-0.19771987
우이동,0.43614239,-0.254368,0.41863674,0.7322285,0.35835603,0.049421642,-0.053900838,0.23370282,-0.6485833,-0.35284954,-0.60570896,-0.12682314,0.43968648,0.18313529,0.14530618,0.036697157,0.13763455,0.036939237,0.035097204,-0.31084454,-0.43414247,0.22656596,0.45404974,0.09387483,0.37305382,0.053562444,0.18498832,-0.11220436,0.026329901,-0.7580686,-0.3452161,-0.0911096,0.018044248,-0.26128232,-0.27103028
월계2동,-0.6423823,0.08813298,0.19126903,-0.082901716,0.35644755,0.2331276,0.07341955,-0.620014,-0.026418468,-0.008493103,0.28919616,-0.470497,0.10468869,0.7238259,0.00064135855,-0.5046126,0.14449145,-0.4014347,-0.12323084,0.10724018,-0.30134997,0.38629532,-0.100983486,0.22824591,0.07768967,0.7907162,0.5823034,-0.39362577,-0.1309402,-0.23471707,0.19254889,0.21241596,0.9393739,0.09797625,0.5712293
정릉1동,-0.2621011,0.004704932,0.12019718,0.34927192,0.44595715,0.34216863,0.103595294,-0.19565792,-0.29452005,-0.2322329,0.061545238,-0.44519,0.29433638,0.255535,0.29790226,-0.44969103,0.06738945,-0.40580955,0.09037243,-0.22660677,-0.34362036,0.27374485,0.1900966,0.16015899,0.27612653,0.3691543,0.5218485,-0.38040772,0.21729149,-0.54331285,-0.26829728,-0.07846303,0.6370208,0.0973697,0.3484885
무악동,-0.36707407,-0.90102243,-0.32892072,-0.5525557,-0.008395333,-0.1456881,-0.049539655,0.1019412,-0.06222699,0.14924008,-0.021059632,-0.064907365,0.080535874,-0.6182548,0.008633366,-0.4248992,-0.021103244,0.095072664,0.047330394,0.68620336,-0.515212,-0.3154364,-0.19611976,0.44369996,0.7024794,-0.46552452,0.3765558,0.38565534,0.0848985,0.19820315,0.23771435,0.3657321,0.6485528,-0.5794482,0.45657912
종로5·6가동,0.09226564,-0.03657367,-0.03314689,-0.24191082,0.0038037617,-0.17534497,0.15944675,0.47829577,0.49787563,0.033149578,0.027549129,0.25676742,0.011706641,-0.26713493,0.20366313,-0.37615424,-0.1767981,0.033390317,-0.23409593,0.36000475,0.1316886,-0.17702237,0.019357119,0.31523865,0.43115002,-0.4708767,0.0055858768,0.050750777,0.36676714,-0.05044232,0.14964542,0.5708707,-0.05021471,-0.21409981,0.006628288
이화동,-0.29609728,-0.1978635,0.32210904,-0.007968329,0.062464036,-0.07110784,0.07437159,-0.38801664,0.33307734,0.15842725,-0.13458958,-0.24781995,0.05599575,0.27133718,-0.2791283,-0.11992379,-0.16594829,0.11869121,-0.38473105,-0.092088215,0.18338297,0.239931,-0.3852923,-0.06493436,-0.20219225,-0.22794782,-0.3236185,-0.2904751,0.4397583,0.02244423,-0.14032212,0.40468094,0.56382966,-0.5958013,-0.24672155
창신1동,-0.19019313,0.04324645,0.095862605,-0.2932914,-0.020831512,-0.05321591,0.16519658,0.3151964,0.3342663,0.09993282,0.21206068,-0.06960497,-0.118753016,-0.1567768,0.13433129,-0.4601754,-0.25253284,-0.117551215,-0.0793099,0.09501462,0.14934228,0.12451242,-0.12692304,0.36552694,0.009353467,-0.082801506,0.014496326,-0.20024274,0.042151783,-0.012311566,0.1124517,0.3200865,0.003096249,-0.2495431,-0.13750845
창신2동,-0.31694055,-0.21592453,0.310264,-0.018828928,0.034095712,-0.050751973,0.07603329,-0.27255082,0.2963994,0.10342225,-0.1282949,-0.23298608,0.021790124,0.12582333,-0.20520312,-0.21797404,-0.23156345,0.10064948,-0.33784872,-0.1609254,0.2180628,0.26451927,-0.31742984,-0.024449766,-0.22651987,-0.30888808,-0.37122524,-0.25087795,0.47015655,-0.012094107,-0.2096209,0.3739641,0.5133442,-0.6329245,-0.30339217
을지로동,-0.0043596188,-0.086109884,-0.17642143,-0.23527461,-0.017401725,-0.13103145,0.08202011,0.55258137,0.46958217,-0.055931404,-0.03809738,0.227172,-0.0049947533,-0.39415455,0.23265055,-0.35801008,-0.2248988,0.034682877,-0.38294685,0.2457597,0.095774725,-0.18695357,0.11287223,0.20762406,0.42308035,-0.7609414,-0.11784792,0.09527558,0.65980095,-0.0059034824,-0.010379288,0.57555497,0.19143197,-0.33600482,0.060240872
수색동,-0.20732255,0.34375736,-0.3239572,0.15093452,-0.09042002,0.0002713902,-0.10687619,1.3025798,0.3267052,-0.115902856,0.64279443,-0.26056015,-0.17250012,-0.6758714,0.5474888,-0.49385372,0.14013189,-0.18681507,-0.105577424,0.09001447,-0.08189054,-0.257408,0.28465173,0.46358934,-0.25867337,0.08403857,0.3730002,-0.18998346,0.044934813,-0.052818157,-0.2375817,-0.24106507,-0.35605192,0.15584247,0.0013411418
진관동,0.08022558,-0.15658218,0.16949123,0.4908015,0.5243273,0.20215558,0.013470458,-0.51630485,-0.8755062,-0.6243348,-0.38127318,-0.11110511,0.63533545,0.119161576,0.34138456,-0.034223296,-0.042369,-0.44136962,-0.25699115,-0.76258403,-0.34370604,0.56367046,0.523422,-0.15445517,0.8622499,-0.15073135,0.42197487,-0.17044586,0.44161484,-0.56648517,-0.47172192,-0.052995265,0.66939735,0.23339345,0.7759583
불광2동,-0.07365441,0.056524813,0.05987393,0.13538438,0.43746075,0.2464976,0.22678727,-0.114960976,-0.63311666,-0.51129776,-0.39476064,-0.055802204,0.32449576,0.030677523,0.46717834,0.10998343,-0.25809166,-0.32051575,-0.38626814,-0.72220314,-0.18645595,0.6103803,0.5772035,-0.066538975,0.91052574,-0.246374,0.36001754,-0.06363068,0.6064121,-0.5715501,-0.50733304,-0.11643141,0.6046152,0.33564726,0.6896156
응암3동,0.030451074,0.17437026,0.10344635,0.04130756,-0.071144626,0.037967335,-0.04632914,0.33485976,0.2664569,0.045284934,0.08267441,-0.13924915,-0.08524403,-0.049185205,-0.013879636,-0.12287552,-0.12501283,0.10180996,-0.08101453,0.13680577,0.05105198,0.18742111,-0.06535167,0.33373353,-0.24381767,-0.09203425,-0.045118317,-0.19852537,-0.016820598,-0.11991771,-0.05216287,-0.09077576,-0.3775047,-0.16376938,-0.27924898
천연동,-0.10363011,-0.36058414,-0.31547913,0.06820117,-0.18797202,0.13261539,-0.5491153,-0.12054513,-0.2959864,0.7152742,-0.10073335,0.2790488,-0.034860075,-0.79301083,-0.14880437,-0.5371924,-0.29431763,0.32874343,-0.322501,0.83507764,-0.5877537,-0.32282013,0.013839595,0.8397298,-0.27001667,-0.51786715,0.16057898,0.38189638,0.14069292,0.46253514,-0.12900999,-0.37453473,-0.14603338,-0.0059820544,0.48751292
하계2동,-0.59141076,0.13693264,0.12202938,-0.11546073,0.29894108,0.21496895,0.060112998,-0.49405935,0.027113648,0.025741564,0.35702285,-0.409619,0.060013205,0.59633994,0.03456083,-0.52688676,0.13703279,-0.4020952,-0.054813724,0.17023343,-0.28150102,0.31088063,-0.11591154,0.25965372,0.05901239,0.77039886,0.58844334,-0.37822172,-0.28539267,-0.1422069,0.2668539,0.18102005,0.7484954,0.17685805,0.56946355
홍은2동,0.09750788,-0.09931944,0.1587225,-0.09242798,0.33012578,0.14461277,-0.0052942317,-0.117071316,-0.21829492,0.07326695,-0.06566895,0.0009647226,-0.0137469275,0.04302341,-0.26761174,0.01915587,-0.06399558,0.17385009,0.20789225,0.094296634,-0.17504193,0.067618094,-0.21766287,0.3622234,0.07519384,0.22038794,-0.14473206,0.051857498,-0.3723847,-0.077827305,-0.025498122,-0.18789554,-0.06894462,-0.25189078,-0.15550432
남가좌1동,0.17536776,0.021671778,0.20459805,0.075372405,-0.01421068,-0.10024717,0.17564255,0.0063673155,0.18346281,0.2944445,-0.16498457,0.055557936,-0.13097759,0.32292852,-0.43767822,0.22162022,-0.16960654,0.48222402,-0.01379897,0.17771396,-0.02778486,0.16170315,-0.048650082,0.20125678,-0.51351225,0.17418277,-0.11150332,0.020960953,-0.18017933,-0.18166654,-0.039770357,-0.20399378,-0.43364048,-0.07696553,-0.48930448
염리동,0.45745045,0.0001699836,-0.09814989,0.5894476,-0.19957624,0.08154599,-0.44730636,-0.17643453,-0.30580467,0.15010576,-0.38162294,0.23893581,-0.014424932,-0.32375523,-0.65882564,-0.33795658,-0.3506542,0.42920926,-0.47622144,0.43469194,-0.7653429,0.20244685,0.57323396,0.74720794,-0.9803923,0.0048929118,-0.020145096,0.1458622,-0.009664353,0.28671587,-0.60592735,-0.6384874,-1.005707,0.5115568,0.07710479
연남동,0.33936667,-0.14774528,-0.111775935,0.4670607,-0.17585327,-0.027158014,-0.13340832,0.07035151,-0.08886439,0.23525377,-0.41916612,0.1319894,-0.29659557,0.059605643,-0.59697926,0.15260322,-0.19056647,0.7420464,-0.36280447,0.28376612,-0.46299234,0.2361139,0.3519172,0.23848036,-0.90142655,-0.014121685,-0.17816116,0.061829556,-0.2195304,0.07561364,-0.39871463,-0.29498422,-0.798984,0.22649305,-0.30540565
성산1동,0.2937035,-0.09853042,-0.0107429875,0.29994962,-0.16381218,-0.16047308,0.13172905,0.23474042,0.15757436,0.24849406,-0.44021168,0.06294519,-0.33433527,0.3370818,-0.4790393,0.30449075,-0.13356337,0.7304882,-0.16526823,0.22318383,-0.18055037,0.23359218,0.14933595,0.049436815,-0.62480396,0.0047759674,-0.14098349,0.033627294,-0.27398458,-0.1928945,-0.20979224,-0.0889513,-0.60844886,-0.0194781,-0.5700717
상계8동,-0.5430558,0.4058604,-0.44016498,-0.4474787,0.17594606,0.3584927,0.014872627,0.29024464,0.059786953,0.3959577,1.0444194,-0.21872452,-0.21671714,-0.13954626,0.34389034,-0.44979617,0.24261352,-0.44501367,0.30808228,0.29847693,-0.10582009,-0.18212003,0.06258766,0.29630542,-0.39521,1.0170704,0.782875,-0.39121482,-1.0084296,0.32766846,0.5206948,-0.14709818,0.043213356,0.7673345,0.63610154
상계3·4동,0.13503465,0.19572191,-0.12743993,0.23902452,0.33532578,0.29465166,-0.030849164,0.52057076,-0.39073193,-0.1383798,0.15378141,-0.25446758,0.096928686,-0.023784727,0.47419587,-0.061468337,0.4448817,-0.055976886,-0.15841253,-0.119793445,-0.32533517,-0.019198745,0.5195863,0.091259815,-0.019217715,0.36881578,0.48204046,-0.08158708,-0.015936453,-0.3177656,-0.015834507,-0.060707204,0.29072207,0.3946223,0.27835077
신정3동,0.66797125,-1.0930154,0.96909153,-0.96054816,0.12166159,-0.90897846,0.9951247,-0.5190424,0.1630895,-0.22410172,-0.42699692,0.47802678,0.84867054,0.5498203,0.29320627,-0.51833475,0.025708623,1.0243338,-0.1742809,0.41746247,-0.14932542,-0.37599796,-0.10894202,-0.008451601,1.2310773,0.13535182,0.20553128,0.58346117,-0.24258816,-0.9069436,0.31161174,0.5293471,0.7961079,-0.25955567,0.32821134
논현2동,0.050292216,-0.14039496,-0.32533866,0.4896775,0.042517833,0.29893762,0.23755486,0.20028828,-0.36829215,-0.027811624,0.024199892,-0.09456208,-0.14291102,-0.13806497,0.13986146,0.47115937,0.42624518,0.09563264,0.4276833,-0.19964044,-0.10186198,-0.4294728,0.32818297,-0.76353097,-0.660773,0.18027696,-0.019681398,0.37874898,-0.22815108,0.058658667,-0.06654917,0.032187484,0.05056172,0.054360934,-0.087572716
가양1동,0.12985437,0.30074257,-0.43794927,0.4068911,-0.07090475,0.12816441,-0.8237825,-0.16290633,-0.32801858,-0.26063043,0.073599294,-0.26408806,-0.07692951,0.3662769,-0.46473405,0.42568734,0.20354888,-0.24406001,-0.4229989,-0.19994685,-0.0862323,0.100969866,-0.1657371,-0.65630007,0.006010757,0.02179445,-0.281464,-0.4292823,0.07867807,1.1433365,-0.10267468,0.07090743,0.26069647,0.4609973,0.68392813
발산1동,-0.22560246,0.15221106,-0.30458492,0.38512754,-0.032246295,0.14485225,-0.7717581,-0.55052817,-0.15353091,-0.27573487,0.12423868,-0.39621347,-0.0653114,0.40633076,-0.591545,0.38687766,0.032931108,-0.30900633,-0.42850018,-0.3160831,-0.055375963,0.11463311,-0.33334285,-0.6374857,-0.026899412,0.12410027,-0.35901013,-0.44293794,0.28602076,0.9972809,-0.22203653,0.23315293,0.47814798,0.16380759,0.5102091
공항동,-0.2850213,0.10141288,-0.3257138,0.33405116,-0.05111316,0.13608745,-0.7605523,-0.42736295,-0.18642977,-0.28275505,0.13997734,-0.43556565,-0.07909557,0.34646773,-0.5070723,0.3705418,0.08232862,-0.34766695,-0.38038778,-0.29120776,-0.053931653,0.106738955,-0.2795846,-0.5646267,0.036851797,0.1220247,-0.29253477,-0.47712377,0.35794783,0.87023866,-0.24459416,0.20187332,0.45694745,0.10621314,0.52464604
방화1동,-0.18543047,0.14607754,-0.44414166,0.32929635,-0.028536666,0.10496049,-0.7973627,-0.02658514,-0.38854533,-0.32596713,0.06963676,-0.42231444,-0.03380145,0.21689983,-0.26068103,0.33289897,0.20127285,-0.38166088,-0.3831405,-0.12663738,-0.107282415,0.17929986,-0.0155732,-0.42109853,0.16755494,0.068321615,-0.11954308,-0.4995421,0.3343406,0.71642023,-0.23660329,-0.04722464,0.30206802,0.23273773,0.74657714
방화2동,-0.25360566,0.10608894,-0.48751205,0.3814482,0.016927188,0.11278207,-0.67791796,0.04574905,-0.4911568,-0.19934565,0.033368833,-0.31637624,-0.046786074,0.2091955,0.024297329,0.28353828,0.19419679,-0.360389,-0.34794688,-0.031804565,-0.16210762,0.21484831,0.41212118,-0.3029311,-0.07646003,0.058424655,0.08077919,-0.29027167,0.40431055,0.42604366,-0.38833165,-0.2559543,0.39409068,0.43433896,0.75103754
방화3동,-0.11827949,0.23040453,-0.45059156,0.4232566,-0.03074669,0.10362878,-0.72819257,0.06672361,-0.49673527,-0.16208485,-0.006603121,-0.2834805,-0.029931795,0.20969068,-0.118050635,0.34226197,0.18022874,-0.30846062,-0.3551321,-0.076285936,-0.0575061,0.24611758,0.2350608,-0.40091592,-0.054313563,0.018127875,-0.050002947,-0.2953613,0.17761143,0.710753,-0.26874268,-0.1913071,0.23557195,0.45228586,0.8132703
대치1동,-0.37705094,0.09396763,-0.083128765,-0.25543773,0.028549796,-0.21333665,0.11737957,0.31384873,0.3752747,0.24181816,0.50609136,0.016184032,0.027102016,0.08052176,0.26917648,-0.66335934,0.09607735,-0.24531364,0.26553285,0.43542576,-0.032003313,-0.1653372,-0.21390839,0.35886168,0.32982275,0.6209543,0.5042106,-0.20509386,-0.74270535,0.15770411,0.5013167,0.3973191,-0.123651,0.088333085,0.29437247
신도림동,0.098794326,0.2529814,0.15898386,-0.1577361,-0.27457586,-0.28207818,0.14827809,-0.22156794,0.26111394,0.07346363,0.003765649,0.15006869,0.124595314,0.21954511,0.068813026,-0.038312163,-0.11112912,-0.016817907,0.057646126,0.25193477,0.1960503,0.0341676,-0.3809831,0.02412837,0.41982102,0.12085003,-0.005707972,0.20063405,-0.38198042,-0.07047439,0.43985993,0.101035595,-0.15958607,0.07500293,0.13086414
구로1동,0.28736776,0.32671463,0.03761811,0.024698988,-0.29411796,-0.32631728,0.13411865,-0.08118051,0.37638706,-0.15828577,-0.32621983,0.15717265,0.007959143,0.2685793,-0.10956545,0.16206144,-0.27824643,0.05319309,-0.27868617,0.113784865,0.15434894,0.18868983,-0.045653693,-0.1406538,0.27745116,-0.356349,-0.2450212,0.006882891,0.097014524,-0.14890581,0.13529705,0.15440802,-0.017476093,-0.041382305,0.108844444
구로3동,0.3105346,0.6054336,-0.20759745,0.03686271,-0.7328772,-0.46537384,0.015957655,-0.29984123,0.3306688,-0.07642311,-0.25434726,0.18672635,-0.06775962,0.38139224,-0.23624936,0.34512705,-0.5157237,0.0429866,-0.40866172,0.25517312,0.34218416,0.27647707,-0.32006764,-0.077673316,0.26691636,-0.3881805,-0.3900789,-0.069140494,0.016672414,0.13651013,0.36295804,0.03707415,-0.33657712,0.22314622,0.095200315
구로4동,0.42537206,0.62889004,0.054750793,-0.026125532,-0.70296067,-0.62092006,0.100469194,-0.19390543,0.34940708,-0.17241734,-0.25199968,0.29902253,-0.055988476,0.28670576,-0.08371383,0.42116433,-0.48036352,0.047788907,-0.32695007,0.16916329,0.47004724,0.26168188,-0.2136188,-0.17051792,0.45129114,-0.4339842,-0.3701037,0.062357355,0.0655766,0.019242031,0.4850329,0.1336313,-0.5726942,0.24241655,-0.031697758
고척1동,0.22874942,0.10485013,0.31726223,-0.18752062,-0.10185226,-0.31336352,0.26113182,-0.13300718,0.29806638,-0.032265365,-0.24073528,0.20996274,0.15130527,0.34469554,0.0027211006,0.012180706,-0.13399348,0.14026952,-0.03948007,0.19972396,0.11334665,0.040564638,-0.17632835,-0.044029005,0.424002,-0.049044214,-0.09496937,0.13695762,-0.05804695,-0.27091476,0.2309012,0.21613619,0.010394167,-0.15473716,0.00924113
고척2동,0.5101591,-0.6963928,0.85679907,-0.7443416,0.15220208,-0.692552,0.7444413,-0.38428017,0.20121938,-0.1325354,-0.38365766,0.41385412,0.63426566,0.5206691,0.23840016,-0.37738755,0.032365058,0.7260956,-0.053034175,0.33885202,-0.083012246,-0.24824607,-0.18387847,-0.041311264,0.94493634,0.14595671,0.083019204,0.47624263,-0.18147665,-0.73754454,0.23457661,0.40914056,0.54082566,-0.3181986,0.12239361
시흥1동,0.11609602,-0.024256201,-0.21774113,-0.2492373,0.013635306,-0.046242755,-0.010101749,-0.30639255,-0.48636737,0.052894376,0.09805969,0.02951147,0.057974428,-0.35459632,-0.12958272,0.4049408,0.13612789,0.09280797,-0.018172191,0.0056924084,0.01238534,0.031101603,-0.17601931,0.43420306,0.392335,-0.11712296,-0.10800756,0.10248826,-0.36545593,0.12537915,0.38826692,-0.41618487,0.0041496344,0.07608186,0.38526
북가좌2동,-0.011387142,0.10423131,0.13031077,-0.0069909096,-0.0047768317,0.07303315,0.0653978,-0.0043961974,0.2339329,0.1617822,0.05151404,-0.17478596,-0.07141613,0.17138833,-0.19310191,0.00079267425,-0.1911146,0.20906994,-0.0872929,0.13178185,0.01938045,0.2248123,-0.106260374,0.19970602,-0.5063475,0.11949451,-0.0824606,-0.16003586,-0.04711843,-0.09872843,-0.076742396,-0.23842269,-0.20556945,-0.020899793,-0.28898582
충현동,-0.1576774,-0.29579124,-0.31632316,0.008913405,-0.2469306,-0.00056781527,-0.40032157,0.27123675,0.0054491474,0.46653467,-0.056774296,0.21275085,0.015280202,-0.66555154,-0.006457428,-0.4299053,-0.17005421,0.19384342,-0.29541904,0.5480842,-0.3005057,-0.31500623,0.009378476,0.58668715,-0.05125898,-0.644622,0.08361167,0.30443418,0.38524303,0.33431318,-0.000311438,0.08448137,-0.07705338,-0.2990582,0.36377302
북아현동,0.29458594,-0.0171089,-0.059843168,0.6061827,-0.37518278,0.13021259,-0.56409127,0.04062939,-0.08443885,0.6972884,-0.3587437,0.28041646,-0.043862592,-0.3972314,-0.514853,-0.49323764,-0.37117407,0.46656418,-0.48288423,0.5575558,-0.49180475,-0.05783909,0.24675213,0.76365817,-1.0270215,-0.2924832,-0.029716277,0.14452168,0.3066077,0.33670813,-0.47687662,-0.45271394,-0.90371716,0.15848012,0.07599267
신촌동,0.25448966,-0.08058074,-0.23063403,0.43159616,-0.16606615,0.3114636,-0.78182006,-0.2196762,-0.5215195,0.9468154,-0.21708311,0.50422025,-0.10194075,-0.8277837,-0.4770501,-0.519723,-0.45848444,0.5350608,-0.48740858,0.8934993,-0.7377443,-0.31027666,0.20008148,1.1089368,-0.91002315,-0.36910444,0.019287039,0.3522691,0.023132045,0.6154888,-0.3609339,-0.78715724,-0.75191987,0.30279613,0.42937115
시흥5동,-0.013879986,-0.52000755,-0.077068396,-0.44346094,0.4218783,-0.050443877,-0.06355098,-0.47402564,-0.80322164,0.08188321,0.13946046,0.14761285,0.09359823,-0.57920915,-0.30289704,0.4390593,0.17930223,0.3287866,0.10919741,0.11558518,-0.26773444,-0.1363872,-0.07135795,0.79443294,0.5201259,-0.13819319,-0.057902396,0.11878289,-0.30191126,0.3732834,0.36019933,-0.56985945,0.29682118,-0.18549648,0.41537693
목4동,-0.19387992,0.14398885,0.51810116,-0.11503289,0.06095369,0.018073183,0.2654594,-0.76007473,0.32575804,0.3178565,0.14044137,-0.1545592,0.09332379,0.4555145,-0.3634161,-0.093478136,-0.10642676,-0.09920724,0.20852746,0.17286317,0.2014563,0.4575606,-0.7245508,0.18981187,-0.11273721,0.38447946,0.06383778,-0.36047894,-0.536234,0.06539304,0.42877448,0.30461344,-0.027176302,-0.16472939,-0.15290017
당산2동,0.35995185,0.72731113,-0.9341808,0.062347434,-0.25424108,0.2655368,0.0018175077,0.98933333,-0.03505379,0.49446744,0.2546512,0.10897216,-0.14987737,0.26435438,0.4565594,0.73677784,0.39148352,0.1984037,-0.6493485,-0.10305029,0.6084463,-0.28189296,0.12385981,-0.70335394,-0.66327447,-0.3958034,-0.085441284,0.2750099,0.42221442,0.26629132,0.34599006,-0.17877811,0.14293963,0.56646067,0.43168342
양평1동,0.18404914,0.47921985,-0.34089738,0.054810025,-0.4482127,-0.18323582,0.10767596,-0.009118798,0.120049454,0.026893126,-0.1632909,0.07876738,-0.21283823,0.24590322,-0.017763278,0.34908658,-0.15099254,0.055903185,-0.39995998,0.07046054,0.13872536,0.17816263,-0.0676538,-0.31291017,-0.24477015,-0.21674612,-0.30074754,-0.025504217,-0.038823348,0.20489827,0.19476171,0.04548408,-0.10165234,0.33285657,0.16477257
양평2동,0.14933032,0.36846858,-0.45526326,0.25998726,-0.06986408,0.12882555,0.2708853,0.28695947,-0.028269602,0.0474568,0.12356881,0.041432817,-0.19317107,0.21938999,0.1290228,0.45102954,0.105005674,0.21286665,-0.072626874,0.032563727,0.05191487,-0.13427503,0.14706314,-0.42875504,-0.6565747,0.14203762,-0.05916642,0.13006252,-0.11979213,0.19012584,0.14730683,-0.24339934,-0.023771074,0.5572731,0.1981332
신길1동,0.461392,0.7445625,-0.6416287,0.18976825,-0.4317473,-0.13494605,-0.05278022,0.5795941,0.10893564,0.029002681,-0.061300594,0.117577165,-0.12344434,0.33776128,0.18504915,0.5553604,-0.021330655,0.024155604,-0.65318584,-0.19508775,0.51964575,0.012056134,-0.12854926,-0.5849777,-0.088994324,-0.63673925,-0.2504478,0.05066158,0.41346672,0.20553383,0.45173925,-0.05099236,-0.1679471,0.3373319,0.33530593
신길6동,0.25964645,0.66306144,-0.4364168,-0.09301121,-0.3734128,-0.091308184,-0.048614368,0.46266952,0.3617507,0.18530646,0.34301096,0.10964225,-0.14037997,0.11598931,0.4756832,0.074503794,-0.037488677,-0.11297926,-0.06692307,0.071235634,0.77018756,-0.2219767,-0.38923368,-0.19688532,0.20026131,-0.5148251,-0.017190065,0.19083685,0.229689,-0.15065753,0.54175204,-0.052375667,-0.5194191,-0.049311273,0.08227445
신길7동,0.38413936,0.7250521,-0.5938572,0.03276661,-0.38017154,0.045643363,-0.041532934,0.42931834,0.18290946,0.2904995,0.20482941,0.0927427,-0.10441305,0.3661229,0.35142672,0.4264304,0.058607616,0.01794689,-0.31710565,-0.16170694,0.77285886,-0.22556868,-0.37252653,-0.5122056,-0.034852244,-0.49829108,-0.11671922,0.26015517,0.37413177,-0.08080463,0.52772653,-0.11536822,-0.250108,0.1493265,0.17672518
망원2동,0.06945228,0.008109871,-0.42324913,0.4802203,0.07332116,0.04025114,0.4896793,0.042799816,-0.041078396,-0.11291261,-0.0010866692,0.17630982,-0.2615963,0.25312343,-0.059583105,0.42815757,-0.10803982,0.53470266,0.22918494,0.14844462,-0.18460402,-0.23992723,0.46436125,-0.44891196,-1.0011708,0.51548517,0.00052917004,0.35565886,-0.26111558,0.017792845,-0.14750135,-0.68967605,-0.17757918,0.8065736,0.005742466
대림3동,0.35840163,0.6961985,0.029798582,-0.061481364,-0.68001944,-0.49166426,-0.004302359,-0.23920546,0.2303106,-0.12463194,-0.087426014,0.18182713,-0.003303063,0.043478496,0.039066996,0.3342773,-0.33297348,-0.06530898,-0.28616804,0.07140374,0.44565263,0.27625692,-0.2915336,-0.17956148,0.46519297,-0.28967297,-0.27362442,0.22463383,-0.20910367,0.02483377,0.42008874,-0.10852347,-0.5696588,0.40222976,0.103225335
영등포본동,0.40776786,0.64084387,-0.32795656,0.28507546,-0.58096206,-0.50900877,-0.079461105,0.18405044,0.23986332,-0.31438205,-0.33151624,0.11516836,-0.07930921,0.29398853,0.013060613,0.3981451,-0.3155273,-0.104656756,-0.6302646,-0.13035913,0.40221012,0.26583228,-0.14869715,-0.46235555,0.21101946,-0.8164017,-0.4239823,-0.16628225,0.42549208,0.19364811,0.33849514,0.08978161,-0.3108881,0.13561173,0.19013245
영등포동,0.41131318,0.72881943,-0.708479,0.2050628,-0.47685474,-0.2342982,-0.052393876,0.65618354,0.12028589,-0.041566476,-0.123111986,0.10488806,-0.09152664,0.25217748,0.26856112,0.5961693,-0.010831096,-0.012142981,-0.8090639,-0.1082657,0.4440979,0.12970234,0.11977664,-0.65634984,-0.23131976,-0.7794019,-0.3361326,-0.05970536,0.5144822,0.3259412,0.3041858,-0.010745037,0.0067568235,0.44581774,0.42745996
도림동,0.23729588,0.48641235,0.008870573,-0.04154118,-0.49903616,-0.4254177,0.00076985173,-0.09705883,0.26928288,-0.027906824,-0.16048282,0.2151544,-0.05601851,0.16303056,-0.03550825,0.24527927,-0.3387343,-0.055803824,-0.2496659,0.11956833,0.42436272,0.21690553,-0.2462673,-0.09555125,0.23695819,-0.31067896,-0.2856177,-0.07768219,0.033944927,0.11342071,0.30087638,0.15476707,-0.52121955,0.08716707,-0.065218635
문래동,0.32000276,0.61859214,-0.021912716,-0.035682775,-0.6700305,-0.55222493,-0.01408474,-0.24340655,0.26546586,-0.17221086,-0.18883298,0.18250862,0.01053565,0.09045075,0.021028196,0.33822602,-0.3747463,-0.09439586,-0.39791268,0.058388315,0.38936839,0.35345888,-0.22251187,-0.20506708,0.39676934,-0.43094155,-0.36473015,0.035490647,-0.019156445,0.08561082,0.31154257,0.03067637,-0.42423195,0.33888385,0.11148727
노량진2동,0.08653489,0.6681807,-0.8215632,-0.27428687,-0.35759205,0.12922204,0.035892263,0.7131858,0.31486192,0.264278,0.29084024,-0.0030340562,-0.13522272,0.26708084,0.5851886,0.30524787,-0.00913068,0.1445039,-0.69655734,-0.22037356,0.89479405,-0.14787053,-0.28283927,-0.49764198,0.045411482,-0.78632814,-0.1385414,0.32083988,0.8965256,-0.114510365,0.31014422,-0.24253298,0.13288803,0.03347461,0.33107707
상도1동,-0.061370224,0.3774242,-0.54634875,-0.14493334,-0.2346427,0.013629119,-0.032308586,0.6697002,0.27453998,0.08471626,0.30724815,-0.092888065,-0.11619515,-0.06719835,0.5273795,-0.13918734,0.12224851,0.058148835,-0.4163636,0.041578334,0.42490584,-0.1905765,-0.07705322,-0.11368452,-0.020234734,-0.41662747,-0.0058562276,0.14131668,0.51282597,-0.11241619,0.22640611,-0.13046375,0.14793928,0.004148083,0.39149317
상도2동,-0.006575159,0.6125026,-0.7657452,-0.26840514,-0.39938572,-0.020590205,0.036212757,0.7200583,0.4116472,0.030913997,0.27903327,-0.03762011,-0.14486225,0.12842011,0.67194575,0.10497778,-0.08792665,0.074138455,-0.6935963,-0.18984038,0.878734,-0.105538994,-0.24750578,-0.43654895,0.26580423,-0.9818511,-0.14304027,0.27499512,1.0173051,-0.17217797,0.28873602,-0.24688287,0.13772085,-0.10093081,0.36318645
상도3동,-0.19354026,0.45634398,-0.52058643,-0.23043305,-0.32057813,-0.13284403,-0.06700433,0.7922772,0.37414426,-0.09126397,0.46421692,-0.008789542,-0.27021384,-0.3250389,0.62651026,-0.17217323,-0.008476975,-0.01899625,-0.47538543,0.013334793,0.5106569,-0.092792094,-0.018844698,0.045256462,0.13158007,-0.5777278,0.042712495,0.06614374,0.6439298,-0.059487328,0.10685317,-0.16699362,-0.017377052,0.043518186,0.25513196
상도4동,-0.29541337,0.20270218,-0.300534,-0.074842595,-0.16476195,-0.11029404,-0.087248005,0.6651612,0.29687023,-0.1892797,0.42813724,-0.10323728,-0.20267777,-0.4949908,0.4942168,-0.43808368,0.10311719,-0.056160055,-0.21221215,0.114511944,0.06661093,-0.17092177,0.14982429,0.2708977,-0.0018043751,-0.21898009,0.17069703,-0.026084974,0.25932956,-0.002493969,-0.010550316,-0.108128294,0.04470115,0.03230381,0.28800714
대방동,0.1894715,0.70692754,-0.6879128,-0.17636225,-0.36583936,0.07844879,-0.074197836,0.6979448,0.28669095,0.29104266,0.35028288,0.07321195,-0.1701392,0.15318356,0.54000056,0.28185198,0.031276193,0.08792037,-0.4664725,-0.1324629,0.8432322,-0.18443725,-0.292849,-0.33447167,-0.028194193,-0.6096822,-0.10832873,0.27362585,0.6258857,-0.121716425,0.34021458,-0.16925932,-0.16018575,0.08809986,0.1589954
신대방2동,-0.03765801,0.6213928,-0.6138562,-0.2739234,-0.4582825,-0.18101944,-0.112063125,0.96192104,0.4250112,-0.07054098,0.4060256,0.100721374,-0.28184265,-0.3012093,0.69468725,0.027484268,-0.08187179,0.09289387,-0.67338616,-0.080704264,0.80258185,-0.072761975,-0.09053646,-0.08628214,0.20952815,-0.93590176,-0.13201992,0.21093693,0.9647562,-0.119697414,0.12741719,-0.22130427,-0.13293444,-0.023338426,0.16244984
흑석동,-0.0906872,0.35626644,-0.49251667,-0.0742957,-0.23105463,0.047069497,-0.08461081,0.5439629,0.22374915,0.017492324,0.2883558,-0.17931928,-0.07835026,-0.03524278,0.45544186,-0.142207,0.09270119,0.03304476,-0.4276796,-0.012007297,0.29474285,-0.13867596,-0.04353013,-0.05917427,-0.1001737,-0.3329907,0.023010578,0.08274939,0.5072347,-0.112255804,0.13608341,-0.19807208,0.20904152,0.040127084,0.36081886
노량진1동,0.05400546,0.50103694,-0.71789646,-0.2538671,-0.2624311,0.16766492,0.07245887,0.65880513,0.23632139,0.33766153,0.2785129,0.011733583,-0.10308318,0.20533256,0.50652957,0.23947881,0.10492891,0.13464652,-0.5472725,-0.06800253,0.677469,-0.23159802,-0.1846672,-0.40305495,-0.06601958,-0.48326424,-0.05074891,0.2943428,0.62830997,-0.06288698,0.3259577,-0.15480553,0.15956327,0.079778336,0.38486353
사당2동,-0.29421926,0.21322289,-0.29331636,0.016537558,-0.1402859,0.04968899,-0.11459623,0.3965802,0.17710033,-0.21340577,0.3907191,-0.3076732,-0.103386685,-0.27979755,0.3725531,-0.3432831,0.059975915,-0.12028383,-0.21484086,-0.0695525,-0.09277256,-0.10653336,0.18082236,0.2261043,-0.18960802,-0.05229084,0.19225684,-0.114033684,0.34010497,-0.07451308,-0.13419294,-0.2736062,0.27767533,0.1425187,0.28205478
보라매동,-0.38337648,0.29186973,-0.3103543,-0.36341378,-0.16275139,-0.15568921,0.0128415935,0.54706824,0.29459122,-0.032287017,0.6462614,0.029056288,-0.3583847,-0.43048435,0.5222362,-0.44005984,0.029691197,-0.1979137,-0.18401636,0.3391072,0.21196279,-0.084421396,0.05822437,0.38135678,0.12146954,-0.01956224,0.35639292,-0.0982332,0.080395594,0.11706577,0.22460122,-0.09844191,-0.05430885,0.22964768,0.3984497
등촌3동,-0.07940785,0.2126199,-0.32536048,0.27786025,-0.062146306,0.15248498,-0.55643094,-0.29596573,-0.14119253,-0.13447207,0.099771164,-0.24737263,-0.072399475,0.3362873,-0.3436001,0.24384284,0.079597495,-0.18524562,-0.32739806,-0.10506512,-0.12819001,0.11239046,-0.2481081,-0.4448468,-0.032179087,0.1315315,-0.17815225,-0.3588809,0.038820706,0.80874735,-0.08284524,0.075760774,0.30041844,0.33500877,0.49975923
삼성동,-0.052779183,-0.08862875,0.2371221,-0.33683878,0.050214656,-0.043539528,-0.061109632,-0.9239353,-0.33544344,-0.011702582,0.045791116,0.53432626,0.39036217,0.19121741,-0.4836439,0.018023495,-0.43712267,-0.12140743,0.5523546,0.13927789,0.06405894,0.25542393,0.028834935,0.36896378,0.028779212,0.56794816,0.4293168,-0.2177572,-0.66379523,0.36742967,0.2648386,-0.7474204,-0.6013315,0.85839915,0.019674042
미성동,-0.025763495,-0.048618026,0.1742477,-0.28275004,0.06219179,-0.1788407,0.008073928,-0.494468,-0.24182022,0.14815882,0.21943402,0.352046,-0.010394077,-0.19984882,-0.29380178,0.16883665,-0.16141659,0.11839745,0.30277145,0.34350976,0.1842994,0.11486338,-0.2880367,0.3994125,0.15935881,0.2491815,0.1682708,0.053988375,-0.43351856,0.3264591,0.40444648,-0.49879685,-0.30910596,0.14792876,0.085537635
양재1동,-0.18954583,-0.020914564,-0.17821884,-0.027380899,0.1424613,0.16110621,0.029341692,-0.033257555,0.1776267,-0.06342796,0.115654215,-0.35886666,-0.21250682,0.19027644,-0.07374633,0.005569662,0.37158555,0.0950166,-0.2225449,-0.17787753,-0.2550457,-0.20350423,-0.3506432,-0.13700412,-0.096859336,0.54945755,-0.100945696,-0.2745946,-0.45075414,0.38945845,-0.20323248,0.4914675,0.38032877,-0.09902291,0.2672703
양재2동,0.31457025,-0.14235233,-0.6046654,-0.29299048,0.19402462,-0.026603896,-0.35349187,0.12938106,-0.34706452,-0.69633776,-0.20087306,-0.29487184,-0.3279944,0.21452731,-0.3544937,0.62880117,0.60192907,0.123925015,-0.52402675,-0.787477,-0.6716128,-0.29210472,0.0030945055,-0.36897662,-0.23962753,0.74956137,-0.35786572,-0.30158696,-0.57342535,0.85469717,-0.62660635,0.63204235,0.5208116,0.37643498,0.5591575
내곡동,-0.12882037,0.019162925,-0.3488153,-0.19601527,0.07965317,0.030205932,-0.23573585,-0.014192904,-0.14666961,-0.26318312,0.20631923,-0.20942289,-0.0957282,0.14175898,-0.03535802,-0.01832414,0.07727589,-0.18228227,-0.101714775,-0.29788047,-0.41606426,-0.03697526,0.15918903,0.052176308,-0.15820275,0.45211685,0.21838576,-0.23855445,-0.16907236,0.29960176,-0.25457606,-0.033741675,0.29280737,0.5285476,0.3733326
세곡동,0.017060846,0.11371012,-0.0935734,0.29376674,0.2692059,0.21384029,-0.49556944,-0.8639718,-1.0122699,-0.5782527,-0.025906049,0.11534922,0.2525045,0.20858306,0.17328714,-0.025839668,-0.51610553,-0.9468831,0.07581294,-1.0505923,-0.25630113,0.5737869,1.0574178,-0.21713956,0.29942864,-0.1457072,0.6981607,-0.21048802,0.6606412,-0.36806244,-0.7392946,-0.6891206,0.24834207,1.2072803,0.53815323
가산동,0.2437122,0.47184482,-0.3010785,0.10196584,-0.73287153,-0.42588636,0.016651608,-0.580692,0.22797646,-0.22983956,-0.35447183,0.07340689,-0.04588151,0.37848198,-0.27921933,0.22059014,-0.50290656,-0.12374171,-0.3869766,0.080089495,0.16259538,0.31941205,-0.24880402,-0.26698372,0.2516205,-0.36787134,-0.37218755,-0.16322097,-0.21840507,0.19471279,0.19550467,-0.12595247,-0.09213728,0.32475623,0.40607437
장지동,-0.44589785,-0.38899195,0.29622796,0.15211862,0.075930886,-0.039653726,-0.47714478,-0.72371465,-0.4100224,-0.33149353,0.03478419,0.1700933,-0.044054516,-0.00640908,0.1674363,-0.008092799,-0.39630473,-0.601817,0.079749174,-0.47961822,0.004211994,0.16529685,0.6410281,-0.39543885,0.11460251,-0.648044,0.62880236,0.3012564,0.64928913,-0.14873268,-0.54497844,-0.23453377,0.032179344,0.8505799,-0.38551977
위례동,-0.63589793,-0.70344144,0.4163825,0.11301502,0.21496964,-0.086654015,-0.6012744,-0.9701152,-0.5001613,-0.3291313,0.052148364,0.36320496,-0.060732987,0.05858142,0.099645875,-0.013536141,-0.61480486,-0.64622307,0.16693692,-0.46395972,-0.116739705,0.18473591,0.7774779,-0.39047718,0.07431574,-0.8019221,0.8839616,0.45368415,0.72302556,-0.0752322,-0.6897177,-0.3889654,0.0285787,1.1284163,-0.6251813
서초2동,0.11656192,-0.29126245,-0.20506695,0.25439858,0.23016469,0.26660946,-0.17443627,0.58400077,-0.18224686,-0.17124803,-0.31496927,-0.5331497,-0.08850245,0.04945808,-0.015716689,0.40035886,0.50813866,0.24143527,-0.27652276,-0.401149,-0.63859946,-0.2056178,-0.09193578,-0.2623725,-0.29218596,0.40135902,-0.32634157,-0.11605184,-0.36800227,0.0919794,-0.65965885,0.26197365,0.10541241,-0.2221428,-0.3161069
서림동,-0.027160104,0.29388234,0.19030993,-0.13914424,-0.071593836,0.09676418,-0.090132214,-0.67213494,-0.1540237,0.1801357,0.079115026,0.27755594,0.23521675,0.19696003,-0.27798817,-0.1433025,-0.4024543,-0.5098854,0.35007954,-0.11179439,0.39252272,0.22042683,-0.1430919,0.038089134,0.052607052,0.3593482,0.26024652,-0.14174584,-0.32924122,0.065308034,0.2107883,-0.33019143,-0.44758046,0.40988186,-0.079977095
신사동(관악),-0.0376482,0.24196808,-0.16747732,-0.30215734,-0.36388937,-0.37335882,0.030664304,0.56633085,0.26128206,-0.027775787,0.33903447,0.4827463,-0.2581742,-0.54608977,0.47854885,0.08352359,-0.10107489,0.1077606,-0.2027794,0.4024436,0.56877154,-0.16748314,0.0653331,0.21251541,0.28843617,-0.4600883,0.08113018,0.31433585,0.34812802,0.07869395,0.2834559,-0.12262654,-0.47573715,0.037797898,0.110541925
반포본동,-0.075797535,0.25573912,-0.30202043,-0.079147756,-0.07005214,0.37714705,0.070259005,0.3174561,-0.01862965,0.2246767,0.27107635,-0.19521801,-0.17985255,-0.020362673,0.29126874,0.14660132,0.3140612,-0.07199721,-0.01700063,-0.07980532,0.114582606,-0.22615486,0.27728945,-0.2598868,-0.4501461,0.05287641,0.1581139,0.22376853,0.09377347,-0.11289661,-0.048896834,-0.07578601,0.33747822,0.3051558,0.25328693
오륜동,-0.27873406,0.7412963,-0.08624703,0.031961247,-0.38825023,0.2017507,-0.37516415,-0.68721396,-0.40406308,-0.00021186471,0.3338063,0.117731705,-0.020017013,-0.08298378,0.38083112,-0.072290875,-0.294758,-1.1367522,0.39076275,-0.9456151,0.89191,0.06865814,0.27367097,-0.6637268,0.45421237,-0.20165037,0.18859376,0.092226446,0.3138258,-0.23435022,-0.110759765,-0.22043744,-0.37499344,0.573734,0.27983007
논현1동,0.17747681,-0.09507749,-0.121387854,0.4109984,0.08901125,0.2762411,0.12233349,0.33823347,-0.26355878,0.009761479,-0.025784565,-0.09951091,-0.08169709,-0.15867455,0.14095499,0.32163963,0.41512433,-0.009530076,0.42190987,-0.17820644,-0.14056079,-0.36890304,0.19000319,-0.5078748,-0.2979095,0.0600166,0.067676805,0.34576726,-0.21183714,-0.08580124,0.037718616,0.15348104,-0.104512826,-0.08548647,-0.19885227
신월4동,-0.26886013,-0.3322596,0.32085222,-0.2252959,0.13269828,-0.1484141,0.28143495,-0.48755184,0.2086194,0.037591062,0.025601644,-0.2028583,0.2281852,0.41973573,-0.0859815,-0.30181935,0.03875249,0.11422273,0.06815207,0.10332618,-0.15116604,0.07574229,-0.39746755,-0.04036581,0.1955373,0.47294977,0.09779824,-0.09842079,-0.2195917,-0.06641281,0.1685725,0.38318214,0.55569935,-0.21426262,0.04007224
정릉2동,-0.12149331,-0.073514774,0.26378068,0.2957543,0.30104646,0.09064307,0.06625378,-0.33708006,-0.1130188,-0.15340087,-0.1205797,-0.27291664,0.30753538,0.3648334,0.08635755,-0.20842393,0.089845955,-0.12611157,-0.09535078,-0.14151318,-0.21517788,0.2347868,-0.06307711,-0.054593176,0.14567381,0.1786696,0.14341658,-0.26071265,0.20926088,-0.31116164,-0.21965931,0.041974917,0.6227616,-0.15498966,0.16734552
정릉3동,0.015173527,-0.1554883,0.30042097,0.3591649,0.3878397,0.07614439,0.028381756,-0.36220896,-0.2993825,-0.27120596,-0.22948518,-0.19943123,0.44757795,0.3430654,0.13708992,-0.14967628,0.14096138,-0.092034146,-0.13400608,-0.24306029,-0.2924575,0.21814325,0.025109168,-0.12215561,0.3373134,0.094620764,0.13351646,-0.19044057,0.26400065,-0.37837788,-0.2814094,0.020150403,0.69852275,-0.1537513,0.25649184
장위3동,-0.2636533,-0.21410611,0.47951454,-0.03588564,0.2060717,-0.08218547,0.0041938517,-0.6512566,0.17115399,0.38887244,-0.15592162,-0.27970055,-0.034817334,0.50085247,-0.70023847,0.08610586,-0.014558504,0.436708,-0.31590986,-0.20853446,0.2973012,0.41975164,-0.38100827,-0.03834363,-0.6481541,-0.012195993,-0.46165633,-0.30056158,0.22846356,-0.041671652,-0.26264942,0.381232,0.4864121,-0.8495267,-0.45495197
창신3동,-0.34085375,-0.12906063,0.46069252,0.08086923,0.058724687,-0.048094057,0.070144154,-0.56368196,0.24705702,0.20868835,-0.0865844,-0.2846003,0.079327,0.32367596,-0.39017054,-0.1967402,-0.16996579,0.026362333,-0.257137,-0.20420913,0.25887316,0.42423227,-0.43831655,-0.08074643,-0.3947959,-0.049589414,-0.30085048,-0.34237847,0.24942978,0.029061666,-0.14941256,0.29147473,0.4375432,-0.5793913,-0.2878669
숭인1동,-0.30459273,-0.058279138,0.5045832,0.09543281,0.06722805,-0.032989066,0.050887495,-0.69923973,0.24941051,0.27670708,-0.07277008,-0.2765066,0.1207715,0.4325937,-0.49472514,-0.14847031,-0.14499933,-0.010544929,-0.23550421,-0.20095035,0.32698193,0.47044492,-0.5158255,-0.110474534,-0.43351176,0.05748504,-0.27150592,-0.38463718,0.148348,0.046450958,-0.09184052,0.2820404,0.37195736,-0.5196637,-0.27949747
숭인2동,0.20612694,0.07861216,-0.040477555,-0.027393237,-0.29223424,-0.18012038,-0.045180283,0.4750336,0.30538583,0.39416018,-0.37529194,0.016962145,-0.23546323,0.23128629,-0.07313563,0.05248973,-0.23888224,0.17329317,-0.18301566,-0.048958737,0.5111611,0.14142483,-0.23679885,0.045383543,-0.5671324,-0.22888844,-0.26690036,-0.22841053,0.2958054,0.02815046,-0.18168373,0.45407146,-0.526982,-0.6442393,-0.70200294
청운효자동,-0.42274767,-0.85379577,-0.26385045,-0.45609957,-0.0034268387,-0.15484244,-0.032684006,-0.06402898,-0.07542909,0.09625995,0.0035006504,-0.117432386,0.0457761,-0.4358629,0.011443308,-0.41093823,-0.0024884054,0.06928087,0.086640604,0.5964688,-0.4790088,-0.21831417,-0.25157467,0.39964366,0.62580097,-0.24989323,0.377762,0.28184083,0.003941633,0.1828942,0.23946021,0.2978376,0.6592964,-0.45280534,0.41179568
혜화동,-0.27318388,-0.17674837,0.24266726,-0.056384437,0.06418722,-0.14492258,0.10795206,-0.42203733,0.3354895,0.121117115,-0.043794673,-0.21393266,0.09401643,0.4300385,-0.1287153,-0.13601264,-0.04161314,0.11622115,-0.4392972,0.096436314,-0.035447396,0.10141723,-0.37246352,-0.038294826,-0.038608663,-0.012653433,-0.13362718,-0.2553531,0.31487533,0.09833578,0.033698566,0.42779872,0.756606,-0.44820932,0.021851314
소공동,-0.25724435,-0.73533297,-0.3865595,-0.48963565,-0.085738875,-0.10321622,-0.10917764,0.45629817,0.1084435,0.13788301,-0.069415,-0.004362191,0.15875472,-0.7096514,-0.024959398,-0.42426607,-0.0674079,0.0756405,-0.120515384,0.6054653,-0.4425276,-0.3626449,-0.050941795,0.40941197,0.5888867,-0.78124607,0.3418038,0.37737125,0.41675383,0.19960809,0.23603228,0.5343974,0.54262894,-0.7362078,0.45130044
회현동,-0.17447777,-0.19745657,-0.26385322,-0.19984517,-0.17067844,-0.122094564,-0.12419624,0.54850787,0.270858,0.08277496,0.058247574,0.13416943,0.0043411804,-0.499027,0.14590451,-0.28488296,-0.09750021,-0.036442745,-0.11107013,0.26446813,0.012422966,-0.26398432,0.002348192,0.2768064,0.31794605,-0.69544613,0.05264619,0.16512673,0.50096583,0.16671662,0.15912409,0.46837768,0.06380358,-0.5683692,0.13762867
명동,-0.2190081,-0.5881964,-0.3554138,-0.42114452,-0.08094312,-0.09026209,-0.11512368,0.49162868,0.15581504,0.12083654,-0.05566945,0.027668528,0.13110657,-0.6483922,0.007975005,-0.38707736,-0.08302645,0.043227505,-0.13848233,0.5011574,-0.33700895,-0.32909274,-0.016965946,0.36803597,0.5136068,-0.78266644,0.24710801,0.32764712,0.47546223,0.19468589,0.19434421,0.5343758,0.4532548,-0.71771157,0.3605098
필동,0.06739196,0.034349315,-0.055687368,0.07427595,-0.062284045,-0.1146102,-0.044905588,0.43523148,0.25746858,-0.0456789,0.018371351,0.21254633,-0.034015924,-0.32857776,0.1683459,-0.25951868,-0.03479544,-0.0768025,0.04667698,0.14072412,0.104725115,-0.18250445,0.058521923,0.12520002,0.3058286,-0.5203823,0.072520174,0.12109075,0.3303817,-0.060510423,0.08303064,0.3133159,-0.18176013,-0.31676045,-0.020823339
신당5동,0.05539511,0.3899946,0.24598423,-0.36886996,0.03560649,-0.084227204,0.115552716,0.12876365,0.30123678,0.23067056,0.4067055,0.22999416,0.09481326,0.043829605,-0.16335791,-0.5327447,-0.1183308,-0.3060347,0.49089456,0.4996327,0.17610945,0.24331051,-0.16756578,0.59210265,-0.01762674,0.7966759,0.6536526,-0.19517213,-0.9649813,0.16329747,0.48831934,-0.25763044,-0.965155,0.45834523,0.03321103
서빙고동,0.2596733,0.075322226,0.2647752,0.17239967,0.080339156,0.10505194,0.17501488,0.19914153,0.094831936,0.09719363,-0.046412613,0.0322177,-0.063671194,0.043422006,-0.02103136,0.06697787,0.121436894,-0.04513075,0.47825414,0.061174735,0.0048303623,-0.1997387,-0.101287454,0.003870088,0.18177326,-0.008379704,0.10806295,0.22009164,-0.24976885,-0.24602085,0.22078724,0.25917402,-0.34237084,-0.34635726,-0.2624849
보광동,0.4571643,-0.15492955,0.40162817,0.76246905,0.22223556,-0.05947542,0.020391112,0.16545801,-0.097889945,-0.2399678,-0.2800193,0.015204527,0.061034467,-0.15110998,0.06141286,-0.023536209,0.18639597,-0.4383929,0.84215724,-0.13453011,-0.18711917,-0.38336694,0.15725599,-0.1793417,0.5740245,-0.33263627,0.3288716,0.27148736,-0.18374446,-0.37832537,0.2462105,0.4240739,-0.1516254,-0.5375883,-0.06209393
청파동,-0.027696341,0.14041433,-0.01707353,-0.0978108,-0.24753474,-0.22772858,-0.0006227847,0.40195718,0.31621552,0.15634623,0.17341046,0.27109692,-0.11715161,-0.22342889,0.1723499,-0.11025667,-0.12548089,-0.014654684,0.06412076,0.20428018,0.32593358,-0.16200241,-0.15700023,0.2738922,0.2008836,-0.26562,-0.017479235,0.004539772,0.13472864,0.054087397,0.23810832,0.28016242,-0.4694258,-0.2833108,-0.14313899
원효로1동,0.120403215,0.20069072,0.059377376,-0.060290903,-0.11606586,-0.07015416,0.05058358,0.39602563,0.1620638,0.14686477,0.0990686,0.15541688,-0.12687044,-0.1567285,0.11535775,0.030975565,-0.054375134,-0.0027600804,0.05331774,0.086299635,0.28075823,-0.04850815,-0.10017525,0.14260623,0.17039764,-0.22140779,0.0100748185,0.04497213,0.13370456,-0.11238812,0.09647125,0.061510384,-0.42417032,-0.17514865,-0.24012002
한강로동,0.06386511,0.14941072,0.053921472,-0.020947553,-0.07304413,0.082868256,0.07848414,0.24551536,0.11652688,0.13798603,0.101413496,0.020565204,-0.1396737,-0.0616091,0.04754645,0.042801965,0.029559653,-0.057141997,0.13702743,0.00848037,0.20107539,-0.03523718,-0.1105663,0.06565682,0.04906615,-0.13986935,0.024609884,0.026896317,0.0026003942,-0.123163834,0.10692018,0.096041024,-0.25146917,-0.167223,-0.18174425
황학동,0.23273726,0.12756526,-0.006113977,-0.118877746,-0.23599029,-0.21669114,0.012589103,0.4844923,0.33275422,0.35671782,-0.20843841,0.1335064,-0.20133893,0.12338126,-0.028303264,-0.004052167,-0.18418807,0.16159965,0.0026832297,0.17231876,0.4469931,0.05758191,-0.2264433,0.19288185,-0.32127854,-0.106224015,-0.13363576,-0.14000629,0.0030268729,0.03875885,0.034178223,0.36122024,-0.6883766,-0.46307284,-0.5506633
신당동,0.21290885,0.18120962,0.16224389,0.07217674,0.04734709,-0.09224773,0.06209346,0.30892462,0.24511331,0.03559111,0.08114959,0.20891944,0.015780088,-0.09730351,0.08491081,-0.31382576,0.033785053,-0.14483806,0.36257035,0.25873926,0.06974077,-0.07648837,-0.06671899,0.21683013,0.3019011,-0.0019114874,0.30540568,0.07320385,-0.2634787,-0.13201058,0.3024386,0.19459318,-0.5149762,-0.09781341,-0.0812112
다산동,0.41731036,-0.15871325,0.24987659,0.8254539,0.21341635,-0.034472752,-0.15469015,0.3183038,-0.19179688,-0.32957888,-0.27599308,-0.01880402,0.034294136,-0.3170756,0.110873155,-0.08761639,0.24477178,-0.51626015,0.82957727,-0.297923,-0.23566116,-0.3674091,0.17804365,-0.19658679,0.55976325,-0.50265914,0.32728067,0.2154642,-0.049326982,-0.34402865,0.13172032,0.3688341,-0.10249239,-0.55001664,-0.05714996
약수동,0.35177946,-0.08353515,0.28101227,0.6849817,0.1589221,0.0028445674,-0.026142465,0.05933166,-0.08690532,-0.24882975,-0.17586057,-0.00328458,0.057360068,-0.18467131,0.10033276,-0.0401409,0.17673764,-0.45378807,0.7946358,-0.14303498,-0.1300506,-0.31195718,0.07097921,-0.2091968,0.50327677,-0.29281068,0.2839705,0.2307241,-0.17043585,-0.29840606,0.22405215,0.32643506,-0.13280807,-0.44115528,-0.010144951
신정1동,0.2030726,-0.7867935,0.6582071,-0.67221004,0.09205459,-0.64504033,0.67100745,-0.60127753,0.20703861,-0.056365922,-0.2653703,0.3036129,0.5902262,0.6189159,0.11576823,-0.46731582,-0.043927386,0.5982103,-0.054076266,0.37319764,-0.19676772,-0.1970061,-0.31112945,-0.021103363,0.8950996,0.32607377,0.18766181,0.3350148,-0.23703149,-0.46958977,0.35693434,0.5026943,0.6818461,-0.17924558,0.23772225
청구동,0.0957578,0.23872676,0.22988774,-0.07575039,0.017411372,-0.013690089,0.14285088,0.07027579,0.26260275,0.18439361,0.19992155,0.08549932,0.008956298,0.07933963,0.0081245545,-0.21022241,0.0053392258,-0.18114676,0.4339363,0.3215649,0.11443801,0.03292954,-0.2788078,0.28913498,0.20412715,0.29901376,0.29088506,-0.053743728,-0.5570042,-0.06454402,0.46066132,0.19973092,-0.52918434,-0.082346916,-0.087809086
신정4동,-0.2105725,-0.011330817,0.28667492,-0.19958794,-0.010927598,-0.10701267,0.22264284,-0.5804991,0.2354641,0.1621825,0.07574425,0.0418559,0.10740146,0.4338629,-0.14242396,-0.095999934,-0.11742861,-0.0456868,0.088069096,0.13406527,0.07528998,0.1465794,-0.48443013,0.01938808,0.14410995,0.32114255,0.05010937,-0.15294276,-0.2895368,0.06403401,0.37660933,0.31487605,0.12677796,-0.0042025167,0.018255426
동화동,0.060189284,0.2769288,0.23310427,-0.20414814,0.054571085,-0.04942197,0.11284622,0.1468211,0.25226885,0.19633617,0.29664832,0.13897668,0.050109815,0.06378433,-0.06916964,-0.40214175,-0.035391953,-0.24676111,0.48431045,0.36481547,0.090043426,0.111049786,-0.21124287,0.42683163,0.09757912,0.561728,0.49584073,-0.11969045,-0.7568613,0.045898017,0.44114324,-0.0352662,-0.70855093,0.16053991,-0.04255873
이촌1동,-0.065906905,0.27268502,-0.30260128,-0.07098083,-0.14023148,0.18931825,0.020703983,0.3781121,0.10768755,0.14345655,0.24129131,-0.13306782,-0.13548042,-0.0039891833,0.27165973,0.038959116,0.14103849,-0.03515346,-0.21169405,-0.06042845,0.2120254,-0.13395187,0.0034939088,-0.120307,-0.17740001,-0.12756774,0.04983653,0.07555613,0.28586224,-0.08675661,0.06966548,-0.08915909,0.1690512,0.11366214,0.19975491
이촌2동,-0.026081719,0.17869292,-0.16348302,-0.070089854,-0.16902556,0.072659604,-0.009766329,0.48173058,0.07884404,0.13885283,0.14179347,0.14452712,-0.14997604,-0.24233389,0.2251305,0.13750035,0.08621725,0.035588548,-0.23172106,-0.045263298,0.30869293,-0.13299157,0.04512423,-0.10557663,-0.01563052,-0.28043246,-0.015810547,0.10495511,0.38157308,-0.027367989,-0.008470483,0.024828097,-0.109091,0.047784835,0.020173
이태원2동,0.38598856,-0.096434735,0.24519728,0.7177229,0.18381704,-0.02735274,-0.09131955,0.27212405,-0.115669034,-0.27156818,-0.21285222,0.00010536332,0.03265138,-0.26692337,0.13572156,-0.06944951,0.20879672,-0.4404954,0.78016794,-0.2176313,-0.18496077,-0.3616147,0.10388921,-0.19423804,0.5262558,-0.40086138,0.29703897,0.23704004,-0.088534415,-0.3329608,0.17019753,0.3512768,-0.15317196,-0.48077706,-0.06793903
행당1동,0.08121687,-0.011924224,0.2729201,-0.3794353,0.101179026,-0.11678683,0.17443475,-0.08591718,0.10283487,0.17475721,0.20652935,0.19940889,0.16152824,-0.007397727,-0.13643864,-0.46917394,-0.03492649,-0.124897294,0.73923916,0.5496443,0.12402159,0.108134516,-0.268193,0.48558658,0.17153198,0.5839371,0.38375175,0.033683956,-1.0212183,0.09520774,0.4522969,-0.17501508,-0.7354965,0.21848322,0.021869788
행당2동,-0.03176592,0.050013073,0.23070362,-0.38320908,0.09306858,-0.11458325,0.15892974,-0.07442197,0.1532182,0.2397202,0.31168768,0.14775455,0.10915408,0.050822735,-0.115128,-0.50234723,-0.021657947,-0.18235165,0.6532026,0.5368105,0.102278866,0.12392669,-0.31713247,0.49368623,0.17054519,0.6653662,0.44564745,-0.08193044,-1.0476879,0.15688269,0.53263175,-0.0760222,-0.6414207,0.21265619,0.074184135
응봉동,0.004470573,-0.03804239,0.17323738,-0.21284369,0.011517391,-0.1126096,0.17795938,-0.14043699,0.090837054,0.17902859,0.213686,0.16204962,0.09479844,-0.044200525,0.020121573,-0.34592965,-0.011354,-0.17051399,0.75556636,0.4260704,0.16113105,-0.05151447,-0.30106798,0.3050551,0.31268373,0.35953203,0.22649258,0.004063623,-0.89868695,0.056365296,0.547033,0.12770961,-0.532899,-0.016897,0.08142672
성수1가2동,0.06335939,-0.0830642,0.13940918,0.099126466,-0.08440143,-0.082558505,0.23785535,-0.25776395,0.026712315,-0.042901106,0.056450617,0.173568,0.11570292,-0.14789794,0.09871612,-0.101044655,-0.0077151293,-0.18319927,0.7803989,0.26470608,0.2804834,-0.20172918,-0.08209786,-0.07911947,0.22580372,0.11417878,0.07450768,0.15825368,-0.5795314,-0.060182214,0.3994266,0.12245642,-0.39142525,-0.118072726,0.101985686
성수2가3동,0.008762105,-0.13374348,0.0718238,0.36024752,-0.11075429,-0.07291926,0.33299083,-0.32891154,-0.15589677,-0.26664656,-0.06429477,0.12502111,0.15144156,-0.1864573,-0.0795676,0.2767227,0.11473329,0.040760174,0.5786342,0.07958378,0.27277625,-0.15495704,0.14482246,-0.45736566,-0.37129658,0.19382165,-0.046263732,0.20686945,-0.37923494,0.084835194,0.07075016,-0.09737112,-0.1558328,-0.077561766,0.111909956
왕십리도선동,0.07794514,0.08162733,0.2534123,-0.34113178,0.06475391,-0.11874961,0.17740545,-0.0074612526,0.16348535,0.20452392,0.2631128,0.20773971,0.109594434,-0.01888234,-0.08940588,-0.43800598,-0.033778954,-0.16080931,0.69871193,0.55614835,0.16350739,0.08528349,-0.2923337,0.48475876,0.19331089,0.55971783,0.38118088,-0.012561291,-1.0230253,0.10045633,0.5136874,-0.09037066,-0.78422207,0.17105247,-0.0013997462
상암동,-0.095616415,0.17409024,-0.6220249,0.43789253,0.24960087,0.20741282,0.36387175,0.80739623,0.006675759,-0.1612652,0.54796255,0.041911498,-0.28918064,-0.22074802,0.41454107,0.033585425,0.03694213,0.27786765,0.32375687,0.055076823,-0.31380033,-0.5598895,0.6191402,-0.02371195,-0.9138785,0.65112525,0.29700655,0.26630256,-0.14912067,-0.021893863,-0.35027528,-0.8296525,-0.18345685,0.8921616,0.1356056
공덕동,0.16761395,-0.015706064,-0.04671721,0.40176916,-0.39555225,0.03156213,-0.48357093,0.18034472,0.027223611,0.8777553,-0.14531854,0.41659865,-0.04446896,-0.44537187,-0.25328755,-0.38358906,-0.34137228,0.3782091,-0.30781484,0.5843583,-0.17615582,-0.28121525,-0.03394129,0.73271614,-0.62883043,-0.40237862,-0.025853105,0.15262571,0.30092427,0.34681606,-0.10068241,-0.15702172,-0.79976,-0.08764283,0.07246075
독산1동,0.31548744,0.5957819,-0.2856814,-0.0075289235,-0.8210767,-0.4268953,-0.048299037,-0.5479867,0.12055182,-0.079615794,-0.1932734,0.1181985,-0.03468157,0.3704522,-0.23504445,0.33127326,-0.4808384,-0.03534692,-0.31176984,0.1732982,0.31288975,0.267928,-0.42983583,-0.067050606,0.27148238,-0.20995288,-0.35024253,-0.10947772,-0.31365094,0.23044372,0.38520908,-0.19888546,-0.36359426,0.42377493,0.25784135
금호2·3가동,0.0086080665,0.21479954,0.19136813,-0.020607382,0.018501082,0.00036873575,0.12351205,-0.13294725,0.20667367,0.11774086,0.25125837,0.059092782,0.021174718,0.051311634,0.03681961,-0.27160332,-0.0005229572,-0.338418,0.5569837,0.27884457,0.13607231,-0.0017938754,-0.2674534,0.14946765,0.25785428,0.3414395,0.3400915,-0.05405584,-0.64070606,-0.002045837,0.5146373,0.1498279,-0.43476802,0.012074927,0.09215613
화양동,0.17791656,-0.04209208,-0.15094939,-0.05271121,0.16259263,0.20809352,0.14045568,0.13078752,-0.20054239,0.11915161,-0.07625306,-0.028413955,-0.050750785,-0.07661367,-0.12734632,0.3108082,0.18100983,0.3901823,0.18490265,-0.047183204,-0.086758256,-0.24365354,-0.048256624,-0.16013657,-0.35447502,0.31723267,-0.22812447,0.09678901,-0.41030243,0.10052587,-0.17758684,0.001201516,0.049555797,-0.071666844,-0.10854675
군자동,0.12944192,-0.16826254,-0.059930827,-0.12583643,0.3347854,0.25417587,0.008261314,0.2629071,-0.16820568,0.041289482,-0.19879332,-0.19972822,-0.09034869,-0.1119662,-0.13459435,0.12992069,0.21755946,0.31677276,0.20159952,-0.11877251,-0.26917282,-0.20372625,-0.13450292,-0.10105439,-0.31561822,0.3439774,-0.34682792,0.09083344,-0.494369,-0.03334622,-0.31942222,0.15375966,0.083926156,-0.35067075,-0.25829035
등촌1동,-0.1646276,0.19982919,-0.1758287,0.06633896,0.047695793,0.22374251,0.08549776,-0.21713546,0.02767157,0.12661606,0.2568417,-0.19465664,-0.15551405,0.2720143,-0.1105899,0.10597775,0.029891435,-0.0077734767,0.08038282,0.051219996,-0.09126145,0.02366864,-0.18574579,-0.18179327,-0.3572207,0.47395617,0.07295494,-0.13157037,-0.36913887,0.28538898,0.113628075,-0.091170676,0.18076421,0.35242334,0.23284751
중곡1동,-0.122851714,-0.19548771,0.05007758,0.03636785,0.21782257,0.2017571,0.007790027,0.14409581,0.014951153,0.0050106365,-0.13722071,-0.4423209,-0.12705743,-0.0060696267,-0.2031423,0.023768239,0.10790964,0.24673,0.0030244142,-0.18348701,-0.2290438,0.0776944,-0.11987798,-0.11845359,-0.5597739,0.17371647,-0.3052933,-0.09495611,-0.2298561,-0.075160265,-0.37346625,0.12641443,0.11819984,-0.42443433,-0.38370273
상계9동,-0.56140846,0.4075676,-0.3625024,-0.43681026,0.16001137,0.27552545,0.007912561,0.20626928,0.115939684,0.35927212,1.0223855,-0.2203001,-0.23187698,-0.08380786,0.2814167,-0.539243,0.17406185,-0.50008345,0.2912364,0.3238772,-0.1021726,-0.0913699,-0.0044889394,0.37253523,-0.31733394,1.0054098,0.80503243,-0.43893343,-0.9857545,0.33213484,0.56876767,-0.13737436,-0.027984198,0.74414146,0.61487377
중곡2동,-0.23068322,-0.15096946,-0.07434362,0.36819386,0.09706235,0.30726996,-0.08143968,0.68656486,-0.0053013074,-0.14036264,-0.039938398,-0.6303031,-0.08373307,-0.27703008,0.12945159,-0.22228087,0.1758601,0.07529624,0.06810126,-0.23503958,-0.44370252,0.036969498,0.08308633,0.08484733,-0.49699935,-0.0006067045,-0.07023597,-0.15920231,0.005945243,-0.31736135,-0.546146,-0.1389762,-0.0014657155,-0.30535582,-0.46757844
중계1동,0.12857625,0.21469787,-0.25426814,-0.20842215,0.26700708,0.28879654,0.04147257,0.41546607,-0.10178574,0.17535727,0.22732188,0.12675619,-0.046701297,-0.049486026,0.21703227,0.14357392,0.24980515,0.1865407,0.12650557,0.21282232,-0.14897346,-0.3224954,0.10126805,0.044441793,-0.23337366,0.6179148,0.18865494,0.22132021,-0.47940913,0.09384057,0.10444002,-0.16840962,-0.076786,0.37863332,0.20497805
중곡3동,-0.16612339,-0.2506204,0.022773433,0.42065912,-0.03734926,0.26614714,-0.11797131,0.5484074,-0.0038430565,0.124472305,-0.13094942,-0.48359978,-0.040774766,-0.24532539,0.017385105,-0.29141524,0.08967062,0.25389245,-0.14121631,-0.07040048,-0.42151117,-0.02872637,0.13484088,0.17666784,-0.6879523,-0.06262343,-0.09078329,-0.07117165,0.15260637,-0.21768445,-0.5435109,-0.08496176,0.003714051,-0.30459645,-0.38037986
중곡4동,-0.17272446,-0.16941541,0.0126428725,0.7155947,0.162654,0.3986652,-0.1137029,0.7815346,-0.17072171,-0.41306865,-0.06865479,-0.5864603,0.022204772,-0.63815117,0.46716177,-0.49364927,0.4715295,-0.34863433,0.8930168,-0.2548646,-0.5094221,-0.19241536,0.19281617,0.025150225,0.17048497,-0.45100105,0.23206818,0.17577413,-0.00848582,-0.7906987,-0.53602135,-0.067650095,-0.06588198,-0.47130826,-0.3387391
능동,-0.117610514,-0.18615122,-0.044530462,0.25238258,0.25334793,0.31874642,-0.087828785,0.43655518,-0.11334231,-0.13619582,-0.13316579,-0.47111666,-0.10296181,-0.26903394,0.011130853,-0.102942854,0.27391323,0.0909014,0.32215667,-0.2315957,-0.41725123,-0.07346016,-0.031510267,-0.027010694,-0.33954737,0.06382468,-0.16364917,0.0006505959,-0.25995585,-0.28579408,-0.4906608,-0.009339789,0.012834493,-0.3911063,-0.39562437
구의1동,0.19473468,-0.13687377,-0.28053567,-0.06830919,0.61227316,0.38244644,-0.21075071,0.4700012,-0.2927422,-0.1801104,-0.21617903,-0.020123877,-0.130389,-0.33570755,0.02070547,0.0489718,0.43184644,-0.023978753,0.671642,-0.21475883,-0.44326654,-0.4456923,-0.10659093,-0.094623595,-0.120046675,0.57396775,-0.19233939,0.28352588,-0.7217301,0.0080941385,-0.42499387,0.09276822,-0.28156757,-0.16246165,-0.12941858
구의3동,0.35497326,-0.14321198,-0.7561077,-0.32419342,1.1919671,0.5785598,-0.51715505,0.6993732,-0.5461964,-0.421152,-0.38476208,0.13054796,-0.31529978,-0.5218232,0.16762756,0.14824706,0.83636713,-0.33301473,1.0463271,-0.49641308,-0.5948452,-0.91491926,-0.113383785,-0.44357452,-0.14623071,0.98926353,-0.45475334,0.5508075,-1.1611936,0.33847758,-0.71828455,0.5178014,-0.30238816,-0.29792014,0.104920566
잠실본동,-0.04681766,-0.15962344,-0.47305804,-0.044983067,0.26556027,0.92273223,0.23462632,0.27975547,-0.39862138,0.45606196,0.4084141,-0.40266284,-0.29992384,0.024841733,-0.01951954,0.6328431,0.6433743,0.52267075,0.4876809,-0.19107781,-0.30245015,-0.6494348,0.14586513,-0.55355346,-0.93247896,0.7669945,0.01971418,0.58391154,-0.5588864,0.12572129,-0.23545346,0.16197833,0.6722325,0.26935664,0.0285518
광장동,0.18957655,-0.07856496,-0.40768778,0.1932542,0.77252316,0.4477276,-0.339356,0.47462496,-0.45585006,-0.3497802,-0.18790741,-0.08825277,-0.21228072,-0.6474167,0.3554703,0.02588072,0.93446696,-0.44556656,1.2069454,-0.340204,-0.4433383,-0.7348267,0.012951218,-0.5405843,0.03204135,0.17597477,-0.08754978,0.55919087,-0.80520535,-0.10416764,-0.42134124,0.429384,-0.037778337,-0.5141146,0.082524
자양1동,0.37037858,-0.15555206,-0.37122706,-0.20661259,0.55608714,0.32676873,-0.18575498,0.48203504,-0.45745298,0.088310674,-0.24453278,0.15066962,-0.1297244,-0.36077094,-0.09204559,0.29331467,0.39054862,0.4790656,0.3518533,-0.13219324,-0.5274588,-0.52056015,-0.05306674,0.048644207,-0.35390818,0.68975866,-0.21188858,0.28209785,-0.77950025,0.17571749,-0.3215269,-0.034375895,-0.14769338,0.042390525,-0.16773921
자양2동,0.32295007,-0.14563604,-0.37585264,-0.11384507,0.48066095,0.34217194,-0.09996783,0.4953169,-0.36225954,0.082870424,-0.13978876,0.13716018,-0.1532741,-0.28080493,-0.07872969,0.31204587,0.32758707,0.3620969,0.40529692,-0.15229484,-0.45050436,-0.46902993,0.024205722,-0.028748244,-0.46199238,0.6878237,-0.01734282,0.36292908,-0.605194,0.119102,-0.27483302,-0.07879775,-0.21789145,0.24836694,-0.15999126
잠실4동,-0.27822024,0.6974289,-0.17017023,-0.0054071285,-0.3680489,0.117737375,-0.34167746,-0.4361449,-0.26604325,-0.0041007996,0.4213572,0.10152013,-0.041309603,-0.14024839,0.38149187,-0.15479028,-0.21900673,-0.9857997,0.31115866,-0.7690053,0.77496445,-0.030072343,0.2539397,-0.4639271,0.32220492,-0.13292055,0.21955615,0.06325142,0.24282447,-0.19751896,-0.085639,-0.25559017,-0.3866557,0.51394,0.25078768
자양4동,0.017075822,-0.100443244,-0.28328362,0.3629025,-0.012559632,0.10788341,0.40807447,-0.0022580614,-0.3793984,-0.10642378,-0.08150329,0.04031164,-0.04542793,-0.0558153,-0.2360115,0.7318764,0.2555074,0.52746415,0.20924184,-0.13263923,0.061238684,-0.2224049,0.27832112,-0.660048,-1.0164475,0.3864318,-0.29325616,0.18651757,-0.29520085,0.3180253,-0.30437583,-0.16829807,0.08173503,0.09118582,-0.006906707
잠실6동,-0.3104813,0.062168404,-0.32267454,-0.15956345,0.23956372,0.5055576,-0.12098489,-0.13840717,-0.16544718,0.065934286,0.20346025,-0.26179305,-0.3452752,0.073974766,-0.080012895,0.37908527,0.2830756,-0.17141882,0.18884006,-0.55248225,0.122504026,-0.31714833,-0.09293541,-0.5181919,-0.59122735,0.4652466,-0.20059656,0.00946692,-0.14838712,0.18483627,-0.36456674,0.14202695,0.1525283,0.14336552,-0.024381177
회기동,0.15718873,0.047603384,0.15049586,-0.59769684,-0.11350841,-0.46205384,0.16222268,0.64750147,0.4842559,0.24106102,-0.029062085,0.44030467,-0.077729926,0.0803266,0.268123,0.002327892,-0.11869938,0.34699073,-0.26239824,0.32462347,0.46685112,-0.17588693,-0.023773614,0.1476716,0.35068703,-0.35088745,-0.18175566,0.31652954,0.47007373,-0.053923108,0.17541471,0.48040977,-0.116949975,-0.4902016,-0.27363253
휘경2동,0.082766116,0.31459114,-0.12880588,-0.52653146,-0.41022098,-0.3776566,0.061514735,0.9892586,0.38771892,0.10747725,0.22118612,0.4908168,-0.3858941,-0.3666224,0.43943194,0.26874015,-0.16096938,0.19332993,-0.35347307,0.3153003,0.72584814,-0.22455487,0.13672458,0.16317023,0.21961778,-0.54531693,-0.13230953,0.3136463,0.722064,0.12180819,0.1306425,0.1745654,-0.43787712,-0.20337857,-0.22967961
청량리동,0.12597162,-0.033531457,0.11082323,-0.08439667,-0.1269756,-0.24133536,-0.010265769,0.22284989,0.20337433,0.39149234,-0.30009276,0.12516479,-0.1509923,0.22161436,-0.13568157,0.19822189,-0.20578872,0.33216485,-0.15019503,-0.020852484,0.42092088,0.0067089545,-0.1396617,-0.05393582,-0.27299076,-0.34528178,-0.41270792,-0.11564338,0.32818395,-0.05661981,-0.12348941,0.34802625,-0.2687949,-0.70106864,-0.64096856
용신동,0.3648383,-0.10489133,0.12430014,0.0482682,-0.059167713,-0.15460387,0.012087489,0.30870962,0.052016757,0.109441236,-0.21541259,0.27215132,0.031143837,-0.12783043,0.043258984,-0.020667005,-0.07435851,0.012825546,0.49715978,0.023037277,0.19115855,-0.19178799,-0.1250293,0.1376006,0.029682446,-0.16636297,-0.13471305,0.022127584,-0.19427511,-0.1030847,0.052210037,0.33910558,-0.6247833,-0.48338127,-0.4015323
제기동,0.23383068,-0.01889821,-0.0059494777,0.081563264,-0.25697616,-0.19283876,-0.079608314,0.55272126,0.19273461,0.34032542,-0.50884604,0.085459635,-0.20841058,0.20364715,-0.07045654,0.27559105,-0.24016427,0.20670895,-0.17297116,-0.15071301,0.43049538,0.1102201,-0.09032515,-0.1058972,-0.47274306,-0.43305358,-0.42427254,-0.15708543,0.5464118,-0.051222336,-0.3289441,0.439182,-0.5663871,-0.7074465,-0.8289906
전농1동,0.2844982,0.012170112,0.068232626,-0.07741018,-0.16699336,-0.2516252,0.043310836,0.5016944,0.2200367,0.25215137,-0.3666504,0.22831304,-0.1350209,0.08400361,0.047585905,0.19059941,-0.13713938,0.15135041,-0.116441116,-0.043424144,0.48017523,-0.047135808,-0.0872177,-0.06508057,-0.10294014,-0.44375646,-0.30057722,0.027793655,0.45907077,-0.021415321,-0.096986964,0.5591516,-0.28261447,-0.73858285,-0.50991666
전농2동,0.29149884,0.04353113,0.14204372,-0.0032703988,-0.16373447,-0.21123303,0.07758706,0.35033268,0.1864851,0.248049,-0.36445308,0.19614866,-0.120122716,0.12306215,0.001561211,0.23894982,-0.14451252,0.09801081,-0.037738785,-0.049795657,0.47974387,-0.022501905,-0.13365498,-0.08692404,-0.052504316,-0.43416315,-0.29141182,0.027296856,0.41112295,-0.04275302,-0.021253562,0.54647464,-0.28661546,-0.7444158,-0.5121633
답십리2동,0.24533103,-0.19991314,0.18249333,0.13596904,0.04507965,-0.03273135,0.11139055,0.19845419,0.03089788,0.106996775,-0.35529545,-0.023512147,0.048937596,0.047033522,-0.04003853,0.026727967,0.0049667014,0.06578672,0.117673844,-0.20720695,0.123906724,-0.059192993,-0.06716429,-0.14473741,-0.13859801,-0.2646944,-0.21358988,0.0051227063,0.1361982,-0.14563368,-0.14215137,0.4867281,0.057921942,-0.7512984,-0.3556493
잠실7동,-0.004316711,-0.13422112,-0.3304354,0.013446175,0.1363305,0.58031774,0.17002998,0.32275462,-0.20175172,0.33795252,0.24845275,-0.30501515,-0.19734754,0.019347243,0.070672296,0.40483573,0.43888626,0.43461943,0.22847979,-0.04921972,-0.26188186,-0.48557955,0.09916292,-0.3282204,-0.63634694,0.50468767,0.015298344,0.3947874,-0.3499392,0.08406977,-0.18708827,0.14807089,0.48928207,0.14661607,-0.011471968
장안1동,0.01601623,-0.19210543,0.14929451,0.08042081,0.10099784,0.10519484,0.1104072,0.13323474,0.04322964,0.018795745,-0.10152426,-0.25180346,0.019601759,-0.022610296,-0.048840046,-0.07178256,0.07428059,0.1664584,0.12103975,-0.10827744,-0.102539875,-0.0310224,-0.021846602,-0.09664092,-0.28071603,-0.006628817,-0.13050652,-0.0035844967,-0.09515886,-0.16557366,-0.161804,0.18859322,0.1254645,-0.426914,-0.26867366
장안2동,0.070573956,-0.10575136,0.2687723,0.09619035,-0.08332123,0.0015604906,0.10268146,0.1989214,0.12961689,0.17366108,-0.16623665,-0.058150966,-0.01962518,0.029459756,-0.023076307,-0.02301455,-0.011271994,0.20308197,-0.07599776,0.039963976,0.060049236,-0.030563034,-0.056834836,0.09086075,-0.17568965,-0.13775535,-0.17146678,0.120301925,0.22726402,-0.1732765,-0.12350236,0.2558463,-0.01435684,-0.48604387,-0.34794757
면목2동,-0.11182712,0.15840068,-0.13479008,-0.55474216,-0.14010471,0.012397037,0.018880285,0.5342826,0.16134915,-0.015458781,0.017360397,0.07829626,-0.3728228,-0.2736346,0.33135018,0.09977857,-0.16354406,0.21168493,-0.5123701,0.13557893,0.3236505,0.005859851,0.02195403,0.11523396,0.25621188,-0.618867,-0.18067703,0.22224753,0.5789349,-0.050441813,-0.004177496,0.025787586,0.23964311,-0.18342362,-0.16097957
면목4동,-0.090651706,-0.36560807,0.09397583,0.6038251,-0.17364226,0.31703606,-0.21584739,0.65415764,-0.101601295,0.24485418,-0.27718621,-0.43522903,-0.024655249,-0.3057016,0.014294257,-0.40330866,0.11064487,0.35181114,-0.2887715,-0.025898147,-0.5235414,-0.09904528,0.23978652,0.3187591,-0.8217265,-0.111910954,-0.11512054,0.031666446,0.36613986,-0.2787892,-0.67383605,-0.043743957,-0.08814165,-0.37216428,-0.39226356
잠실2동,0.24243943,-0.13895535,-0.5780969,-0.12520626,0.42747226,0.64650464,0.093058445,0.58021575,-0.3704468,0.3313251,0.08974614,-0.088871315,-0.3254446,-0.16400616,-0.024983773,0.5739243,0.47340575,0.59192586,0.35606247,-0.18087754,-0.4092699,-0.62413156,0.1735315,-0.33254626,-0.8686784,0.7438731,0.044052485,0.55189824,-0.5539693,0.07523793,-0.28298035,0.02397949,0.26077792,0.35454187,-0.12220625
면목5동,-0.07204326,-0.079200834,0.08545047,0.0813413,-0.15419134,0.12470079,-0.01848564,0.41532573,0.08484749,0.08875634,-0.09268009,-0.18770601,-0.13816522,-0.16896969,0.095517464,-0.13075736,-0.010002649,0.20080008,-0.23827787,0.015764762,-0.05721347,0.0054682265,0.037039477,0.20440194,-0.24581717,-0.25067022,-0.12000503,0.08159997,0.3528393,-0.1904322,-0.2676264,0.05733049,0.0097254105,-0.32388106,-0.29030243
면목7동,-0.16500142,-0.3132872,0.04328566,0.67586446,-0.17592186,0.37555173,-0.20485005,0.9135502,-0.10935681,0.008339055,-0.19793637,-0.6248767,-0.04430783,-0.39731365,0.19619982,-0.47117996,0.18364105,0.19970962,-0.17358266,-0.1651543,-0.57941425,-0.050964788,0.29401714,0.32496345,-0.6815316,-0.13505891,-0.032589033,-0.034682974,0.4214202,-0.47421205,-0.76598954,-0.12361711,-0.09708354,-0.35054657,-0.48345736
상봉2동,0.05650702,0.19073762,-0.047323495,-0.44043028,-0.101865135,-0.095337816,0.1024596,0.5861976,0.2558409,0.11747193,0.027141402,0.213868,-0.2530585,-0.16498673,0.26609376,0.18492854,-0.08096878,0.21188472,-0.3076722,0.20636491,0.37505683,-0.108085446,0.032549538,0.09412049,0.2092799,-0.4025737,-0.13042298,0.2140215,0.43194446,-0.02758838,0.13171192,0.21214606,-0.019518401,-0.18695395,-0.20344695
중화2동,0.12471032,0.11954725,0.04383723,-0.53991956,-0.17528339,-0.355008,0.12914392,0.7375458,0.43540844,0.1542004,0.02216384,0.40543893,-0.18856744,-0.06487955,0.31005377,0.14362909,-0.09391978,0.27625924,-0.2771188,0.27971718,0.5292568,-0.18841948,0.049812216,0.08743621,0.3013721,-0.46364033,-0.17464828,0.3092244,0.595526,-0.009034624,0.15188067,0.38717055,-0.14091623,-0.4028894,-0.2394623
묵1동,0.29637802,0.21948276,-0.13850854,-0.61117494,0.28624558,-0.009510751,-0.05722692,0.2708517,0.13535711,0.25398517,0.08310407,0.2545977,-0.067458615,0.17223634,-0.08790862,0.34306923,0.20565571,0.4102015,-0.31713825,0.122348286,0.11076351,-0.1947896,0.03646555,0.1566624,-0.05988235,0.18429303,-0.25477773,0.25687715,0.0050438344,0.16841449,0.14487992,0.5443243,0.17318766,0.031469494,-0.0044941604
묵2동,0.5222611,-0.054984264,-0.046656515,-1.3669286,0.9684642,-0.09332045,-0.17520928,0.1280805,0.31911892,0.22924067,-0.07205172,0.32518542,0.10247641,0.67817247,-0.27571726,0.23785332,0.53564286,0.6952881,-0.5974635,0.05672769,0.07139072,-0.53512716,-0.14586104,0.039266534,0.233203,0.12733932,-0.8228664,0.6192343,0.32594338,0.07376918,0.0496439,1.3223039,1.0890459,-0.60793585,0.2233858
공릉2동,0.29736322,0.14103243,-0.31812125,-0.49637622,0.2726143,0.3139961,-0.23781678,0.21182033,-0.32917443,0.17903239,-0.09511815,0.24184854,-0.16496496,0.11126059,-0.08117586,0.57170814,0.24763592,0.34117112,-0.15591134,-0.12286282,-0.36267865,-0.15682122,0.13863023,0.00332868,-0.29729438,0.65000886,-0.16321367,0.1824269,-0.5225679,0.38009802,-0.23655704,0.27750087,-0.09339975,0.48672327,-0.09504864
망우3동,-0.059718713,0.0343823,0.0061045354,-0.28968447,0.00028632395,0.09110369,0.035956025,0.22194193,0.10482856,0.032738846,-0.09800139,-0.11927484,-0.21994603,-0.07845718,0.032372158,0.10689202,-0.118690364,0.3332148,-0.41093963,0.061453264,0.054329522,0.18272056,-0.025376864,0.07229618,-0.08357707,-0.27234405,-0.14985195,0.0336007,0.28281608,-0.09796655,-0.17383087,0.04365637,0.154946,-0.11613797,-0.3362161
신내2동,0.1770974,0.2973104,-0.19326246,-0.3293484,-0.0371945,0.094479255,0.0574551,0.20802923,-0.05023805,0.27631715,0.11593087,0.23846786,-0.12888297,0.03948211,0.0091245845,0.5107505,0.03934248,0.32691815,-0.20995294,0.14540963,0.02408881,0.028539509,0.14653572,0.17475995,-0.22789139,0.33742255,0.048308898,0.19662721,-0.19609946,0.20476744,0.073606774,0.1279931,-0.23975104,0.6182727,-0.16455907
면목본동,-0.068583906,0.12986606,-0.10373076,-0.4505518,-0.032251567,0.10368692,0.045023218,0.28850287,0.101939104,-0.03613387,-0.021132184,-0.016639017,-0.30361956,-0.16718206,0.15540682,0.12965898,-0.13940117,0.27760246,-0.46710092,0.13515626,0.13365267,0.0808949,0.0038053636,0.10074867,0.10388711,-0.4000887,-0.16023538,0.1264101,0.3268802,-0.012445559,-0.057291653,0.056679413,0.23245938,-0.022991424,-0.15961277
면목3·8동,-0.08754763,-0.0051772404,0.045758944,0.041505575,-0.025224967,0.15867926,0.03577716,0.33336848,0.1058804,0.009028038,-0.037407298,-0.2715881,-0.10026037,-0.12896235,0.05627459,-0.09780647,0.015346422,0.10644356,-0.058270335,-0.041785482,-0.08327873,0.08279145,-0.045895025,0.11468277,-0.17114864,-0.15347561,-0.03128993,-0.041787487,0.103156775,-0.22963957,-0.2072248,-0.025055127,0.0018365048,-0.2127628,-0.34041795
망우본동,0.18971802,0.28846005,-0.16260141,-0.5406965,0.008937726,0.07892712,0.1308114,0.39057735,0.06025689,0.12449824,0.024993675,0.23812158,-0.2702765,-0.054466225,0.13150218,0.44553086,-0.10634491,0.4416676,-0.42863572,0.30082855,0.11491397,0.046880588,0.1510473,0.19843094,0.04443547,-0.041612666,-0.07457578,0.22717103,0.057120863,0.12223779,0.10133818,0.17851731,-0.073798776,0.40693417,-0.17605165
돈암1동,-0.43037167,0.09320443,0.09811381,-0.1287852,0.1527712,0.1270531,0.1125709,-0.135624,0.18904594,0.04857826,0.34973562,-0.42985645,-0.024591904,0.27934927,0.050425973,-0.45002624,0.056849536,-0.26152006,-0.049737576,0.045889057,-0.1480813,0.26271933,-0.2031641,0.3153098,-0.03336523,0.53666204,0.3960018,-0.4614078,-0.18676943,-0.063535154,0.22440442,0.19729106,0.48771772,-0.004452858,0.30438575
돈암2동,-0.20986061,-0.046975154,0.30027857,-0.0021551475,0.12219864,-0.060150187,0.107927874,-0.34408325,0.2499184,0.09371166,-0.022714086,-0.20628844,0.111053124,0.3820507,-0.09950487,-0.18058902,0.010070804,0.020036502,-0.18245159,0.0018503151,0.0010078531,0.22464283,-0.34344223,-0.014021364,-0.11902299,0.15228076,-0.085634805,-0.22664082,0.04249385,0.014171644,0.032002095,0.27135432,0.50284535,-0.3459856,-0.03156164
안암동,-0.12717225,-0.10476328,0.32370552,0.1280233,-0.038820907,-0.10508124,0.022488767,-0.32630187,0.266567,0.26400566,-0.29070428,-0.16512018,0.03721335,0.38825613,-0.3194531,-0.019485854,-0.1504942,0.13084754,-0.2673446,-0.17356864,0.33519694,0.32503211,-0.38279644,-0.15873004,-0.4598969,-0.16185217,-0.33879605,-0.28404254,0.34344012,0.036323104,-0.22771154,0.3840117,0.20274943,-0.647212,-0.44050756
보문동,-0.04680755,-0.063079424,0.2956059,0.12111816,-0.091235995,-0.11513864,0.011309018,-0.2448333,0.2676921,0.31865862,-0.3421355,-0.120141625,0.015491681,0.40913787,-0.32097974,0.018694114,-0.17724137,0.14089295,-0.25661755,-0.1654296,0.4113168,0.3170571,-0.38127884,-0.15992884,-0.49677145,-0.17546882,-0.3494911,-0.26642555,0.34317207,0.022842385,-0.22392917,0.39753127,0.054558177,-0.6673071,-0.52645934
길음2동,-0.18122412,-0.2143487,0.26638225,-0.010239329,0.07211306,0.011537711,0.1257437,0.24117072,0.22303861,0.14387633,-0.046114996,-0.4534388,-0.093751654,0.1506416,-0.054748345,-0.2649323,0.032427955,0.11461097,0.058231257,-0.016863722,-0.24538638,0.31409717,-0.15719117,0.23042461,-0.37295657,0.22497462,0.10196356,-0.1921311,-0.16493377,-0.33026436,-0.1890245,0.10704133,0.035426695,-0.48774952,-0.5752709
공릉1동,0.034327332,0.06067809,-0.15020105,-0.42056358,0.41579047,0.25329572,-0.27120212,-0.13204569,-0.063594796,0.15101494,0.035364497,-0.039031718,-0.11711854,0.29921043,-0.20304385,0.25048167,0.34175667,0.20737576,-0.25236195,-0.18662767,-0.19678462,-0.17162079,-0.14019799,-0.0355263,-0.31836855,0.46103233,-0.34082305,-0.057372235,-0.25372782,0.31464493,-0.16754837,0.45887753,0.44041628,-0.07293116,0.08341509
월곡1동,-0.11127454,-0.24803905,0.19085264,0.10438049,-0.0018628445,-0.094613634,-0.012982892,-0.042510126,0.1377783,0.26592785,-0.20056947,-0.25328752,-0.1365929,0.075270675,-0.28079167,0.048320774,-0.115274034,0.29923913,-0.09662626,-0.18015315,0.10257165,0.18393385,-0.17137663,-0.05295457,-0.5876882,-0.20498769,-0.35605446,-0.24559551,0.12257472,-0.09913671,-0.33699688,0.14368024,-0.05509842,-0.7540194,-0.7246432
장위1동,-0.24500352,-0.2528198,0.34471232,0.17772028,0.028448505,-0.10527807,-0.019863307,-0.4724155,0.08869888,0.32468963,-0.19447207,-0.28965333,-0.07195092,0.16232613,-0.5793277,0.110364236,-0.10781375,0.3395308,-0.21464588,-0.2834232,0.26623622,0.365526,-0.33460462,-0.10500447,-0.72234493,-0.19718193,-0.50936157,-0.32396865,0.21188056,-0.014944109,-0.36970374,0.23286012,0.123299494,-0.89261115,-0.6378426
장위2동,-0.14467116,-0.25143355,0.41164747,-0.02058031,0.1832935,-0.113277696,-0.046205,-0.4893611,0.13582772,0.4120006,-0.23790713,-0.2328919,-0.07343035,0.36531514,-0.7145932,0.18016839,-0.007862427,0.5753457,-0.32319927,-0.25944316,0.3348298,0.3181104,-0.3548441,-0.08853007,-0.72187567,-0.15756102,-0.6233946,-0.24144661,0.23660521,-0.019494645,-0.35651505,0.39439592,0.33483243,-0.98090863,-0.6015764
불광1동,0.011690483,-0.11515476,0.10129282,0.28031406,0.49893984,0.28654626,0.09374424,-0.26764333,-0.6903773,-0.46814868,-0.28647742,-0.09417547,0.4254827,0.038059935,0.33352458,-0.0382326,-0.050480068,-0.31831145,-0.14480866,-0.6703901,-0.32650846,0.4250397,0.32950357,-0.093021095,0.7638824,-0.07449442,0.31080237,-0.06688789,0.32902536,-0.5202547,-0.45512334,-0.019961534,0.62018526,0.09174342,0.5566571
종암동,-0.057048958,-0.14109436,0.106223054,0.0641791,-0.09518207,-0.09231712,-0.018219471,0.13612129,0.16480336,0.27618307,-0.21351895,-0.17026784,-0.16006929,0.110676296,-0.17961901,0.052234028,-0.15407032,0.21730617,-0.11150036,-0.15051478,0.19467251,0.16947795,-0.15332997,-0.03413391,-0.5170959,-0.22214988,-0.2980432,-0.22061342,0.23135856,-0.064904116,-0.29123992,0.19766146,-0.18012254,-0.6492811,-0.6703461
석관동,0.3623324,-0.09920914,0.12902418,-1.0475614,0.55721956,-0.25439027,0.045154035,0.2864567,0.4285697,0.23998393,-0.13442184,0.33791342,0.08697219,0.53546304,-0.03207886,0.053057514,0.24611475,0.54668164,-0.38965136,0.20071603,0.18027845,-0.35222062,-0.15963884,0.047134366,0.3757865,-0.06522003,-0.52832115,0.5045284,0.3376559,-0.077566296,0.10997078,1.0097637,0.6559027,-0.6238628,-0.017327214
번1동,0.05000058,-0.32882956,0.54332817,0.21905917,0.10424898,0.021390945,0.1601873,0.075789325,0.023126585,0.1177872,-0.46140704,-0.32471,0.06271838,0.38578844,-0.24718194,0.0058115814,0.039106444,0.24539523,0.12035245,-0.036521476,-0.16584791,0.34587976,-0.08415064,0.21009517,-0.26116174,0.03664666,-0.018014774,-0.07190614,-0.091794625,-0.5732531,-0.25014168,0.10940322,-0.1113511,-0.7042242,-0.79920924
번2동,-0.2834341,-0.3872538,0.6377385,0.13471973,0.08362957,-0.0066713067,0.23732603,-0.38581708,0.16960756,0.22201793,-0.34361818,-0.531809,0.01288069,0.4212735,-0.4990028,0.049883727,-0.02517457,0.2922683,-0.076037824,-0.16215238,-0.036084488,0.58684117,-0.36473513,0.08354221,-0.6238324,-0.008379415,-0.25792816,-0.2123546,0.03648686,-0.4047184,-0.36211193,0.24049133,0.20979542,-0.8693843,-0.8587353
번3동,-0.411445,-0.31607163,0.598539,0.1142314,0.11251728,-0.04382061,0.158077,-0.710579,0.18799667,0.30244893,-0.1966428,-0.4833422,0.006476419,0.46828756,-0.6363858,0.036226556,-0.05498065,0.29365292,-0.22252183,-0.21895428,0.12999758,0.6080782,-0.44392455,-0.019476615,-0.7070263,0.020810682,-0.3463707,-0.3390172,0.1502074,-0.18546875,-0.32124865,0.3082513,0.45151883,-0.8481996,-0.6154483
수유2동,0.009018823,-0.3238329,0.36616614,0.5066597,0.22370316,0.13686754,-0.12818037,0.039079953,-0.44800198,-0.16643731,-0.33343235,-0.3695574,0.21764794,0.18756057,-0.2377529,0.2073259,0.16000688,0.20636956,-0.086478546,-0.51299024,-0.18440332,0.35271868,-0.019825,-0.096734606,-0.019813284,-0.044431906,-0.17074391,-0.27683535,0.096304476,-0.4374766,-0.42954582,0.043522015,0.029092925,-0.44829682,-0.4118625
수유3동,-0.0900792,-0.3428226,0.46601248,0.2158244,0.10905048,5.5008568e-05,0.012207633,0.02619708,-0.056367468,0.12488507,-0.34771544,-0.37019646,0.005774905,0.3454906,-0.43538535,0.2575777,0.042149775,0.43634877,-0.103166275,-0.32019156,-0.01107995,0.3975944,-0.22703736,-0.020659689,-0.38585302,-0.16311689,-0.3325572,-0.20156497,0.14486669,-0.39898717,-0.36069736,0.14842862,-0.09667906,-0.7872502,-0.80510414
송중동,-0.18044128,-0.44781148,0.49190426,0.21605003,0.03695365,-0.0316725,0.101643115,-0.08314786,0.096481495,0.23362477,-0.37216955,-0.47253394,-0.057039022,0.19631238,-0.46889412,0.06380514,0.010975686,0.38949403,-0.05327838,-0.22080623,-0.048111208,0.45705938,-0.24932766,0.028064407,-0.712596,-0.119174585,-0.3390928,-0.1369533,0.057811547,-0.37681922,-0.5043144,0.19361247,-0.022498634,-0.9734844,-0.98229736
쌍문1동,-0.22408597,-0.30421218,0.32473797,0.4065568,0.17142414,0.2319973,-0.18737306,-0.14026682,-0.3881883,-0.13814004,-0.18677472,-0.516899,0.14479412,0.13275468,-0.41527104,0.22483015,0.15419194,0.13511962,-0.11368088,-0.67512685,-0.018428398,0.42783743,-0.16827409,-0.22685997,-0.1955437,-0.037208155,-0.2973471,-0.39870533,0.18451063,-0.299398,-0.5243321,0.07724317,0.07342468,-0.42997095,-0.39051327
쌍문2동,-0.17822632,0.040725656,0.29552546,0.06752049,0.106699176,0.15313709,0.07421518,-0.34253886,0.01716651,0.15036966,0.044053867,-0.31331173,0.09421684,0.28703123,-0.19357648,-0.13370097,-0.032153003,-0.1403335,0.10198048,-0.10053433,0.02058466,0.3391056,-0.23128973,0.0880729,-0.15326442,0.22671191,0.095665894,-0.30669492,-0.030924004,-0.23163232,-0.020383127,0.09777938,0.20438538,-0.22301611,-0.15652728
쌍문3동,-0.26094317,-0.24949723,0.4299429,0.14700401,0.08971501,0.07818469,0.012031062,-0.23224951,0.0042516678,0.14943162,-0.15933587,-0.42443216,-0.004508718,0.28728592,-0.49333745,0.18144192,0.032287404,0.23603971,-0.07861975,-0.37114555,0.08537299,0.45263025,-0.34486392,-0.08456481,-0.44966906,-0.06278716,-0.32371563,-0.327738,0.13298695,-0.2545821,-0.32110244,0.19379464,0.0076626353,-0.65857315,-0.63380873
쌍문4동,-0.25661647,-0.09621959,0.3349167,0.19461831,0.091532946,0.18014444,-0.029499618,-0.32628915,-0.057748184,0.0695419,-0.06764432,-0.45039362,0.114083536,0.19511881,-0.36248246,-0.0021818215,-0.017870948,-0.07696692,0.014837075,-0.41059244,0.090515345,0.4244665,-0.21624519,-0.1142657,-0.32010418,0.0599632,-0.12196082,-0.3732511,0.21844277,-0.29023665,-0.3547836,0.0954171,0.16014665,-0.39648837,-0.40716127
방학1동,-0.2342506,0.15263574,0.027905725,0.16483879,0.21657084,0.3172925,-0.034061648,-0.3071841,-0.32054475,-0.01139392,0.14362647,-0.36626703,0.1947869,0.26379275,0.12831059,-0.33640853,-0.028233528,-0.5048265,0.1775613,-0.26230595,-0.09786388,0.17638077,0.14753291,-0.06372326,0.14470513,0.36837903,0.44484138,-0.2664735,0.19910136,-0.39671314,-0.14917988,-0.1280517,0.51604015,0.16786948,0.28324202
방학2동,-0.19741341,0.18746313,0.07390003,0.22513703,0.21957077,0.37403616,-0.1125957,-0.43555507,-0.43107098,-0.029181905,0.064293295,-0.3728845,0.20477979,0.32107913,0.04169999,-0.273095,-0.08386227,-0.5642958,0.14002237,-0.41377136,-0.027159216,0.25912896,0.17504872,-0.108883545,0.1438332,0.2549937,0.39872438,-0.28925782,0.4037695,-0.46313676,-0.25009036,-0.21805596,0.5457944,0.13337027,0.25672486
방학3동,-0.11412211,-0.15237945,0.2559042,0.46367428,0.21121897,0.28679433,-0.15954041,-0.16276108,-0.44863063,-0.19661543,-0.19122086,-0.47252354,0.27265394,0.11945454,-0.18230326,-0.0035622362,0.07163536,-0.16362123,0.037287153,-0.5753235,-0.113957986,0.35557446,0.07699382,-0.16504097,0.0024649212,0.08856362,0.014978334,-0.34945568,0.27773982,-0.45473665,-0.48983362,-0.025722643,0.22751573,-0.20373844,-0.18882063
창1동,-0.53523195,0.08667426,0.2352944,-0.05237803,0.26757938,0.23742224,0.11509212,-0.63346094,0.023330925,0.03161081,0.23939902,-0.41509062,0.09302005,0.6205822,-0.055487957,-0.3913117,0.082552694,-0.36254427,-0.00539862,0.06936519,-0.19256394,0.37240303,-0.2160349,0.18155387,0.050001472,0.6427066,0.45192462,-0.40379858,-0.19066784,-0.18129301,0.23738179,0.2518126,0.7372926,0.024912456,0.43132475
창2동,-0.13428995,-0.19230777,0.5193769,0.026870789,0.09210669,-0.014839851,0.16918002,-0.19608168,0.1651499,0.24795666,-0.22735827,-0.31635147,-0.025358044,0.45708784,-0.41743192,0.07087668,-0.040096134,0.27980542,0.0048019327,-0.06552215,0.022279711,0.44522202,-0.32762122,0.15051076,-0.39429387,0.0327829,-0.15159988,-0.2099967,-0.029897649,-0.32881787,-0.09131168,0.1967333,-0.030615818,-0.69433135,-0.6874519
창3동,-0.51891863,-0.12926418,0.526991,0.03867969,0.17987761,0.09763663,0.24103141,-0.85768116,0.1829471,0.15329242,0.024684044,-0.52269816,0.08170614,0.5704944,-0.3926727,-0.168686,-0.028978996,-0.10080331,-0.082917616,-0.09804636,-0.022070138,0.599188,-0.47352782,0.078715034,-0.3526946,0.33628508,0.0067811566,-0.43654147,-0.048561502,-0.14654997,-0.005703397,0.32279232,0.63810444,-0.42531568,-0.13535534
창4동,-0.44992426,0.023446122,0.24522579,-0.080821626,0.21902381,0.13724175,0.16333766,-0.56948495,0.07035486,0.06320572,0.17678663,-0.32295996,0.121571876,0.5870809,-0.0321171,-0.37817255,0.06874319,-0.2846416,0.057785213,0.124877684,-0.15154025,0.2758789,-0.26398683,0.13794659,0.13859323,0.5786544,0.37636048,-0.30088148,-0.2254127,-0.17431548,0.28664395,0.30113432,0.64594257,-0.04368919,0.36011484
창5동,-0.1663394,-0.023350794,0.33745077,-0.06861678,0.10676532,0.03377016,0.16011105,-0.34932867,0.11480821,0.22238241,0.04582958,-0.18957187,0.033918656,0.3181567,-0.19818962,-0.11866369,-0.007792824,-0.00220755,0.12978588,0.07954609,0.053704545,0.25547937,-0.34123522,0.14582877,-0.09363237,0.22861224,0.016516186,-0.19489516,-0.2224474,-0.15130407,0.15076701,0.18089658,0.1294696,-0.28346512,-0.15053251
남가좌2동,0.13826324,0.02024961,0.46906105,-0.07461059,0.065554366,-0.092779644,0.13483253,-0.22305302,0.16929583,0.2700603,-0.13899103,-0.022101007,0.012853797,0.31690815,-0.4866798,0.12532504,-0.23262666,0.35529575,-0.0037220772,0.20029955,0.04462155,0.3066942,-0.28670764,0.39941505,-0.22846124,0.061547417,-0.22746202,-0.07914452,-0.15472597,-0.18094638,0.07454474,-0.14371577,-0.3099874,-0.365083,-0.4947778
북가좌1동,-0.083070725,0.16457735,-0.6021951,0.34093687,0.20247807,0.2575584,0.31496534,0.62888336,-0.018853063,-0.024264239,0.51583695,0.074320525,-0.2570915,-0.1584435,0.31735787,0.08775026,-0.015937742,0.25587294,0.33682758,0.034861535,-0.2340519,-0.54866755,0.5279272,-0.07965472,-0.88892883,0.6619995,0.306259,0.2854891,-0.160611,-0.025604237,-0.25613403,-0.84967166,-0.18344499,0.9116859,0.12197369
도봉1동,-0.007815615,0.03491038,0.12955159,0.5595628,0.344747,0.36056435,-0.15149257,-0.20173812,-0.7123881,-0.28262806,-0.1733763,-0.41184744,0.39246795,0.2000974,0.1531221,-0.24418747,-0.027452685,-0.50735855,0.1286699,-0.5397325,-0.26749223,0.3066117,0.42442313,-0.1163681,0.29617164,0.20531075,0.41701525,-0.27873597,0.4554418,-0.6765925,-0.49395788,-0.2840991,0.48537427,0.11245911,0.14741124
