ADM_NM,GCN_embed0,GCN_embed1,GCN_embed2,GCN_embed3,GCN_embed4,GCN_embed5,GCN_embed6,GCN_embed7,GCN_embed8,GCN_embed9,GCN_embed10,GCN_embed11,GCN_embed12,GCN_embed13,GCN_embed14,GCN_embed15,GCN_embed16,GCN_embed17,GCN_embed18,GCN_embed19,GCN_embed20,GCN_embed21,GCN_embed22,GCN_embed23,GCN_embed24,GCN_embed25,GCN_embed26,GCN_embed27,GCN_embed28,GCN_embed29,GCN_embed30,GCN_embed31,GCN_embed32,GCN_embed33,GCN_embed34
사직동,-0.113966554,-0.14576462,0.05356452,0.30714992,-0.11337562,0.10592684,-0.21425103,-0.072468966,-0.06850935,-0.021051604,0.030790007,-0.088727124,0.0016373582,-0.22475657,0.21393964,-0.0326923,0.10444399,-0.053460356,-0.41026133,0.042637195,0.028547635,0.13049985,0.06778393,0.22237223,-0.22364415,0.08445845,-0.1412073,0.10540978,-0.16037652,0.04298935,0.025558753,-0.034235805,0.01040528,0.17894103,-0.25892726
삼청동,-0.46006137,-0.41791973,0.29466522,1.075638,-0.6964395,0.52884835,-0.76858467,-0.12791818,-0.1856636,-0.15944862,0.20843118,-0.5448578,-0.12783855,-0.79973084,0.68593055,-0.00012303889,0.3554891,-0.16214445,-1.4571964,0.15150502,0.10402251,0.6669196,0.106620796,0.83145344,-0.89305764,0.16692954,-0.52878314,0.24809407,-0.6008107,0.2240185,0.21741591,-0.2601304,0.23486878,0.5614943,-0.91057044
부암동,-0.24078625,-0.24666092,0.2087158,0.6351046,-0.3643784,0.26901144,-0.48719788,-0.06491936,-0.11910702,-0.055924233,0.16587164,-0.34117663,-0.04244932,-0.42747343,0.38587108,-0.045263007,0.23286241,-0.12615226,-0.85058004,0.06368776,0.044815548,0.3683581,0.04498574,0.4440328,-0.5109497,0.050744157,-0.26729032,0.1230391,-0.3528172,0.13590509,0.16696765,-0.13653663,0.1914011,0.33641112,-0.5553642
평창동,-0.014308113,0.14344105,-0.20912792,0.14502971,-0.0024836883,-0.18723072,-0.19363102,-0.079846635,0.0020954972,0.056440435,-0.14240707,0.048723727,0.059358217,-0.19393824,-0.0038015563,0.0021807551,-0.09031535,-0.11429122,-0.30811,0.10210708,0.14709471,0.16599663,-0.0573292,0.14975718,-0.30377167,0.03879199,0.04641254,0.106894106,0.026962604,-0.0048984177,-0.02365012,0.029113818,0.03925807,0.2417387,0.009102529
한남동,-0.04474537,-0.002345033,0.0800778,0.029405965,-0.14981218,-0.018571984,0.17220013,-0.20519824,0.03298543,0.010236535,0.010147965,0.2514066,0.08362481,-0.15489866,0.08558914,-0.025950886,0.049062915,0.12507214,0.29512036,-0.12264544,-0.020781936,-0.18993743,-0.045153804,-0.2096572,-0.058766536,-0.024680741,0.094310656,-0.25285932,-0.036507316,-0.022769522,0.081767604,-0.006707797,0.13802971,0.12159734,0.14748207
왕십리2동,-0.05285801,-0.18494281,0.12803486,-0.10930068,0.053318843,-0.07578254,0.09892197,-0.08985781,-0.08997618,0.03773502,-0.12732059,0.026347617,0.18567845,-0.028455174,0.19599521,-0.008468546,0.08355789,0.10529825,-0.0076344134,-0.0021847151,-0.023728633,-0.1522029,-0.004719058,-0.033076845,0.0021892693,-0.094020724,0.06971495,0.11757361,0.0020918194,0.033352654,0.09160254,-0.0662964,0.08946355,-0.14237605,0.0018271115
마장동,-0.20961758,-0.91535115,0.44464016,-0.4745151,-0.10738641,-0.22386582,0.24479455,-0.39775202,-0.7475407,0.29889014,-0.29990053,-0.009466842,0.6213746,0.11286747,0.5696701,0.2453799,0.1762003,0.47526005,-0.49582195,0.088752836,0.1482366,-0.49691367,0.24599087,0.13006918,-0.046966206,-0.55294615,0.17989932,0.23444737,-0.10483525,0.6204428,0.14267607,-0.05140941,0.60665387,-0.58913606,-0.02683306
중림동,-0.36276,-0.33957928,0.13800415,0.9033459,-0.687853,0.45824876,-0.5397913,-0.16386232,-0.15566084,-0.14800361,0.20376137,-0.42678887,-0.11089447,-0.58113474,0.5932895,-0.029534321,0.29067034,-0.19619942,-1.1394554,0.16248849,0.054282486,0.44251326,0.2526068,0.63095564,-0.5625704,0.27383167,-0.45280218,0.18218729,-0.49307713,0.17624208,0.15849741,-0.18945868,0.052934807,0.47227138,-0.8590352
옥수동,-0.12982638,0.016261801,0.19172649,0.07010108,-0.53248817,-0.0065240357,0.47495934,-0.5480504,0.094091244,-0.014906518,0.038064886,0.5920964,0.17430268,-0.4186515,0.19495443,0.028400302,0.08871647,0.37845588,0.7384478,-0.28227088,-0.015535567,-0.47115633,-0.08937301,-0.49803624,-0.1334474,-0.071172655,0.26953906,-0.65771085,-0.12518013,-0.057579953,0.1793645,-0.054059826,0.377203,0.3126185,0.38448393
장충동,-0.11719616,0.01473704,0.17136008,0.06693673,-0.48690784,-0.0029091127,0.43627065,-0.5079978,0.07929901,-0.016504303,0.030705655,0.5509987,0.16500273,-0.38488737,0.18470396,0.017063372,0.078715034,0.33962148,0.687189,-0.25940236,-0.021439152,-0.43313348,-0.08764722,-0.4621174,-0.12735787,-0.063007526,0.24119872,-0.6031632,-0.11791206,-0.053247236,0.16852404,-0.051070586,0.34715846,0.29353645,0.35573032
광희동,-0.15598808,0.01298061,0.46341103,0.1958775,-1.168043,0.15918045,0.9710211,-1.1697192,0.078397095,-0.04970369,0.061332226,1.1913699,0.3729323,-0.8519963,0.49352056,0.07177728,0.04068107,0.7528086,1.4508225,-0.48011893,-0.029842518,-0.9774295,-0.07944057,-0.9801936,-0.24596219,-0.18354593,0.48521715,-1.4052783,-0.27270532,-0.028985817,0.32684585,-0.1705321,0.79364955,0.6761138,0.67537284
사근동,-0.019768089,-0.32036468,0.2841099,-0.30876374,-0.06273739,-0.15298568,0.11491212,-0.13364339,-0.36640456,0.14061023,-0.08433797,0.050243482,0.31454057,0.20562917,0.267771,0.09001269,0.015270621,0.26086563,-0.24170119,0.17021252,0.09310984,-0.41783732,0.09311797,-0.042430773,-0.08908728,-0.21839547,0.053512838,0.10289547,-0.004438577,0.30698764,-0.09198554,0.009480866,0.3313398,-0.36894226,-0.08254668
후암동,-0.034265105,0.0531713,0.019004067,0.03117779,-0.18090363,0.022835959,0.134477,-0.028878054,-0.08603949,-0.07129009,0.14452401,0.10444902,-0.024156336,0.060562253,0.06026292,-0.04509865,-0.07762827,-0.089419305,0.1312106,0.21140364,-0.08724949,-0.19595887,0.10363267,0.033567682,0.043638114,0.1566888,-0.15974715,-0.03802278,-0.11119176,0.044718076,-0.010286611,-0.096861005,-0.16248658,-0.02629844,-0.116427034
용산2가동,-0.07655913,0.032623615,0.4815572,0.076615155,-0.7047529,0.038077924,0.5901806,-0.76988864,0.016874235,-0.018302005,0.06437467,0.7546299,0.17537177,-0.57715315,0.36912316,0.05225739,0.03772919,0.53729343,0.844121,-0.3773615,0.04637666,-0.71796954,-0.05051299,-0.63659745,-0.15827502,-0.13709669,0.24344438,-0.9937655,-0.109379016,0.021725211,0.19138819,-0.111071184,0.531761,0.29137427,0.46251833
남영동,0.03183803,0.04340017,0.025295135,0.0068561193,-0.072633326,0.05045342,0.08773568,-0.016323555,-0.09103384,-0.021040972,0.15474792,0.019303603,0.015170777,0.0801583,0.1357635,-0.061014276,-0.115901805,-0.086169206,0.09250678,0.24526705,0.026382187,-0.15632059,0.21204743,-0.025550053,0.093178675,0.099813476,-0.10305253,-0.14309038,-0.08958573,0.10309714,0.071713716,-0.12897989,-0.09406489,0.018623712,-0.14025986
원효로2동,-0.04000554,0.0014910214,0.020024769,0.007998267,0.0689573,0.13561177,0.014578834,0.042481937,-0.10786289,0.06949718,0.08901643,-0.04178206,0.078326404,0.017291455,-0.025985492,-0.114042506,0.03161234,-0.06580143,0.101601176,0.18422948,-0.005040558,0.0907738,-0.07653704,0.010177134,0.0037231417,0.027848683,-0.058075715,0.013546704,0.09331272,0.028552279,0.032226942,-0.029074809,0.05548084,-0.055768438,-0.01548486
효창동,0.018626198,0.09873541,0.18821777,-0.22272356,0.03463283,-0.17796846,0.1761667,-0.01886533,-0.40523297,0.12646782,-0.057677776,-0.06842911,0.09694466,0.32632765,-0.051358566,0.07791325,-0.0675684,0.06955862,0.1297111,0.21637993,-0.0766252,-0.22371385,-0.045125365,0.0053088013,0.17279913,-0.13554688,-0.099462256,-0.1269284,-0.14264932,0.18100391,-0.018693974,-0.0086285975,-0.08268429,-0.12080678,0.17604199
용문동,-0.12023057,0.027936269,0.076235786,-0.011790343,0.042847205,0.2621818,0.07360177,0.04474058,-0.24465664,0.14786795,0.15282556,-0.0984856,0.15977004,0.053403035,-0.054365806,-0.15813032,0.0047696717,-0.08661786,0.13860227,0.42564395,0.03339018,0.14673214,-0.17054701,0.08309229,-0.016983932,0.001472293,-0.14897478,0.03124975,0.13263674,0.0835385,0.03708505,-0.101622134,0.12939355,-0.119327724,0.015638892
이태원1동,-0.2855131,0.052249037,0.3368439,0.12821998,-1.164199,0.0010915361,0.96845436,-1.1079395,0.19447882,-0.07767388,0.078596205,1.1480697,0.31868684,-0.8504133,0.36141467,0.111808546,0.1622459,0.7833776,1.4792701,-0.546307,-0.018116347,-0.91911614,-0.18891521,-0.9689015,-0.2668609,-0.1308091,0.55217755,-1.294094,-0.28183046,-0.13171177,0.3466958,-0.13385521,0.76179826,0.6285995,0.7941587
금호1가동,-0.16720307,-0.46869317,0.2956813,-0.30188617,0.0022891015,-0.1651337,0.27818945,-0.24816816,-0.243688,0.047395606,-0.33000034,0.0076424275,0.42971608,-0.088369645,0.48106793,0.0845593,0.18230245,0.33261135,-0.044394318,0.024394765,-0.029416934,-0.36067817,0.0033751521,-0.027954778,0.022318026,-0.25215447,0.20755777,0.31818205,-0.037670754,0.09232375,0.20470613,-0.20022716,0.26327604,-0.37565237,0.027588071
금호4가동,-0.19985189,-0.22769105,0.610385,0.014673429,-0.8877697,0.012896653,0.88126135,-1.0143787,0.011809501,0.06949404,-0.060452268,0.9439852,0.41600198,-0.7183577,0.5642996,0.1900338,0.15635073,0.87690717,1.0607413,-0.4235762,0.04762741,-0.96781635,0.02940069,-0.7816082,-0.122937426,-0.3308876,0.57831824,-1.0986674,-0.19402839,0.06814876,0.29750133,-0.1548427,0.7814249,0.3405238,0.549908
성수1가1동,0.12529959,-0.11222216,0.32169998,0.08116036,-0.22601883,0.020178374,0.2905277,-0.4828388,-0.025656555,0.1681469,0.055394523,0.4693961,0.12753443,-0.14308867,0.23259002,0.013147213,0.06697613,0.33487633,0.4144539,-0.03890543,0.05277524,-0.44125673,0.11793164,-0.44505695,0.011578295,-0.20971358,0.32855517,-0.65496695,-0.050520457,0.09107165,0.15059045,-0.06530829,0.26228055,0.21571237,0.18817885
성수2가1동,0.3501084,-0.21682373,0.11221945,0.15333554,0.5085549,0.14809807,-0.074429765,-0.11534655,-0.1828964,0.50731915,-0.11134408,0.21522433,0.15232934,0.2547488,0.2051762,-0.21386915,0.21164784,0.1979293,-0.15221158,0.1080043,0.29601243,-0.021816917,0.42000473,-0.248034,0.20470034,-0.2777697,0.29472315,-0.037734445,0.22214754,0.26678345,-0.13982633,-0.05341743,0.11430308,-0.14825284,-0.14823197
송정동,0.024095144,0.029739507,-0.017072186,-0.028919132,-0.0494837,-0.035875205,0.008476619,-0.007482661,-0.008017453,0.086307496,0.026397234,0.02129263,0.06150013,-0.032846265,0.06184812,-0.0377199,0.020429,-0.07560174,0.03874116,-0.021898797,0.03122771,-0.0288722,0.016930839,-0.017901402,-0.064647704,0.019645061,-0.06510966,-0.015463546,-0.015044728,-0.06073286,0.0045311414,0.013428946,0.007341085,0.027981242,-0.014387649
용답동,0.06498349,0.003943544,0.019761652,-0.03978575,0.008444831,-0.014408647,-0.008099683,0.011529379,-0.04644328,0.055725027,0.03282441,0.056659088,0.08518125,0.039155163,0.035731204,-0.034977756,-0.015378889,-0.043997057,-0.017447088,0.046907473,0.028505487,-0.08852166,0.021870634,-0.06036347,-0.050881084,-0.00803084,-0.0621531,-0.04351957,0.037746742,0.023213577,-0.021043753,0.05648353,0.048808437,-0.018819839,-0.04573448
정릉4동,0.10915863,-0.045051053,0.07081699,0.13709511,0.29149565,-0.049726196,0.02076042,0.0060064183,-0.008629298,0.18838727,-0.026238797,-0.041096717,-0.010880213,-0.15067148,-0.019091511,-0.04276921,0.0008069277,-0.002091229,0.027113896,0.077799454,-0.09037907,0.14724983,-0.09126114,-0.014059387,-0.09241457,-0.031758916,0.121713765,0.13152127,0.046422847,-0.08241093,0.02895577,0.013900551,-0.050470356,0.05235435,0.10946544
길음1동,0.078439794,0.0012305193,-0.07899552,-0.011910258,0.21190356,-0.22265017,-0.15532069,-0.11384121,0.019578774,-0.06317772,-0.075329125,-0.068125226,-0.053989056,-0.008882463,0.015510978,0.029556945,0.025706047,-0.057127066,-0.09319334,-0.03541358,-0.12116791,-0.05525221,-0.048863724,0.10629994,-0.027411282,0.04438811,0.09869825,0.009193428,0.044251047,-0.024588855,0.05180922,0.02882791,0.0035015428,0.12476591,0.13391745
성북동,-0.042848773,0.05573935,-0.0030005183,0.075407796,0.0006270185,-0.007743258,-0.07368484,0.03242302,0.017008282,0.05680888,-0.055658735,0.059867047,0.013414125,-0.112614654,0.052537024,-0.037062697,-0.046975575,-0.02320331,-0.08829585,0.10639618,0.06349138,0.08110677,-0.0522786,0.037070595,-0.18474136,-0.012748387,-0.06524777,0.051469438,0.004655659,0.0308848,-0.018793838,-0.015306355,0.05329415,0.087420404,0.019246953
삼선동,-0.039138082,0.16684833,-0.16095059,0.033645533,-0.019304425,-0.06116138,0.04936401,0.042400807,0.2583474,-0.07474078,-0.35849118,0.01895757,0.062151566,-0.14810038,0.011649692,-0.05332169,-0.09626698,-0.12516241,-0.19621664,-0.07008487,0.055297635,0.16561602,-0.122697376,0.15391326,-0.34161732,0.035802346,-0.11937042,0.119100004,0.15662399,-0.03840077,0.15825848,0.052383065,-0.16530211,0.11304653,0.029944262
동선동,-0.011837983,0.5142544,-0.3673901,0.02802485,0.011327088,-0.16224904,0.09306148,0.12937805,0.6608745,-0.3939173,-0.86947024,-0.16708007,0.05900148,-0.23245086,0.048090223,-0.0814419,-0.2926642,-0.21943101,-0.45760387,-0.18242149,0.08818247,0.3151788,-0.19941908,0.352872,-0.68564016,-0.003769613,-0.14497577,0.22763401,0.3568789,-0.034623425,0.54068035,0.106507644,-0.32994637,0.3433076,0.1741077
휘경1동,-0.0406123,0.09161493,0.24543644,0.100065656,-0.107746854,0.07207741,0.1791873,0.13637985,-0.07942764,-0.020997223,-0.1316003,0.028572462,0.0829227,0.013110915,0.07524875,-0.010824773,-0.13314316,-0.22183476,0.09871935,-0.031487998,-0.017527748,0.047191665,-0.07026831,0.17870644,0.15478525,0.05286455,-0.13864435,0.12742077,-0.053638987,-0.20516573,0.030911472,-0.1149562,-0.1630618,-0.2043051,0.08563283
이문1동,-0.37354812,0.7531107,1.6044565,0.6790335,-1.3206506,0.6524423,1.3806883,0.9096603,-0.53199923,-0.3386204,-0.8953464,-0.01919714,0.42305535,0.031660683,0.41509035,0.28434268,-1.0729192,-1.3901657,0.62841845,-0.08330924,-0.0070686564,0.45224154,-0.4484787,1.4423364,1.1547722,0.37414184,-0.8933789,0.93546903,-0.52085143,-1.4750935,0.11263232,-0.95859605,-1.0819894,-1.4558344,0.65561557
이문2동,-0.35479325,0.7467729,1.149601,0.844215,-0.84479237,0.81858146,1.2549416,0.9076108,-0.53230363,-0.22943242,-0.8633406,0.28833917,0.5201537,0.104388736,0.60585606,0.30416334,-0.7253467,-1.3041823,0.42926905,0.13040449,-0.33354175,0.7017666,-0.5929718,1.2382729,1.2289059,0.24083346,-0.738279,0.60387117,-0.5106443,-1.109282,0.1812076,-0.81193155,-0.7211438,-1.4069034,0.5478845
답십리1동,-0.012256953,0.041523345,-0.031008653,-0.025667844,-0.10509388,-0.04878128,0.044332024,-0.021916049,0.0190118,0.119549274,0.03497314,-0.011698134,0.030579371,-0.035411857,0.06113118,-0.053670865,0.032441005,-0.11093521,0.064484745,-0.05561058,0.015534559,-0.007790897,0.008348618,0.005883893,-0.06130578,0.047608066,-0.09585618,0.010234346,-0.051792644,-0.07870808,0.026694156,-0.006838875,-0.060793802,0.04007653,-0.0242969
상봉1동,-0.012191231,0.05805678,0.12230933,0.030399418,0.01308386,0.011329457,0.08901845,0.06861818,-0.06966187,-0.013667673,-0.055230744,0.048075236,0.03670057,0.024736617,0.006601274,-0.011520024,-0.062403746,-0.09728849,0.066714145,-0.012922462,-0.011870198,-0.014048269,-0.05313348,0.07860019,0.065543234,0.035907228,-0.076134056,0.03848149,-0.02070356,-0.09306517,0.010496173,-0.04106932,-0.11961685,-0.09016636,0.055798307
중화1동,-0.12104572,0.3708596,0.55911106,0.069201976,-0.26952463,0.11330578,0.54643166,0.28905013,-0.36556983,-0.22451912,-0.22269467,0.11517342,0.029550673,0.11521179,-0.09457515,0.23400933,-0.41621047,-0.31052688,0.28447196,0.050224382,0.031199085,-0.080851704,-0.24343999,0.5293932,0.3924658,0.20832723,-0.32609347,0.19907065,-0.20235945,-0.48546356,-0.045976385,-0.2924488,-0.61633223,-0.4469725,0.32131562
신내1동,-0.030515216,-0.019691836,0.14885688,-0.008128431,0.11812036,-0.053924106,0.061199713,0.043476567,-0.11372106,-0.0230796,-0.05481126,0.11334977,0.007834196,0.042504624,0.010873178,0.0022894703,-0.100270234,-0.0035128854,-0.010053226,-0.08415955,0.007124793,-0.068251885,-0.03501504,0.05498779,0.12737356,0.0011030292,-0.036753606,0.0072100377,-0.0319053,-0.07754812,0.033750653,-0.020444522,-0.16465127,-0.08208823,0.047503255
월곡2동,-0.5047472,-0.07339293,-0.71537316,0.95117253,-0.9409486,0.6481739,0.37338418,0.8353823,0.29921484,-0.8632258,-0.9599181,1.1234418,0.7861981,0.82257915,-0.40097636,-0.1114025,-0.92020476,-0.597776,-0.5952404,-0.111962244,-0.6196374,-0.5969042,-0.76689047,0.24431023,-0.6933184,-0.5963155,0.1575926,0.8624168,-0.27627596,0.2684436,-0.08522724,0.641714,0.27070346,0.80936545,0.49147928
자양3동,0.12225363,-0.22833171,0.012252442,-0.1528569,0.20746273,-0.005047571,0.052045826,0.2698049,0.0393731,-0.059124205,0.035139747,0.083821,0.103851765,-0.020494144,-0.061222486,-0.1577053,-0.07263582,0.03003876,-0.036201954,-0.16998196,0.07537866,-0.05076705,0.22705278,-0.038662218,0.0044553597,-0.020125136,-0.1107197,0.08179502,0.048072487,-0.22491652,-0.10223037,0.0055830292,-0.1431341,0.09970669,-0.09129403
구의2동,0.088739134,0.036904432,0.053764466,0.063002035,0.051356457,-0.04507414,0.04887933,-0.17899342,-0.22464655,0.18159401,0.13741171,0.16866454,0.0005309321,0.044807144,0.11561021,-0.05885555,-0.25918636,0.050600346,-0.05777936,0.1431427,-0.05869557,0.06318129,0.13274357,-0.045801662,-0.050814975,0.11316263,-0.0341225,0.014825658,0.1720192,0.072085306,-0.2485975,0.06623192,0.23887745,-0.056097,0.039402515
수유1동,0.17806683,-0.06236677,0.09480907,0.22614917,0.46098197,-0.058919173,0.020494942,-0.01109463,-0.0029971702,0.25994903,-0.014420092,-0.11292031,-0.05269577,-0.2655756,-0.049044415,-0.0031577125,0.022813976,0.046820898,0.08762917,0.12072022,-0.14768097,0.25405076,-0.12940459,-0.00053912215,-0.12928452,-0.049656544,0.2488131,0.17723925,0.06870078,-0.11867082,0.024743242,0.027086578,-0.058249664,0.09308785,0.1894735
삼양동,0.51574254,-0.07260714,0.03324521,0.8302898,1.5413387,-0.12336597,-0.04275325,-0.2473525,0.20707491,0.6020314,-0.033840403,-0.6248549,-0.39259535,-1.1303902,-0.23804271,0.41377062,0.22383142,0.3354744,0.5077819,0.24511491,-0.5322396,1.1138177,-0.39184305,0.2612991,-0.5295538,-0.08404501,1.0738612,0.40469888,0.2634244,-0.24167909,-0.00050967745,0.22110303,-0.17532642,0.44294113,0.71010184
송천동,-0.025954384,0.109158956,-0.70832574,0.16833054,0.672223,0.21117698,0.37780815,-0.481831,0.07457347,0.12947875,-0.25630322,-0.30835143,-0.06090964,-0.874538,0.03837085,0.39257726,0.16512957,-0.07850272,0.52542275,-0.2590098,-1.0121841,0.9849696,-0.40419888,0.023692327,-0.20498294,0.019796774,0.4043001,-0.045217797,0.70862645,-0.046109263,-0.21001834,0.8394705,0.1510942,0.66166043,0.22968343
삼각산동,-0.027307685,0.058870316,-0.54854524,0.2141935,0.6142047,0.22137457,0.4304587,-0.47218698,0.081767246,0.21542811,-0.19773164,-0.28726992,-0.051864926,-0.8257907,0.017086858,0.3510914,0.15324369,-0.05166989,0.5156088,-0.2268691,-0.9659832,0.89431024,-0.38633218,-0.04988169,-0.18538596,-0.017340802,0.38714194,-0.050607726,0.67568475,-0.0671621,-0.22109184,0.80005604,0.103667274,0.5907994,0.21263793
우이동,-0.16186608,0.07037805,-0.71850985,0.18658544,0.36678988,0.5809911,0.89103717,-0.65132284,0.077610575,0.2154456,-0.26454872,-0.22182968,0.054839604,-1.0049071,0.055092633,0.34215307,0.010389872,-0.22592616,0.7183959,-0.30765006,-1.2935908,1.1680084,-0.6424659,-0.2432847,-0.17735863,-0.016245991,0.18847798,-0.049594715,0.8799344,-0.1574307,-0.33025303,1.1955817,0.06055435,0.78402334,0.16089316
월계2동,0.17796248,0.058338292,-0.12710138,0.11718124,0.32121912,-0.25541714,-0.10592146,-0.04839199,0.10511437,0.12813516,-0.10435268,0.011075463,-0.023095384,-0.16254817,0.07145754,-0.07142991,-0.022165887,0.014309239,-0.025683232,0.054753896,-0.10695141,0.048653685,-0.08243756,0.06493974,-0.07067342,0.008642168,0.05259255,0.17096168,0.13815956,-0.15631633,0.010003334,-0.003466932,0.008759767,0.08699307,0.22995812
정릉1동,0.40254197,0.0073693953,-0.2851587,0.10788645,0.8220308,-0.82159305,-0.49706882,-0.4514237,0.075711265,-0.12644877,-0.28746766,-0.45538446,-0.3286748,-0.2736053,-0.037520573,0.29356176,0.013090173,-0.06881274,-0.34630504,0.059503984,-0.4940495,0.041234367,-0.25696468,0.49176243,-0.17049427,0.113097616,0.5979036,0.22485465,0.13096708,-0.22496928,0.16034204,0.026752671,0.005235363,0.5244895,0.6950616
무악동,-0.1969846,-0.2333709,0.1273922,0.4771998,-0.22026615,0.170743,-0.35607243,-0.109233476,-0.108779065,-0.06071345,0.10229517,-0.187053,-0.020988677,-0.3222598,0.3279704,-0.0392795,0.16200408,-0.0862395,-0.6687708,0.055453595,0.03187882,0.2275671,0.088241056,0.34966388,-0.35466194,0.0962259,-0.21422659,0.13149579,-0.2879208,0.09432013,0.07260267,-0.09188238,0.06813918,0.27320004,-0.40133753
종로5·6가동,-0.37112108,-0.28998747,0.089287065,0.74745834,-0.45860916,0.44111368,-0.47604617,-0.11356654,-0.18122223,-0.23013376,0.099381566,-0.25817242,-0.1076483,-0.6659832,0.5450729,0.038867146,0.17174134,-0.09167563,-1.0228231,0.27472144,0.12439505,0.4913507,0.11816605,0.68834436,-0.6867845,0.27170894,-0.46719187,0.21223326,-0.39337704,0.18422721,0.11731741,-0.22057347,0.058074538,0.3506981,-0.5736034
이화동,-0.6128223,0.38719788,0.5115009,0.76635504,-0.5109981,1.0489036,0.19211067,0.9741142,0.36116302,-0.28795964,-0.4756956,-0.3024459,0.24672508,-0.4469462,0.15390687,-0.6069101,-0.3532879,-0.04818942,-0.29521307,0.89481586,0.50046986,0.48710668,-0.4214408,0.28855276,-1.3258392,-0.4065366,-0.8498897,0.37967288,-0.048298277,0.73707736,0.7477474,-0.6210224,0.49034145,-0.1751405,0.54276514
창신1동,-0.112518236,0.19110948,0.16555807,0.3554197,0.28803822,0.035601344,0.14346746,0.11099748,0.035131466,0.17840138,-0.43537027,-0.050500147,-0.036036786,0.06361038,0.107959196,-0.29365194,-0.31375995,0.105113566,-0.12879159,0.13565026,0.05660551,-0.23301652,-0.021645503,0.19590431,0.03142054,-0.10231161,-0.19337116,0.31019956,0.01155906,0.1806962,0.31255972,-0.08943978,0.04434966,0.16544093,0.3175959
창신2동,-0.00473399,0.35390225,-0.12394236,0.0704977,0.03413436,0.019601583,0.123451605,0.21579115,0.46891066,-0.2599959,-0.57937837,-0.08484234,0.12565818,-0.18117438,0.038720638,-0.11033326,-0.16855866,-0.08455166,-0.2193373,-0.1158091,0.12077441,0.23483337,-0.10662571,0.1593255,-0.45828483,-0.053889643,-0.111323096,0.15902191,0.2940295,-0.032578103,0.364066,0.09894597,-0.1808857,0.18680944,0.081571214
을지로동,-0.14632833,-0.18216929,-0.06701435,0.1107382,-0.35994393,0.4570539,0.103680536,-0.07873823,-0.44119382,-0.53120077,0.912431,0.088313825,-0.036363225,-0.0820977,0.4710709,-0.15780678,-0.18284896,-0.29053944,-0.009446292,0.94658715,-0.06738477,-0.056749217,0.36295485,0.26920387,0.010371679,0.43931374,-0.36770344,-0.15602808,-0.3185293,0.32009682,0.5443304,-0.3769219,0.13675563,-0.24472147,-0.45859718
수색동,0.059569374,-0.054135337,-0.1055709,-0.15263261,0.22936372,-0.028125707,-0.012875583,-0.047464177,-0.114595786,-0.22071837,0.27153206,0.046267435,-0.10025926,-0.033212394,-0.0026581679,-0.02030529,-0.022226032,-0.04893393,0.112777844,0.1941945,-0.036325023,-0.008831846,-0.05354111,0.085474625,0.0068385657,0.23433377,0.058302578,-0.046771843,-0.10499101,0.024522517,0.21488976,-0.009629844,-0.07487491,-0.12861587,-0.1664567
진관동,-0.3407759,-0.19149825,-0.122794375,0.08050908,-0.47801936,-0.023724325,0.0018833261,-0.28468224,0.72498864,0.29579574,-0.21355656,0.18526527,-0.011389155,-0.5243293,-0.10806854,0.098807536,-0.10565654,-0.12775393,0.04614373,0.5723109,0.36537394,-0.19273885,-0.045053475,-0.08048033,-0.2797352,-0.22632056,0.13137673,-0.31906334,0.03771245,0.11441012,0.28776932,-0.04707265,-0.2501662,0.021795116,-0.2686353
불광2동,-0.42466864,-0.38023987,-0.24740548,0.36174452,-0.48629522,-0.1102777,-0.07340248,-0.46904576,1.101803,0.51817024,0.04769375,-0.30557618,0.0009178668,-1.1575509,-0.7686191,0.38183796,-0.1794157,-0.037440825,0.122870564,1.0550971,0.26675922,-0.052832402,-0.6010313,-0.110131614,-0.16656674,-0.057670884,0.62831366,-0.1856511,0.21401356,0.07691537,0.6835465,0.48461866,-0.19354238,-0.31261876,-0.50208914
응암3동,0.017776757,0.014646053,-0.07781447,-0.24470732,0.10490592,-0.071051344,0.040534224,-0.14432025,-0.25070116,-0.2571194,0.48437464,0.1267815,-0.110036224,0.07187231,-0.026956635,0.10614642,-0.09680114,-0.053910833,0.12907653,0.38646927,-0.036581494,-0.12633951,-0.09565506,0.1875546,-0.05165585,0.31940356,-0.043178912,-0.15723917,-0.12909667,0.04215183,0.05251839,-0.034836546,-0.14627117,-0.2261445,-0.13213396
천연동,-0.21926421,-0.32923782,0.69461435,0.46887365,-0.44456172,0.12555926,-0.5217336,-0.0505367,-0.34385613,-0.11596176,0.6792756,-0.5711073,-0.11463533,0.07556135,0.51034665,-0.14193124,0.012537722,-0.27800065,-1.1968014,0.3263192,-0.118975796,0.30672967,0.2888282,0.08082192,-0.58792055,-0.1877234,-0.5772266,-0.31659633,-0.5336683,0.6143872,0.35642034,-0.3090021,0.49367902,0.09444713,-0.63802296
하계2동,0.25316352,0.009464616,-0.08734817,0.10864412,0.3636732,-0.36433524,-0.13429755,-0.13879088,0.11263912,0.11829612,-0.114674166,0.004174076,-0.05374888,-0.1400591,0.11415565,-0.09663062,-0.04723475,0.0145760365,-0.070868954,0.11049628,-0.14856195,-0.032420777,-0.04997117,0.034341097,-0.041238833,-0.0044687307,0.044989873,0.21166672,0.16730945,-0.16929671,0.07609592,-0.023480216,-0.02191466,0.051203728,0.26122916
홍은2동,0.118209116,-0.6935511,0.31551325,0.67319435,-0.2478896,0.27079433,0.008309841,0.5511924,-0.5809625,-0.0061709248,0.46930885,0.94100606,0.47587585,0.5388782,-0.54108655,-0.18534622,-0.39364284,-0.61993444,-0.32822892,0.55949044,-0.70024264,-0.02663223,-0.097091116,0.12497859,-0.5144732,-0.7046233,0.28217107,0.6823796,0.20069405,-0.31115007,-0.692916,-0.11026311,0.21110639,-0.19034748,-0.00522683
남가좌1동,0.5306673,-0.21347368,-0.17376083,-0.6286406,-0.04563333,0.6056678,0.00078030303,0.79828966,-0.2088537,-0.37797135,0.30818945,0.0946507,0.01414131,-0.40206572,0.0025944486,-0.49634013,0.35365298,-0.32129005,0.56663215,0.021748748,0.33288854,0.31223124,0.10731671,-0.65879565,-0.11663352,-0.31937096,-0.30299965,-0.10466943,0.12170826,-0.27753675,-0.009984957,-0.17174193,0.28119034,0.0030233238,-0.686228
염리동,0.07012167,-0.08149873,-0.0026270133,-0.07359356,0.15457803,-0.23046546,-0.0005781278,-0.15173295,-0.018262275,0.02889897,-0.0596908,-0.013858438,-0.023796193,0.05447285,0.059986033,-0.07935287,-0.00059529394,0.046385292,-0.037291024,0.059588145,-0.12379437,-0.22459784,-0.011583507,-0.006312525,-0.020051997,0.040044617,-0.037019543,0.08437145,0.027866723,0.02963029,0.054535978,0.000208335,-0.06185754,-0.054029875,0.04034484
연남동,0.32640585,-0.14204636,-0.48611218,-0.77263427,0.14076148,0.66236454,0.15475354,0.8532728,-0.33572382,-0.19946264,0.13535431,-0.25131574,0.4027078,-0.4965846,-0.09317493,-0.47488132,0.23713171,-0.21285003,0.4725119,0.3127201,0.25054103,0.3077122,-0.004717121,-0.30409423,-0.37280786,-0.0019840964,-0.2303575,0.116567425,-0.078747,0.3594176,0.119242646,-0.1671965,0.41020498,-0.13820475,-0.6179976
성산1동,0.1781052,-0.07350906,-0.19702584,-0.34191424,0.17744532,0.29572853,0.036088783,0.42817798,-0.13835527,-0.05037917,0.027637051,-0.083627954,0.20949548,-0.24845485,0.017874891,-0.25065914,0.10398045,-0.10235332,0.20437656,0.11422017,0.14510636,0.13632838,0.07438473,-0.17530051,-0.119692564,-0.055966552,-0.06897312,0.081168614,0.0032331701,0.13582104,0.09742544,-0.071580924,0.213457,-0.03146435,-0.2933251
상계8동,0.25264764,-0.23039868,0.16505119,-0.039657876,0.21321592,-0.26198775,-0.13352689,-0.23963077,0.069857165,-0.11424729,0.063973926,-0.04560045,-0.12544113,0.19487587,0.046229064,-0.08487641,0.015785169,-0.08131756,-0.074293494,-0.040452294,-0.16618054,-0.20750873,-0.050396204,0.053297333,0.015529135,0.009878756,0.2292022,0.029638272,-0.053917386,-0.1025911,0.2013163,-0.064429305,-0.14041667,0.03580617,-0.08322707
상계3·4동,0.078245215,-0.14614263,0.31935114,-0.05395048,0.017195582,-0.045402072,-0.109375164,-0.039747484,0.10574336,-0.118480876,-0.19060569,-0.15667576,-0.124522954,-0.011275312,-0.20575093,0.097054504,0.22252393,-0.17300254,0.059395906,-0.062646,-0.23560144,0.014709083,0.00954725,0.078889094,0.052283745,-0.16027915,0.10727989,-0.24178383,0.500286,0.12437935,-0.044850446,0.097730935,-0.26869497,-0.062731564,0.020151
신정3동,0.05365634,0.15534362,-0.13607316,0.046889827,-0.09504725,-0.22179633,-0.15866745,0.06481423,-0.0560203,0.0653626,-0.107340656,0.060319774,-0.13370098,0.014639491,-0.054711893,0.23636812,0.18546486,0.022751361,0.0018455395,-0.24342015,0.08737865,-0.030690571,-0.025221543,0.035787128,-0.14744912,0.07898226,-0.04783472,0.14581968,-0.04265225,-0.11347787,-0.25676337,0.080553755,0.09302163,-0.051721975,0.087713495
논현2동,0.012640953,0.11620685,-0.31573558,-0.040602542,-0.0020797327,0.12849426,0.024365563,-0.073618285,0.10908847,-0.20040263,0.35783622,0.07696732,0.04151615,0.26588476,-0.12011376,0.11888828,0.044417072,-0.06157831,0.17399292,-0.352885,0.018675843,-0.13062929,-0.09886399,-0.40384346,0.45597908,0.21675074,0.19124734,-0.4065495,0.03679424,-0.12186767,0.14898407,0.33177203,0.045354888,-0.13880691,-0.103663504
가양1동,-0.012815478,0.15126073,-0.00037293136,0.0012247805,0.048274573,-0.07840741,-0.06774174,0.034554996,0.02487664,-0.098504275,-0.006056163,-0.06518189,0.03079746,0.06494156,0.0013929382,-0.093257576,-0.0134491585,-0.03626839,0.051948417,0.007927146,0.1195258,0.022779586,0.19652933,-0.110230766,0.009099916,-0.104793966,-0.00852467,-0.07938917,-0.014140746,0.12668411,0.06915957,-0.03659039,-0.08771236,0.15010288,-2.614595e-05
발산1동,-0.09404932,0.67737967,-0.081069954,-0.018223265,-0.082602784,-0.2554854,-0.22858955,0.12067364,0.1303453,-0.5174535,-0.01901188,-0.38278064,0.04671576,0.23379682,-0.058910504,-0.20347154,-0.12206856,-0.054811664,0.18021174,0.097487345,0.5609215,0.16317846,0.84636194,-0.3672199,0.071783885,-0.4314172,0.008542047,-0.31554133,-0.13252853,0.510471,0.22676536,-0.23253456,-0.33779588,0.6290415,0.022828849
공항동,-0.0861605,0.8996796,-0.31366318,-0.08059959,-0.0056123883,-0.33373865,-0.35963994,0.28723696,0.33584714,-0.8604891,-0.23460437,-0.43939152,0.1497266,0.27475876,-0.09228954,-0.28866172,-0.124230854,-0.063110575,0.23573503,0.0675486,0.76847607,0.41016522,1.1900386,-0.49990892,0.21111795,-0.5461047,0.0015062774,-0.51594627,-0.20954512,0.65848327,0.24184203,-0.4129715,-0.583293,0.9808852,-0.007975174
방화1동,-0.083198845,0.94913256,-0.15811463,0.12954853,-0.100362524,-0.24498743,-0.21311484,0.14863189,0.23403794,-0.5832712,0.02942699,-0.49326047,0.09355204,0.3130831,-0.14832222,-0.17867029,-0.14544624,-0.0775464,0.16355923,0.10568613,0.6439846,0.22312929,0.9428533,-0.3927568,0.007682074,-0.46510535,0.16210748,-0.36257148,-0.035938688,0.53126484,0.239788,-0.1981696,-0.2899916,0.7817418,-0.014645835
방화2동,-0.48637027,0.41662937,-0.39554286,0.5615886,-0.0012667328,-0.5595773,-0.702674,0.39372423,0.6110487,-0.38947144,0.014000868,-0.14220768,0.29296422,0.47366488,-0.25169718,-0.3294519,0.22891116,0.057996783,-0.22576629,0.21983236,0.40327644,0.98542476,0.78459454,-0.07073185,0.3010757,-0.5672441,0.18638307,-0.24387403,0.09204409,0.63447934,-0.16382916,-0.5357845,-0.4421864,0.62978053,0.39603588
방화3동,-0.31041434,0.2057651,-0.3485192,0.19728926,-0.044736728,-0.24813679,-0.30888957,0.15210211,0.3887432,-0.25602588,0.07305211,-0.13711336,0.17480527,0.28008157,-0.16143575,-0.31386068,0.11786441,0.024248298,0.070208184,0.24694793,0.27902868,0.48243046,0.66174847,-0.16152588,0.1455726,-0.24818617,-0.029796977,-0.07442228,-0.12438392,0.4072212,-0.099098206,-0.27057064,-0.4272702,0.5702464,-0.06492441
대치1동,0.04429414,-0.03810244,-0.10963094,-0.12165737,0.050631657,-0.21117668,-0.09736152,-0.13320017,-0.038705967,-0.2151355,0.061505646,0.043842357,-0.048561584,0.17105615,-0.082789846,0.0834154,-0.009354405,-0.026500028,-0.0711023,0.023833696,-0.16211319,-0.24438941,-0.048897795,0.035560437,-0.028671648,0.17069584,0.08186271,-0.0018001711,-0.072533995,0.056289006,0.074467696,0.0993997,-0.06971218,-0.018931342,-0.00065796264
신도림동,0.052943554,0.14898175,-0.028860468,0.03657976,-0.04392615,-0.14161395,-0.09515005,0.0738923,-0.060975723,0.11568768,-0.15024622,0.0054252557,-0.06856319,0.087776594,-0.059691407,0.24562374,0.19249421,0.0132733695,-0.0043025585,-0.26433828,0.06306407,-0.07709687,-0.06319832,-0.053538196,-0.13371979,0.00744902,-0.08015747,0.15819512,-0.015097426,-0.06459285,-0.24220541,0.133305,0.1283669,-0.0621647,0.09173863
구로1동,-0.07575299,0.027605623,0.08251119,-0.1054967,0.21191089,0.06675045,0.17577763,0.02883016,-0.037038144,0.31744274,-0.0833798,0.053741593,-0.023686472,0.22275196,-0.2834944,-0.018801913,-0.06248244,0.066112354,-0.10346429,0.15405524,0.031065835,-0.4939573,-0.18007109,-0.17873704,-0.048369594,0.16556434,-0.5715042,0.13797218,0.123344,0.27900967,-0.30841687,0.20736451,0.031203408,-0.09558765,0.2603584
구로3동,-0.0791027,0.1602757,-0.061851308,-0.6306299,0.030921694,-0.33324617,-0.001775926,0.117185205,0.2129157,0.46779773,0.00085990876,-0.101751186,-0.1557836,-0.106581554,-0.73648226,-0.29116285,-0.21808627,0.19638038,-0.51429874,0.19792484,0.2958905,-0.66903144,0.06512889,-0.82369393,-0.21842895,-0.19942401,-0.72162783,0.013433806,0.2926846,1.0143495,-0.91520476,0.43651518,0.0066906568,0.026191061,0.03709382
구로4동,-0.29524904,0.26791674,0.2611335,-0.266474,0.39188594,0.099427,0.51560795,-0.10590088,-0.06317406,0.8024773,-0.24916656,0.19058031,-0.2671665,0.7405079,-0.58706564,0.14577356,-0.20290956,0.19100192,-0.32234144,0.21175596,0.049907357,-1.1442688,-0.2825674,-0.3705061,0.11549321,0.49469167,-1.2987798,0.34120393,0.26444343,0.57964176,-0.6475553,0.5005858,-0.0054285415,-0.29178694,0.5808582
고척1동,0.036947884,0.79649633,-0.11958729,0.09245747,-0.6295004,-0.5715911,-0.117143854,0.28127098,-0.087923154,0.2510301,-0.6778897,-0.047314145,-0.3805625,0.29907387,-0.36620536,1.3177193,0.7679555,0.13944118,0.10084278,-0.979926,0.1973635,-0.22606632,-0.15710294,0.012000876,-0.41229466,-0.0029498779,-0.3577427,0.651809,-0.037197493,-0.34364468,-1.1132636,0.4487099,0.27656743,-0.28785434,0.3701639
고척2동,0.08013823,0.25862223,-0.20513865,0.06893928,-0.19865231,-0.32732415,-0.22961703,0.10367304,-0.08883862,0.09065078,-0.1759097,0.061207585,-0.22391114,0.03520518,-0.09844838,0.41960195,0.29583365,0.043797348,0.0045306203,-0.3861016,0.1384466,-0.041612856,-0.031431943,0.058216356,-0.21363209,0.109150365,-0.074727,0.23070996,-0.0681907,-0.17848672,-0.42506325,0.1190418,0.15854499,-0.09049132,0.14111067
시흥1동,0.26828519,0.27453116,0.33442038,-0.4035814,0.101140566,-0.54329574,-0.024232585,0.37925524,0.08185353,0.5412815,0.19717817,-0.16059235,-0.42243728,-0.16969597,-0.71839774,-0.75943536,-0.3358688,0.12575498,-0.37983805,0.19041745,0.45028767,-0.47324857,0.18762633,-1.1381859,-0.36994314,-0.63676655,-0.5497137,0.0048198206,0.2988936,0.930135,-0.57642376,0.060643137,0.245711,-0.20360895,0.058000237
북가좌2동,0.46617407,0.1111797,0.013404682,-0.7476104,-0.32074356,0.40089685,0.048299674,0.19098516,-0.7295125,-0.5622199,0.79627866,0.4805813,-0.43265042,-0.04158046,-0.09910716,-0.14665973,0.1748974,-0.434077,0.64055616,0.32212192,0.1667776,-0.03452971,-0.46748018,-0.34722644,-0.22528218,-0.015655614,-0.7271647,-0.50462455,-0.028608786,-0.503798,-0.3675137,-0.27311468,-0.029420737,-0.29953218,-0.36409357
충현동,-0.20644715,-0.2715694,0.17552288,0.70905226,-0.79053503,0.3353528,-0.358502,-0.14148335,-0.18231672,-0.19547556,0.5195311,-0.36085123,-0.17364031,-0.2661266,0.5520267,-0.1756006,0.07236877,-0.332927,-0.82177126,0.33136207,-0.08479974,0.18026161,0.47574222,0.3123089,-0.35922375,0.2615074,-0.51488733,-0.07513421,-0.5520408,0.29023242,0.2489983,-0.27922165,0.025957111,0.32885265,-0.88265485
북아현동,0.09414713,0.01739829,-0.06922284,-0.31938693,-0.17023642,-0.06339958,-0.11836238,0.18039764,-0.4963411,-0.04385325,0.39997548,-0.34667915,-0.027360816,0.38313985,0.09778387,-0.19625118,-0.22182736,-0.22127652,-0.02778421,0.59171224,-0.3503362,0.10935158,0.3211306,-0.3060609,-0.13660014,0.062891506,-0.52064997,-0.43889642,-0.24960668,0.6330999,0.084510766,-0.10639247,0.2835171,-0.31128818,-0.13706747
신촌동,0.08407289,-0.063349135,0.076623,-0.18781753,-0.043063954,-0.084832296,-0.15934697,0.22521555,-0.34236217,0.17340486,0.23683569,-0.26090315,0.077864744,0.25445533,0.098517396,-0.17793384,-0.20338005,-0.058288228,-0.1591716,0.3379486,-0.22863643,0.21775152,0.15929995,-0.17701072,-0.10359135,-0.04846908,-0.32482183,-0.2123604,-0.113558285,0.3418098,0.039466128,-0.027945703,0.27445337,-0.30989626,0.014564497
시흥5동,0.2648609,-0.026992649,0.23137203,-0.012424022,0.002183549,-0.10235886,0.03237027,0.26157856,-0.09832798,0.1840455,0.25284278,0.07749309,0.05225204,0.06735139,0.12663233,-0.15039898,-0.17754751,0.014518674,-0.19327295,0.016566496,0.33210844,0.058927663,0.4043545,-0.34882227,-0.021826282,-0.23514436,0.012476849,-0.16482891,0.09935498,-0.014408112,-0.1959028,-0.029508239,0.020434033,-0.1479022,-0.101481825
목4동,-0.077206925,0.13147017,-0.07830117,-0.16579002,0.17870173,-0.14162537,0.0008258037,-0.05742111,0.02183541,0.036874365,-0.084533624,-0.10695053,-0.044209998,0.08499536,0.007907724,-0.06805058,0.007266136,0.14408576,0.054470997,-0.114383936,0.084309764,-0.058566146,-0.028815495,0.113965094,-0.04963483,-0.055975877,0.027464073,-0.04563281,0.019654064,0.13640909,-0.06262599,-0.02576031,-0.08684996,0.17047289,0.14707111
당산2동,-0.10521321,-0.050266158,0.06251486,-0.12799048,0.2525493,0.24750407,-0.10909422,-0.035047777,-0.14133805,0.15484037,0.21935785,-0.047661833,0.088901415,0.078631334,-0.16478102,0.07422102,0.038966544,-0.02918252,0.028901383,-0.07000086,0.23372708,0.013512516,-0.05861111,0.08615334,0.060741376,0.14728376,0.016906068,-0.058278833,-0.0933908,-0.03217569,0.063565746,-0.030756185,-0.022677157,-0.06176147,0.09721468
양평1동,-0.14457831,0.12044441,-0.17561893,-0.53772396,-0.110569045,-0.12287113,0.11198798,-0.22738172,-0.030985449,0.17941603,0.10139098,-0.020672202,-0.53284335,0.31204095,-0.5505565,-0.3845039,0.036896914,0.050561402,-0.061281044,0.02212162,0.13011341,-0.83795595,-0.15569618,-0.46944213,0.018015366,0.40065813,-0.6884609,0.1404864,0.25740212,0.6495436,-0.814996,0.15341246,-0.067014515,-0.2323164,0.1836761
양평2동,-0.9039075,-0.59828883,-0.50772005,-2.21877,1.6173476,2.4890282,-0.6267588,-0.59556526,-0.6220291,1.327147,0.9825278,-0.97737265,0.43983737,0.22936402,-1.7555122,0.93698967,0.22082192,-0.0064268075,0.5140288,-0.009200965,1.4798579,-0.63936156,-0.90296185,1.4124581,0.33065972,1.4093053,-0.81464773,-1.2893128,-1.0144125,0.15862654,-0.21182844,-0.2916361,-0.35475123,1.1630088,1.0529538
신길1동,-0.104538366,-0.23099649,-0.17777824,-0.26786184,0.21413818,0.30441925,-0.113751456,-0.049044535,-0.13517068,-0.09401767,0.19864796,-0.11110886,0.056938097,0.045329668,-0.3323596,-0.11701434,0.044461202,-0.12957448,0.11133278,-0.046815213,0.15047026,-0.17934597,-0.16194591,0.09518686,0.04645935,0.48187733,-0.23087615,0.028702658,-0.14034705,0.07101898,0.027281484,-0.08996308,-0.12851028,-0.012641876,0.17765187
신길6동,0.026853256,-0.06788927,0.104401454,-0.061330914,0.055894144,-0.2065398,0.05327675,-0.22780718,-0.14747864,0.16190566,0.14741541,0.08174868,-0.061213616,0.30459288,-0.02176915,-0.06924336,-0.031968582,0.057549153,-0.14074561,0.17929049,-0.019911926,-0.31737828,-0.019334562,-0.08368184,-0.03453748,0.07147703,-0.082309105,-0.02878363,0.06983774,0.23196748,-0.13194895,0.017302645,-0.022449646,-0.21810177,0.10370074
신길7동,-0.3066139,-0.25463063,-0.16180186,-0.7489816,0.22765201,0.7849064,0.007923452,-0.06932625,-0.18936111,0.53818685,0.14318179,-0.29120842,0.06564246,0.22120544,-0.7329942,0.15630221,0.1193803,-0.17859583,0.09485836,0.26088014,0.15398328,-0.5173244,-0.25043434,0.3648426,-0.08312084,0.7704084,-0.7173021,-0.14443764,-0.20054045,0.2553249,-0.49781293,0.06273352,-0.09659244,0.29624438,0.3028787
망원2동,0.4514431,-0.26467633,-0.20934767,-0.73032284,0.17911348,0.6202871,-0.1535033,0.51196086,-0.24196522,-0.5811664,0.7365359,0.2092362,-0.1673241,-0.4718251,-0.094808266,-0.45983592,0.5096949,-0.33005536,0.87146103,-0.25004065,0.5627919,0.3946862,-0.29007187,-0.77039486,0.09262928,-0.23685369,-0.118034184,-0.45596305,-0.12095339,-0.3714887,0.08246384,-0.19616275,0.34603518,-0.058985353,-0.7019812
대림3동,-0.06059599,0.08526506,0.04047188,-0.042863518,0.09513876,-0.055954654,0.07021329,-0.08700921,0.0035650237,0.19377013,-0.0097719375,0.06224935,-0.1231592,0.14623286,-0.05290395,-0.043069817,0.004128363,0.029886555,-0.08429521,-0.018748019,-0.0022560935,-0.16502182,0.020358201,-0.14033106,-0.007571865,0.11099123,-0.20392966,0.06590172,0.12813035,0.09392069,-0.15783536,0.123626165,-0.006745097,-0.07462005,0.03195896
영등포본동,-0.26798475,-0.14733014,-0.2755388,-0.6719309,0.03206905,0.33403426,-0.022416089,-0.23813552,-0.11031552,0.43894967,0.2400075,-0.20639628,-0.2947826,0.19148068,-0.7258244,-0.22179756,0.096218996,-0.08450257,-0.0053470163,0.17918302,0.07480122,-0.70820594,-0.22229517,-0.08850883,-0.0578791,0.7509069,-0.81292254,0.13184515,0.04780844,0.42078277,-0.73560894,0.09110285,-0.051480755,0.009476283,0.2519302
영등포동,-1.0474399,-0.7835988,-0.5363956,-2.443748,1.5310125,2.781112,-0.7448937,-0.8013937,-0.70191467,1.7088404,1.3526989,-0.9979793,0.30890965,0.20827763,-2.2648017,0.9610029,0.24524993,-0.17810838,0.35150167,0.2019287,1.5102262,-1.0245707,-1.0013157,1.2598698,0.3486224,1.911538,-1.2398379,-1.1878968,-0.946268,0.16655797,-0.64758825,-0.1854853,-0.31156653,0.9660114,1.0477744
도림동,-0.30077645,0.45082495,-0.050492235,-0.29331163,-0.07090652,-0.17065401,0.3360077,-0.3326132,0.10087945,0.63798505,0.029792247,0.07742712,-0.5898319,0.4501528,-0.4165055,-0.08745026,-0.033677578,0.1767553,-0.2900061,-0.02611069,0.053615198,-0.71169376,-0.039331757,-0.4834679,-0.013443954,0.55196905,-0.86692435,0.23895355,0.40560633,0.4814968,-0.86160296,0.40850663,-0.04073268,-0.24020807,0.16868144
문래동,0.0050137723,0.117248334,0.08930382,-0.11355797,0.0933565,-0.1420292,0.13165185,-0.23906648,-0.07038359,0.30501515,0.057070956,0.059811816,-0.34653184,0.2879175,-0.14341086,-0.08499104,-0.045372248,0.103370175,-0.23174857,0.16301209,0.038022503,-0.38501486,0.057110384,-0.35282847,-0.07071391,0.15803874,-0.37547398,0.10264667,0.30675033,0.22660394,-0.3814522,0.18692936,-0.005417215,-0.1677605,0.049860105
노량진2동,-0.0714428,-0.0045320215,0.18207268,-0.05474124,0.07871978,0.20062877,-0.029239058,-0.085950084,-0.085667506,0.33745375,0.24080172,-0.100274034,-0.05014677,0.13596657,-0.064389005,-0.10898523,0.008406791,-0.05859905,0.067466035,0.19962877,0.122465186,-0.0044282703,0.05334019,0.03442931,0.043355267,0.08986791,-0.06886056,0.03844029,-0.0053283926,-0.048223637,-0.09366004,-0.13903062,0.01560713,0.044320107,-0.01788491
상도1동,-0.086445525,-0.0516274,0.10809505,-0.031354137,0.0013837218,0.037319552,-0.07479197,-0.14160968,-0.0032129372,0.18168272,0.19138792,-0.050937526,-0.10082114,0.057506464,0.07118214,-0.11428593,0.03608508,-0.08209578,-0.00046885852,0.08418834,-0.019809565,-0.030820707,0.031226294,-0.047738,-0.018957712,0.092973575,-0.17503846,0.059684087,-0.051142283,-0.006790081,-0.016269645,-0.048891276,0.0617142,0.01845261,-0.04426667
상도2동,-0.07078178,-0.014376365,0.19415474,-0.10245081,0.04680597,0.19254814,-0.036632873,-0.15070729,-0.07032524,0.40077877,0.26094115,-0.13315165,-0.09312308,0.10151686,-0.05508975,-0.12865989,0.01703143,-0.06798118,0.09101554,0.2755899,0.09287964,-0.033705197,0.021155657,0.06787924,0.022933163,0.09032856,-0.11536112,0.03221706,-0.031250954,-0.0717856,-0.13062063,-0.17050308,0.002439564,0.124814495,-0.045840867
상도3동,-0.011481914,-0.07797328,0.1565726,-0.0081565315,0.0019813254,-0.0420376,-0.07665236,-0.17493144,-0.02150467,-0.010622136,0.3157283,-0.079583205,-0.15096025,0.1386611,0.11155656,-0.13682313,-0.057975784,-0.1435697,-0.07400846,0.22014804,-0.12616257,-0.09781683,0.0565129,0.0023188014,0.033076305,0.15548533,-0.12612876,0.032417472,-0.054813482,0.01726838,0.07531213,-0.12654953,-0.0124951955,-0.017112674,-0.10710176
상도4동,-0.016132835,-0.06618997,0.13483803,0.034279253,-0.0064935163,-0.074403256,-0.049769342,-0.10153734,0.03460114,0.022973027,0.13873413,-0.045092225,-0.08116609,0.046570666,0.1375897,-0.14707637,-0.0066171195,-0.10031851,-0.0557574,0.04541828,-0.111995965,-0.029281411,-0.0022989232,-0.07163213,-0.028753465,0.048485078,-0.1384026,0.060941588,-0.012533953,0.019531606,0.05269959,-0.050717615,0.03686781,-0.011265316,-0.05685673
대방동,0.014452418,-0.073994994,0.14004508,-0.0580782,0.07100651,-0.1710712,0.042447407,-0.23761922,-0.17452148,0.18774594,0.19846408,0.07125056,-0.066553354,0.32742417,-0.027121508,-0.06358408,-0.039657928,0.052427646,-0.15018533,0.19303332,0.010192843,-0.30237055,-0.006111186,-0.08031543,-0.017538346,0.08721295,-0.082649305,-0.020528167,0.060528174,0.22566672,-0.124983,-0.0030639395,-0.014471073,-0.24643914,0.10892483
신대방2동,-0.014256909,-0.03744758,0.1754898,-0.012895016,0.055002723,0.055939477,0.0025188867,-0.110361725,-0.057590786,0.2091449,0.20562392,-0.058158793,-0.08907059,0.14621742,0.037453637,-0.14365348,-0.01603869,-0.0649604,-0.023530643,0.23187153,-0.00023933314,-0.081121124,0.071777344,-0.03625996,0.02680125,0.06449328,-0.11193832,0.038293507,0.059730783,0.02058938,-0.07085736,-0.11091749,0.017968185,-0.01901816,-0.049566403
흑석동,-0.046802774,-0.012804434,0.07756907,-0.039682254,0.03642435,0.061303627,-0.06595277,-0.13458104,-0.018193578,0.16022944,0.15902321,-0.009818416,-0.105398625,0.046229497,0.06256234,-0.09739596,0.023095401,-0.07872912,0.008411749,0.104714915,0.0058123637,-0.066193156,0.041081883,-0.0746683,-0.013862488,0.08589331,-0.18202487,0.028846327,-0.024091976,0.006848514,-0.0029221904,-0.018336298,0.075460985,0.018836346,-0.05617792
노량진1동,-0.17813106,-0.028237376,0.32283425,-0.27615193,0.06004431,0.39386782,-0.11424695,-0.3465082,-0.16985607,0.7166182,0.55342156,-0.29086274,-0.17838483,0.11903377,-0.16289502,-0.10597307,0.04561802,-0.085082665,0.1737005,0.47978312,0.2608891,-0.033656582,-0.042832702,0.22351888,0.044216182,0.19041294,-0.1711864,0.033071738,-0.16838127,-0.1780789,-0.20395693,-0.33488864,-0.017256219,0.22271365,-0.05392815
사당2동,0.06537482,0.0037343148,0.09676028,-0.0007134252,0.06941946,-0.046119332,-0.028641991,-0.03256914,0.03618626,-0.024614338,0.06211528,0.00952895,-0.059548873,-0.03787569,0.13403952,-0.11814004,-0.019850444,-0.08560549,0.011349386,0.03336794,-0.044244267,-0.020368004,-0.046769053,-0.11916436,-0.04749823,0.0046694744,-0.09172729,0.028117444,0.013008531,0.0057621337,0.10449876,-0.03629776,0.06370689,-0.017293716,-0.055845708
보라매동,-0.021833219,-0.05466189,0.18389037,0.06254898,0.08001757,-0.036728583,-0.037871104,-0.023640888,-0.05191239,-0.008630451,0.21107826,-0.019117627,-0.013924114,0.05596061,0.19318224,-0.1416406,-0.06470532,-0.13306893,-0.0861663,0.17237023,-0.06877745,0.017049858,0.025324063,-0.033297334,0.05583327,0.017751358,-0.0999869,0.0036641872,-0.015149498,0.025328837,0.08603656,-0.12998822,0.05404081,-0.090109825,-0.02843622
등촌3동,-0.12773989,0.8886784,-0.10632348,-0.0239933,-0.13968101,-0.32629138,-0.29107374,0.1508467,0.1665576,-0.68004715,-0.017048389,-0.5126144,0.04950457,0.3027229,-0.082742125,-0.24632335,-0.16758078,-0.06264822,0.23169543,0.13600849,0.7373889,0.21297878,1.1048928,-0.46975678,0.093158916,-0.5635593,0.016063485,-0.40748882,-0.17911963,0.66535455,0.29196715,-0.30801213,-0.43316728,0.8161934,0.033868246
삼성동,0.15142667,-0.13832194,0.2859394,-0.12145607,0.022757813,0.0015841648,0.10831003,0.18942896,-0.06724814,0.24365662,-0.21151027,0.09990466,0.29997873,0.06452053,0.21838923,-0.007854655,0.0072386237,0.07970612,-0.24365613,0.17302634,0.19478752,-0.12523942,0.29680917,-0.19285654,0.003906561,-0.34084046,0.06083597,-0.085045636,0.2417605,0.10487968,-0.052297704,-0.065255694,0.21782172,-0.13247079,-0.012440274
미성동,0.24057989,0.0020365454,0.6297958,-0.084509775,0.23173562,-0.37585026,0.19381444,0.019407908,-0.35433805,0.4916186,-0.28838086,0.13934833,0.36753199,0.32644448,0.09679632,-0.014823593,-0.091063716,0.41774896,-0.2555356,0.2649623,0.39034945,-0.2493799,0.555037,-0.14328986,0.18136859,-0.53618294,0.21884501,0.033377033,0.14646576,0.15372989,-0.27998012,-0.14266269,-0.08896421,-0.14593245,-0.0780884
양재1동,0.10628501,-0.07170406,-0.15743636,-0.17545377,0.0030716509,-0.40711698,-0.14836769,-0.24937348,-0.12655996,-0.46579373,0.11020187,0.07792133,-0.10471667,0.38041,-0.113575,0.26155254,-0.036934383,-0.0021077525,-0.20274864,0.08815232,-0.30386746,-0.5464853,-0.040670417,0.10847385,0.020523697,0.32310596,0.19417804,-0.0016126549,-0.18126789,0.13477664,0.17235123,0.13855015,-0.12991965,-0.11273668,0.04730375
양재2동,0.006171153,0.027835906,-0.08973324,0.1095617,0.08402861,-0.038735628,-0.039065167,0.019947162,0.05317092,-0.10999699,0.046413668,-0.014954608,0.04442475,0.096432514,-0.08610631,-0.09760993,-0.0010043923,-0.11853731,-0.07782564,0.047809478,-0.01825034,-0.10655983,0.06581224,-0.08741461,-0.018415276,-0.0071322727,0.12682186,-0.07328326,0.021737432,0.07906459,0.11844478,0.020618701,0.02178917,0.12514071,-0.04141909
내곡동,-0.3984444,-0.8173,-1.0194527,0.56644,0.12429558,-0.25850967,0.34444132,0.27220958,1.4068334,-1.4590558,0.011533989,0.065917306,0.49540642,0.3078739,-1.5447675,-0.17480502,0.12377191,-0.8141198,-0.936697,0.63086885,-0.07222711,-1.5082846,-0.29776946,-0.52979136,-0.4214045,0.15369119,0.34911215,-0.05244178,0.32339534,0.4830919,1.4048089,0.970535,0.14559619,-0.2049586,-0.6906683
세곡동,0.49661437,-0.9593898,0.47970086,0.52967,0.3576113,-0.48143852,0.14290917,0.6473967,1.1224405,-0.6973458,-0.42967105,-0.27785817,-1.0185615,0.41873562,-0.6298317,0.23588869,0.46884716,0.07466717,-0.85804296,-0.24874875,-0.21458884,-0.64548415,-0.35610574,-0.21723644,0.97891235,0.12026696,-0.14387536,-0.6107108,0.42554858,0.5418455,2.1734838,0.8379303,0.17128055,-1.2792107,-0.51269084
가산동,-0.19040817,0.0850968,-0.21402092,-0.38548556,0.036099996,0.028554551,0.09350523,0.021251138,0.15021123,0.08323401,-0.12557104,-0.03751138,0.019010633,-0.070713215,-0.3585237,0.029371902,-0.1050181,0.026870523,-0.175473,0.044750337,0.1286689,-0.3136106,-0.18005373,-0.12846273,-0.20579539,0.1860493,-0.5307962,-0.015944354,0.090267606,0.46610785,-0.3866255,0.34966537,-0.13099666,0.040226173,0.060994133
장지동,-0.28286266,-0.018804116,-0.016030408,0.16280209,0.14621899,-0.035458528,0.12646124,-0.07125445,0.07860295,0.35569245,0.38618734,-0.16202962,-0.008096941,0.3348941,-0.45998505,0.13319865,0.25855154,-0.18519478,0.08561656,0.06675181,-0.005768217,0.058450058,-0.054386646,-0.099652976,0.40834606,0.0780235,0.0641706,-0.34438103,0.1918403,0.1242985,0.3285206,0.13697977,-0.089382574,-0.33108678,-0.022870485
위례동,-0.056960277,0.13618734,-0.05073122,0.026720503,0.27555674,-0.18001187,-0.1056222,-0.04401031,0.18016669,0.10239765,0.098090954,0.04378014,0.07521179,0.32697517,-0.09348655,0.18061864,0.01893881,-0.36091176,-0.056016583,-0.32160664,0.08198447,0.06754886,-0.2325761,-0.033012528,0.44341105,0.12766056,-0.08619525,-0.5086214,0.08232179,0.16751091,0.45583707,0.040083557,-0.09535353,-0.3529087,0.16786349
서초2동,0.053759366,0.10601365,-0.10445456,-0.04064256,0.03758351,0.104034334,0.033844292,0.062243074,-0.08806363,-0.08803196,0.10268178,0.020228505,-0.01805805,0.056723498,-0.07399193,-0.02889698,0.08636714,-0.05221936,0.11747141,0.08926785,-0.017196963,0.028652253,-0.09554108,-0.14506535,0.0123413,0.086454004,-0.028527237,-0.09786247,0.07157837,0.046585582,-0.0055355392,0.09775277,0.035841014,0.036742944,-0.12605977
서림동,-0.024058204,-0.15187126,0.36316425,-0.09193365,0.081270136,0.046817433,0.13143964,0.0068668164,-0.15567316,0.25463638,-0.23101902,0.0795958,0.2836235,0.03154315,0.33961514,0.057161577,0.16635162,0.18747376,-0.23480582,0.13327543,0.20552164,-0.16087492,0.21743792,-0.26147696,0.1936584,-0.43519983,0.14194342,-0.04279891,0.18568775,0.21514674,0.089076824,-0.05096969,0.34896642,-0.20241177,-0.032371685
신사동(관악),-0.059083655,0.0138269365,0.25989985,-0.08466542,0.047436208,0.05419421,0.13446869,0.1194308,-0.26641694,0.19902374,0.022841258,0.114642955,0.108591124,0.13497715,0.13816892,0.10944084,-0.054547966,0.05133814,-0.25347465,0.10576403,0.24320288,-0.10115535,0.010592792,-0.18211094,0.033684764,-0.17747097,-0.14759114,-0.117154196,0.11395467,0.18330881,-0.17024526,-0.020817025,0.17279157,-0.33804697,0.132531
반포본동,0.123616986,-0.048338994,0.09308317,-0.059332147,0.078001216,-0.16199838,-0.0676242,-0.13323216,0.09466212,-0.049064856,0.14604361,-0.06791689,-0.09330371,-0.10001306,0.10684919,-0.10338387,-0.03276586,-0.13796005,0.04711196,0.07406059,-0.11583758,-0.031083774,-0.13630341,-0.08761957,-0.041784782,0.02559087,0.009017301,0.13973776,-0.047962956,-0.1756925,0.17317387,-0.052652285,0.024838995,0.05690732,-0.11483753
오륜동,0.03750868,-0.105042,0.09529479,0.21158327,0.15264279,0.19409145,-0.05041076,-0.01591046,0.030597515,0.35401607,0.022341466,0.2157282,-0.091597304,0.47309142,-0.0020947196,-0.15561429,0.07663189,0.14478084,0.019208957,0.09324032,0.023565954,0.026195908,0.13290906,0.06612972,0.16650376,0.042507846,0.21163785,-0.044989187,0.04097981,-0.00028618798,-0.0916656,0.014353054,-0.020999612,0.029265495,-0.10218067
논현1동,0.0029623965,0.30801147,-0.35574663,-0.32923946,0.086808875,0.32815218,-0.075693026,-0.17304482,0.13939005,-0.08524589,0.7381303,-0.21227142,0.08366385,0.01305473,-0.22252107,0.32219815,0.4992648,0.070926696,0.4798643,-0.3800185,0.16461143,-0.17318588,-0.3270488,-0.77359325,1.0014583,0.3068394,0.10769495,-0.7075861,0.2022636,-0.62964004,0.17154564,0.45025507,0.20657247,-0.08766917,-0.16231927
신월4동,0.12127155,0.63578254,-0.5455412,0.17042,-0.8109038,-0.8743812,-0.6612445,0.19801317,-0.1690863,0.17658392,-0.41967884,-0.015700348,-0.50277424,0.11239637,-0.27701542,1.2573477,0.8597658,0.26036644,-0.029494595,-1.2052151,0.5467454,-0.17897393,-0.17795092,0.2860595,-0.714717,0.30628556,-0.058571346,0.7509688,-0.3933919,-0.3987343,-1.196557,0.29002437,0.50622547,-0.26622823,0.3569616
정릉2동,0.9325464,-0.014325932,-0.4504606,0.76473564,1.8331681,-1.212774,-0.5750984,-0.26409188,0.39402363,0.35661957,-0.8807425,-0.52528435,-0.45091975,-1.1860275,0.101805635,0.45193538,-0.007563472,0.5039982,-0.38327324,0.29057533,-0.736337,0.81208587,-0.46258795,0.7539624,-0.6515881,-0.29265475,1.0969422,0.83431166,0.27528766,-0.59967345,0.2662474,0.06263561,-0.21822746,0.57977,1.5778267
정릉3동,0.24605763,-0.0092895925,0.010006636,0.5172503,0.65340286,-0.1855165,0.15179391,-0.05856386,0.12124522,0.6316183,-0.29803914,-0.20634827,-0.113917604,-0.6825269,-0.11152075,0.03135568,-0.16708443,-0.077276364,-0.14927629,0.31442156,-0.21610148,0.7764784,-0.4002725,0.20983565,-0.5726085,-0.044914387,0.33417112,0.61366856,0.1371021,-0.30876467,0.100196406,-0.0019862317,-0.30189037,0.27022308,0.42914885
장위3동,-0.052299283,0.48357832,-0.98250586,0.043095447,0.27396613,0.381585,0.32675132,0.654461,0.40772408,-0.011589002,-0.84778935,-0.2773112,0.6101854,-0.27593213,0.02338094,-0.3249282,-0.49514368,-0.08713956,-0.1986824,-0.2688973,-0.19449262,0.67408663,-0.2867794,0.15940373,-0.6415248,-0.06949943,0.0060323933,0.7431541,0.08408613,-0.22591849,0.36946398,0.37051392,-0.049935143,0.8729529,0.18826978
창신3동,-0.015309959,0.50264084,-0.110143855,0.27004397,0.30694604,-0.02411062,0.2193585,0.21685293,0.46226954,-0.039669197,-0.88008744,-0.072545566,0.049268458,-0.08633193,0.06261855,-0.21246043,-0.36926547,0.005532913,-0.2618669,-0.22782023,0.13366327,0.06364418,-0.025193209,0.25761613,-0.16859707,-0.09939516,-0.11083927,0.31466338,0.30774614,-0.051262956,0.43811125,0.1585605,-0.2078223,0.41088092,0.19800918
숭인1동,-0.08084465,0.14987418,-0.19993398,0.1324312,0.5421616,-0.23103906,-0.008479446,-0.07458572,0.09775183,0.29097542,-0.39235923,-0.122547545,-0.11745788,0.028632252,0.08417208,-0.2844497,-0.13816556,0.21857482,0.01901748,-0.16968156,-0.12278848,-0.10501219,0.05321142,0.26894248,0.10291231,-0.0058466513,0.07598989,0.27450252,0.01336058,0.04623532,0.121438555,0.013941007,-0.048659857,0.29659897,0.21020181
숭인2동,-0.037105646,0.03081096,-0.04085029,-0.020386906,0.047608554,-0.25374976,0.14464399,-0.20424922,0.040876042,0.066625275,-0.24697366,-0.0752236,-0.07719092,0.022799311,0.115896896,-0.100408874,-0.15695941,-0.084797084,-0.07442905,-0.080357075,-0.15552513,-0.25460804,-0.018180761,0.23890755,0.03946268,0.12790592,-0.13190852,0.21806969,-0.07121579,-0.05778599,0.19049509,-0.0036187302,-0.23881504,0.13665402,0.086550996
청운효자동,-0.5166424,-0.5535855,0.21259575,1.235733,-0.74489784,0.49898392,-0.8499967,-0.30825835,-0.26467943,-0.18916395,0.19709496,-0.5132087,-0.08724508,-0.9150131,0.8114161,0.026271068,0.37241754,-0.14624637,-1.7246945,0.21598464,0.15507548,0.607024,0.27514234,0.9803502,-0.8998747,0.30371252,-0.53402364,0.40866575,-0.74498385,0.19205292,0.09897722,-0.23747385,0.12890013,0.7185579,-1.0369835
혜화동,-0.18832529,0.13501859,-0.1796221,0.1883537,-0.22680898,0.012635741,-0.055915438,-0.02094381,0.17016925,0.03313101,-0.31841066,0.05977115,-0.006158691,-0.32704267,0.1338042,-0.014362421,-0.15067062,-0.18784288,-0.42962593,0.08249773,0.1189662,0.34752327,-0.15769604,0.3335748,-0.5400441,0.10910361,-0.30852258,0.19387549,0.016889641,0.010920363,0.06561956,-0.040056482,-0.13673975,0.21257624,-0.04729251
소공동,-0.320952,-0.34788662,0.109934494,0.7942506,-0.46292746,0.32454914,-0.5255654,-0.19635722,-0.16580005,-0.10708459,0.09894288,-0.30422285,-0.04631656,-0.5941613,0.525784,0.0057737157,0.24195603,-0.1003332,-1.0825208,0.14351226,0.10129478,0.3757717,0.19232526,0.61999625,-0.5640751,0.22167489,-0.3520626,0.27096242,-0.4513552,0.111351475,0.050968893,-0.13150933,0.047024127,0.46019495,-0.6744798
회현동,-0.45373455,-0.45013118,0.12674685,1.2639966,-1.1794105,0.7040795,-0.5918145,-0.24708472,-0.1918453,-0.3365833,0.5550303,-0.5486691,-0.27696705,-0.63646305,0.9098784,-0.22627741,0.28236488,-0.4173956,-1.2897272,0.34194034,-0.05682995,0.4607231,0.71530974,0.71106786,-0.48502016,0.51387906,-0.7226252,0.13062742,-0.8010927,0.27250093,0.3596885,-0.37377357,-0.088023275,0.63025045,-1.3489453
명동,-0.6671648,-0.6155344,0.24324246,1.6155992,-1.2352415,0.8181876,-0.9734163,-0.30781955,-0.2779973,-0.27156314,0.31571648,-0.77928233,-0.19591652,-1.087448,1.0461432,0.013342701,0.5119726,-0.29008844,-2.0951018,0.28162745,0.14151762,0.831091,0.42862993,1.184415,-1.0356781,0.46373683,-0.77601427,0.3810633,-0.8915119,0.28802556,0.2404303,-0.3401482,0.11666636,0.85537225,-1.4894855
필동,-0.11918993,-0.1225461,0.12078439,0.30495235,-0.92815006,0.3149391,0.44037145,-0.60745716,-0.12560272,-0.33656207,0.62964875,0.4896228,-0.0022577979,-0.3341592,0.5679676,-0.1965937,-0.07075893,0.02816714,0.61728513,0.20573172,-0.17661974,-0.5057937,0.4908099,-0.34862792,0.08005442,0.27648112,-0.081071176,-0.72900766,-0.4292058,0.12637316,0.44944915,-0.29779848,0.19342917,0.30043533,-0.24757035
신당5동,-0.20169073,-0.5580552,0.35339242,-0.36318427,-0.019464247,-0.19032766,0.34199923,-0.29826382,-0.28805342,0.050330438,-0.3929065,0.0034760758,0.5151847,-0.11133226,0.576641,0.108740486,0.21448842,0.4038353,-0.050422233,0.034463298,-0.02818817,-0.4266321,0.005544449,-0.03253123,0.025770351,-0.30400532,0.25274512,0.38268358,-0.04694581,0.10827203,0.24385244,-0.250412,0.320005,-0.45382902,0.03231308
서빙고동,-0.102708116,-0.048362188,0.46294713,0.092253566,-0.7451047,0.07206862,0.6765257,-0.8129674,0.11565722,-0.028338645,0.035603996,0.842905,0.23516575,-0.6266217,0.3208447,0.06951272,0.11680784,0.67547834,0.92687374,-0.4122416,0.03942672,-0.8435168,0.0017906427,-0.69438636,-0.13416013,-0.16092266,0.39922792,-1.047508,-0.123026885,-0.015201636,0.17514166,-0.08917754,0.49070796,0.39915478,0.45969254
보광동,-0.32011363,0.041516416,0.4440602,0.15602326,-1.3960208,0.026975136,1.1563021,-1.3302035,0.23490353,-0.09400143,0.0900011,1.3673133,0.37782237,-1.0283827,0.44230825,0.14073783,0.18992186,0.9715953,1.7354519,-0.6564584,-0.0032843817,-1.1318746,-0.18886441,-1.1571867,-0.30270472,-0.17343974,0.66957647,-1.5776478,-0.32516074,-0.13965893,0.39728212,-0.16379489,0.90484184,0.7478614,0.92457527
청파동,0.01817448,-0.016580163,-0.11431441,0.14027178,-0.37797135,0.05935392,0.014999468,-0.11588214,-0.07392327,-0.16052036,0.40504208,0.0235755,-0.13482545,0.10575417,0.17397143,-0.20664406,-0.09558424,-0.24524616,0.11128296,0.2910047,-0.1568251,-0.2594904,0.39722496,-0.0833885,0.1627692,0.28311312,-0.21157917,-0.17346914,-0.2545271,0.15037031,0.13236336,-0.13152581,-0.19013917,0.100244746,-0.37585694
원효로1동,-0.018838722,-0.015106454,0.13922657,-0.04167781,0.10852373,-0.026382856,0.05062798,-0.041775033,-0.12016313,0.05795034,0.063029446,-0.003539797,-0.0049829483,0.14270598,0.009123657,-0.023889948,0.008460996,0.021523103,0.015737204,0.08172348,0.05780136,-0.14921816,0.05080224,0.0066497866,0.13809253,0.021605065,-0.014804056,-0.06167163,0.00035727583,0.08574878,0.03444167,-0.054361753,-0.09857905,-0.031320438,0.03844609
한강로동,-0.021088384,0.078394786,0.06878674,-0.004909496,0.027420528,-0.024050493,0.07346365,0.006786458,-0.062959455,0.0006348323,-0.015203297,0.067479655,0.042064033,0.05658994,-0.012468727,0.013442181,-0.015912108,-0.029258408,0.033123463,0.041321684,-0.02514593,-0.08950798,-0.0731773,0.021194959,-0.019542513,0.01988605,-0.079203956,0.0149304615,0.0077798236,-0.028800525,-0.02815417,0.010352334,-0.073557444,-0.072731934,0.028106319
황학동,-0.26475716,-0.8217537,0.48548287,-0.4446196,0.033008277,-0.17231227,0.41528583,-0.3318477,-0.6759212,0.27974433,-0.49159372,-0.003189627,0.6793728,0.012431888,0.6600255,0.2310313,0.19823804,0.52374566,-0.25137997,0.05677576,0.095275246,-0.5035316,0.13093609,0.05504846,0.054925125,-0.58648956,0.19898537,0.4499814,-0.07827798,0.4994383,0.27576947,-0.13389623,0.6630297,-0.6277614,0.19730867
신당동,-0.025541686,-0.2049132,0.021441,-0.24584249,-0.060867235,-0.11476974,0.27878383,-0.36398035,-0.46288452,-0.13959777,0.23506895,0.22932819,0.18543893,0.021535633,0.38873518,0.13191715,-0.18351161,0.18852852,0.17417216,0.51401305,-0.08645564,-0.44081777,0.025025686,0.10950132,0.014893521,0.08975288,0.04892293,-0.05495685,-0.114121534,0.16518585,0.15171461,-0.1471942,0.28877237,-0.2742134,0.06097377
다산동,-0.18446946,0.02822065,0.4906261,0.21185103,-1.2936336,0.15779828,1.0661572,-1.2732654,0.10250996,-0.0517536,0.06178134,1.2960129,0.4006441,-0.9353166,0.5231265,0.08711458,0.05083799,0.8301598,1.5957458,-0.5347756,-0.028292853,-1.0599165,-0.1010507,-1.0738945,-0.27568927,-0.1982075,0.5385904,-1.527421,-0.30117851,-0.04759599,0.35093915,-0.1837349,0.8699345,0.74498624,0.75970125
약수동,0.030546825,0.12310601,0.045094475,0.009556336,-0.454194,0.082626164,0.38669094,-0.37632027,-0.16666664,-0.054784935,0.32705054,0.46848074,0.1458835,-0.28877252,0.27900255,0.03131084,-0.25072086,0.13352118,0.59263664,0.25711608,0.005064653,-0.33596718,-0.013659516,-0.25287497,-0.12448859,0.09474074,0.0654195,-0.6104402,-0.10305271,-0.02326116,0.090047404,-0.10965508,0.38656422,0.19917928,0.18108724
신정1동,0.14157727,0.5469614,-0.49390274,0.13967103,-0.53240645,-0.68111646,-0.48528945,0.18942992,-0.16889845,0.13985905,-0.33793205,0.107401684,-0.5004646,0.028919974,-0.22649193,0.9181358,0.5694575,0.14857008,-0.017818104,-0.7654989,0.34127834,-0.0641633,-0.06552517,0.18624115,-0.47093168,0.26111123,-0.12066781,0.50003916,-0.19808777,-0.37714985,-0.8908805,0.21084425,0.33350253,-0.17735897,0.30526358
청구동,0.0800241,0.018521704,0.014233825,-0.04227712,0.008495256,-0.16135842,0.11966127,-0.26329124,-0.22427231,0.027733559,0.107362166,0.15364103,0.03345367,0.16734453,0.11693229,0.04131718,-0.16070226,0.09782039,0.084693365,0.2820285,-0.08570527,-0.39299652,-0.009116665,0.02566337,-0.0069085183,0.10191517,-0.02130242,-0.08037257,-0.040487133,0.110040486,-0.016380439,-0.0070762504,0.06963539,-0.054890156,0.095791794
신정4동,0.13314165,0.8750883,-0.6138537,0.14170118,-0.8642812,-1.0724125,-0.7035905,0.22884408,-0.23664622,0.1306765,-0.5642589,0.07891222,-0.7716961,0.24921037,-0.35588288,1.549747,0.9792358,0.38445356,-0.024340328,-1.4230214,0.6786049,-0.3258112,-0.09679332,0.2943801,-0.62264365,0.39059305,-0.113812536,0.78788775,-0.3935853,-0.34087178,-1.4168854,0.31612447,0.45459765,-0.34042394,0.51244605
동화동,-0.37757874,-0.97901416,0.4522059,-0.63422143,0.0769455,-0.2702817,0.42347205,-0.390927,-0.67805487,0.043425173,-0.64791256,0.018864837,0.6213788,-0.1567993,0.9148296,0.31988233,0.26979202,0.722002,-0.10346041,0.017491568,-0.009356735,-0.46332356,0.027840523,0.10654822,0.053986095,-0.55880004,0.40972528,0.5517014,-0.15155105,0.33278823,0.2672745,-0.26393914,0.6934909,-0.73737067,0.18437761
이촌1동,-0.08217931,0.017075885,0.0625902,-0.0041257925,0.044254147,0.07611947,0.043914158,-0.018761164,-0.033032473,0.11693634,0.082093626,-0.03662856,0.04001863,0.048568867,0.020388046,-0.11553547,0.017467275,-0.030951843,0.08244351,0.14038031,0.013629729,0.08402633,-0.029743114,0.08102329,-0.030731456,0.012234568,-0.061390314,0.030933391,0.05879181,0.0068065734,-0.019785767,-0.06267688,-0.036334157,0.028829368,-0.014219439
이촌2동,-0.087438904,-0.036872458,0.13333255,0.03744188,0.039566025,0.09479436,0.03248292,0.009101574,-0.09379764,0.13335799,0.13762704,-0.028360486,0.007876001,0.095684335,0.008018217,-0.14953041,-0.009304974,-0.015932068,0.036180772,0.174013,0.04273483,0.030059522,0.015766717,0.06262579,0.020268956,0.01877368,-0.071346,0.035327774,0.044575877,0.025060922,-0.0027662162,-0.09938587,-0.007622079,-0.027875932,0.0034656376
이태원2동,-0.23111753,-0.030967766,0.5729162,0.16861618,-1.3148241,0.099579155,1.1084758,-1.307249,0.222024,-0.07329337,0.07000054,1.3386633,0.37783265,-1.0259947,0.48187518,0.11876916,0.17511928,1.0238122,1.594537,-0.65531206,0.03633155,-1.209427,-0.074633926,-1.13991,-0.25053272,-0.22127087,0.6609658,-1.6332674,-0.26785624,-0.07344851,0.3434283,-0.1587693,0.8578339,0.72163516,0.81211436
행당1동,-0.28051788,-0.7597715,0.48531455,-0.5001337,-0.07047002,-0.25374073,0.48362237,-0.41781026,-0.3881423,0.06052008,-0.5358205,-0.010710046,0.71066666,-0.15810712,0.78889674,0.16747817,0.2885984,0.56493676,-0.075443044,0.059912365,-0.029288521,-0.5884842,0.012217907,-0.03997876,0.036472604,-0.418933,0.3533268,0.5299771,-0.07092541,0.14413577,0.33476892,-0.3613848,0.44230857,-0.6267908,0.042100154
행당2동,-0.6122043,-1.6187663,0.8323988,-1.0160663,-0.0022565126,-0.41812345,0.72023517,-0.63977283,-1.0511425,0.11733192,-1.0514865,-0.032630906,1.1396554,-0.2589721,1.5073388,0.51611763,0.48148158,1.1723726,-0.27400732,0.025788765,0.052044757,-0.7741012,0.0872753,0.13398486,0.06091148,-0.98852843,0.6844422,0.9115673,-0.23959984,0.5594033,0.4932578,-0.50540024,1.1523895,-1.2464402,0.24378565
응봉동,-0.24893248,-1.1472573,0.57892597,-0.6597352,-0.10287525,-0.32698035,0.28016293,-0.4763643,-0.8355702,0.13057949,-0.49582934,-0.07376376,0.68862844,0.14832515,0.81171185,0.29690713,0.20889774,0.6522939,-0.48714834,0.07429451,0.07048782,-0.69736946,0.17518714,0.15627167,-0.02236192,-0.6442569,0.39501393,0.41757828,-0.20126134,0.6005749,0.28454882,-0.17721513,0.7535201,-0.78460205,-0.005924875
성수1가2동,0.3499467,-0.21509063,0.07942859,0.16326842,0.38259983,0.11058651,-0.09570056,-0.16864514,-0.23889995,0.5464763,-0.07206759,0.19492576,0.07927711,0.20809089,0.23763314,-0.15351996,0.18375677,0.14746654,-0.18847914,0.16893984,0.28296372,-0.039954282,0.40277824,-0.17433414,0.10779108,-0.26594013,0.24774781,-0.060308244,0.14378065,0.24645428,-0.14847697,-0.057553694,0.11266267,-0.053232063,-0.12672992
성수2가3동,0.9442591,-0.7241578,-0.56181365,-0.389278,1.135767,-0.23121418,-0.10110414,0.2817661,0.12334104,0.9379855,-0.90462846,0.9707105,2.7836118,-0.36806086,0.53431743,-2.051862,0.98007303,0.9199345,-0.060639348,-0.65082264,2.5175564,0.2565103,2.3259444,-0.4868482,1.0444447,-0.6888706,0.88089937,1.4091854,1.1457382,-0.28497028,-2.1354208,-0.76263195,0.4648352,-0.74718654,-1.5110959
왕십리도선동,-0.39169532,-1.0573455,0.5799934,-0.668197,-0.017496794,-0.2917669,0.52298105,-0.45771128,-0.6495246,0.08899762,-0.69439703,-0.009856999,0.81436896,-0.18104239,1.0124782,0.29597855,0.3385988,0.76106524,-0.15692793,0.03247029,0.01757667,-0.5841974,0.04938709,0.04261063,0.037404142,-0.62941617,0.45087364,0.6243206,-0.13305597,0.32804632,0.35804603,-0.37008998,0.71491987,-0.8280321,0.1269947
상암동,0.1395948,-0.09234496,-0.19490272,-0.3197561,0.3607465,0.0078057647,0.01136018,-0.05547884,-0.22084524,-0.45898384,0.58577126,0.06821462,-0.24986136,-0.0903789,-0.03889671,-0.018586367,-0.021741703,-0.078954466,0.28847134,0.36572126,-0.02979777,0.07371231,-0.13684957,0.098674,0.01615672,0.40680635,0.13615473,-0.07050039,-0.19064541,0.00826576,0.4288886,-0.042172164,-0.05592094,-0.2585543,-0.3541302
공덕동,0.02286249,0.00055735186,0.00020972453,0.020084862,-0.2944898,-0.040974554,0.064360455,-0.19861548,-0.19752106,-0.16341044,0.38350827,-0.004568979,-0.14315,0.25536942,0.16901426,-0.09101169,-0.10233889,-0.17022818,0.048134003,0.34130684,-0.08728898,-0.4577722,0.43308783,-0.100940615,0.29358676,0.24560133,-0.2053247,-0.28911987,-0.28826624,0.29707482,0.15695906,-0.14719422,-0.25687307,0.06743762,-0.29101464
독산1동,0.3003555,0.18811485,0.22338952,0.06495991,0.3726173,0.044621598,-0.091020286,-0.13245389,0.0039924365,0.47583768,-0.12571353,-0.1270358,-0.44421783,0.3785046,-0.0044443235,-0.16443515,-0.023714297,0.109121874,-0.43997222,0.20543684,0.28203326,-0.3801579,0.43895972,-0.89692366,0.26614335,-0.27425903,-0.25445667,-0.22658741,0.5084519,0.7576619,-0.21262339,0.2928529,0.38847,0.04175005,0.012156289
금호2·3가동,0.032826662,-1.0496279,0.62948126,-0.5201092,0.24190001,-0.29224047,0.29666167,-0.62444127,-0.73855317,0.3023226,-0.5173604,0.10487721,0.518328,0.19077805,0.8915272,0.3043941,0.2856424,0.7467611,-0.23306754,0.34373054,0.038962148,-0.6714891,0.26152068,-0.11527465,0.23624538,-0.7252886,0.65256894,0.15115069,-0.15308315,0.44997835,0.35722956,-0.29778707,0.5287489,-0.5714394,0.116759
화양동,0.12072639,-0.120490156,-0.046862796,-0.1414836,0.24577339,-0.04174581,0.03252624,0.10795297,0.066311434,0.10046035,-0.073073454,0.036926907,0.2679249,-0.022014922,0.040936124,-0.27637947,-0.020684991,0.020295195,0.003858775,-0.17969634,0.23095454,0.019060118,0.27725485,-0.036427725,0.102621034,-0.024167344,-0.06976157,0.090899214,0.08519614,-0.11412658,-0.2063291,-0.03508497,-0.10177192,0.053239197,-0.18958089
군자동,0.38733608,-0.5383974,-0.03368535,-0.047587045,0.10651703,-0.058476496,-0.033134148,0.47334787,-0.09255865,0.099196345,0.24207309,0.20441386,0.09056626,-0.059415847,-0.15521081,-0.27598158,0.008968702,0.05865437,-0.11484295,-0.059429407,0.22060661,0.01515145,0.50467,-0.0065447018,-0.19464129,-0.107427716,0.05950023,0.19900769,0.12425539,-0.42265797,-0.35047376,-0.12719113,-0.056180164,0.113801494,-0.2142279
등촌1동,0.0063501718,0.49598658,-0.2514122,-0.15342598,0.1103952,-0.36695775,-0.25602907,0.101264775,0.33509937,-0.42033973,-0.19377102,-0.284658,-0.10556117,0.12371503,-0.114187986,-0.45386225,-0.1043353,-0.013830245,0.19246304,0.00935119,0.344585,0.10983657,0.54037964,-0.37757245,0.0639354,-0.39062226,-0.14898203,-0.1715555,-0.021471033,0.4416862,0.09904942,-0.20889346,-0.28544173,0.5933799,0.06036278
중곡1동,-0.0110783735,-0.090348884,-0.1372468,0.141672,-0.057551548,0.11148593,-0.041132137,0.010462762,-0.12752399,0.03162204,0.11413326,0.18105376,0.057709426,0.00018591713,-0.025545372,-0.14640833,-0.02323816,-0.24354666,0.05800609,0.09765525,-0.14058052,0.08522198,-0.079021946,0.10504036,-0.17161879,-0.027056111,-0.0017286623,0.13242167,-0.0434784,-0.02129361,-0.17101137,-0.015924068,0.05449621,0.187908,-0.06970324
상계9동,0.5504769,-0.48337936,0.33996058,-0.084141344,0.37211484,-0.5567506,-0.2743027,-0.5328642,0.15693468,-0.2749453,0.13676181,-0.14289886,-0.29607642,0.4124974,0.083968624,-0.12133029,0.005147403,-0.13119999,-0.17565584,-0.06429925,-0.3367522,-0.43062723,-0.097666636,0.15507719,0.04895786,0.00029883595,0.5299625,0.06681527,-0.14715691,-0.22859164,0.43582264,-0.17272578,-0.28861025,0.076749034,-0.15739897
중곡2동,0.35270914,0.22934556,-0.14851029,0.21394663,0.105901234,-0.07522054,0.39007378,-0.5841725,-0.76396686,0.6672638,0.60449797,0.49161693,0.16115306,0.05810544,0.3754976,-0.33085823,-1.1781573,0.3426385,-0.17254679,0.70730215,-0.33592606,0.47301197,0.36807084,0.054864854,-0.22254796,0.5547338,-0.048689652,-0.058916062,0.63828284,0.38096625,-0.98703957,0.115105875,0.9189105,-0.09025812,0.25373352
중계1동,0.44836786,-0.6446145,0.80608875,-0.082551114,-0.24981366,-0.015775587,-0.33816776,0.19502558,0.19910268,-0.49812737,-0.21402058,-0.036775477,-0.028459478,-0.033505157,-0.31622675,0.13727754,0.3727403,-0.581959,-0.10029502,-0.12135954,-0.54547566,0.08225209,0.011164201,0.09081608,-0.017719645,-0.6640788,0.51234597,-0.36843216,0.9014534,-0.12503883,-0.12962109,-0.13908517,-0.26573196,-0.23859648,-0.087033324
중곡3동,0.30193493,0.26973596,-0.36493433,-0.026184993,0.3203233,0.03975021,0.37975904,-0.3516881,-0.53361213,0.44228575,0.5558782,0.21118769,-0.015221294,-0.164395,0.2491154,-0.29010007,-0.71259785,0.26877132,0.20157854,0.5559961,-0.3635357,0.60248524,0.04891827,-0.019297078,-0.1742329,0.4993631,-0.054348797,0.0398428,0.3986397,0.27763283,-0.49463493,0.15805304,0.6988891,0.014507926,0.03675557
중곡4동,0.31788674,0.1947532,0.1479568,0.23774537,-0.0675443,-0.11937028,0.25495934,-0.7419802,-0.8769528,0.6391239,0.573983,0.56138223,-0.06566797,0.14666054,0.40001583,-0.06964447,-1.1074399,0.29604417,-0.2661571,0.6449546,-0.17693931,0.30713618,0.55454767,-0.08736039,-0.17715064,0.45915908,-0.0915906,0.06378106,0.6238943,0.28284562,-1.0494905,0.18782459,0.986857,-0.22775199,0.18823104
능동,0.49980405,-0.65228194,-0.06858294,0.10291023,0.07563539,0.1938707,0.03076461,0.4686879,-0.3381606,-0.037606645,0.53543514,0.5505885,0.28364325,0.21985348,-0.2728367,-0.4127508,-0.32621095,-0.13775662,-0.037111092,0.25536552,-0.0844616,0.10869879,0.47036496,-0.08899109,-0.23202063,-0.09712194,0.15378919,0.27043805,0.30008087,-0.31816888,-0.6141261,-0.05514969,0.2516504,0.07393576,-0.2923006
구의1동,0.2039471,-0.2676336,-0.032980066,-0.04815983,0.06870263,0.06089283,0.015443359,0.17566659,-0.23948143,0.00426621,0.08238613,0.2627562,0.19764692,0.05571173,0.040096253,-0.15088627,-0.16082749,0.060835842,-0.01608219,0.05568574,0.020888818,0.101840794,0.24423668,-0.01960916,-0.09792082,-0.023465216,0.14759369,0.0406592,0.23681237,-0.04871325,-0.33927718,-0.056406997,0.21315804,-0.089949,0.010164939
구의3동,0.19165874,-0.19263467,-0.11603415,0.018419854,-0.20742,0.25803876,-0.014858376,-0.02885626,-0.41459596,-0.0018854998,0.22817796,0.33673027,0.298765,0.03187953,0.20637771,-0.13721776,-0.26568624,-0.18545696,0.06604454,0.23183666,-0.10206839,0.18625773,0.029444085,-0.0874927,-0.08879931,0.008594156,0.06393736,-0.051163524,0.26992732,0.051624402,-0.3972119,0.05070443,0.5018356,-0.07612683,0.061878316
잠실본동,0.4783872,-0.035837874,0.39003617,0.13973032,0.4891352,-0.03790001,-0.06896103,0.05389767,0.62927157,-0.23416008,0.89967793,-0.23134261,0.050522164,0.23741682,-0.4488748,-0.240861,0.23718244,0.41113028,0.2559626,-0.47256804,0.24885954,-0.032236487,-0.3554532,-0.042238854,0.069847286,-0.3330641,1.1351956,-0.087439656,-0.0025222823,-0.7227495,0.22127977,-0.1288576,0.018613549,0.12587988,-0.37878323
광장동,0.39361104,-0.7631265,-0.014177673,1.0264219,-0.49423337,0.79563695,0.17513123,-0.013451787,-0.9498891,-0.031081978,1.5455756,1.2793777,0.9052351,0.91450924,-0.3305373,-0.6542656,-1.3162678,-1.1251478,-0.36725947,1.0947045,-1.0812508,0.21240999,-0.017357629,0.2575147,-0.49548262,-0.25372967,0.45278996,0.33508462,0.2452828,-0.09640205,-1.257955,-0.07693472,0.71704686,0.3946621,-0.3866033
자양1동,1.7050693,-2.13665,0.24371341,-0.4272567,0.73482716,-0.009390123,-0.026559103,2.145925,-0.14370865,-0.12498203,0.9694709,0.58789486,0.56044364,0.19786912,-0.9577227,-0.87327796,-0.054823227,0.54806423,-0.39467874,-0.24866982,0.74550647,-0.10188563,1.8990343,-0.3821447,-0.28327024,-0.5856674,0.4913479,0.5543313,0.7414834,-1.552017,-1.0008427,-0.34127462,-0.20621696,-0.07075791,-0.7897282
자양2동,0.5816459,-0.8214729,0.10359762,-0.19110167,0.31291768,-0.04383121,-0.059720725,0.7739063,-0.129055,-0.10580224,0.20662376,0.27592483,0.25790414,0.11871562,-0.3443157,-0.29982024,-0.018243872,0.22268379,-0.0810648,-0.17278554,0.24141626,-0.0077990927,0.66792864,-0.0003678929,-0.16884294,-0.25840753,0.33141136,0.17873141,0.30943298,-0.5154496,-0.47283274,-0.20374535,-0.097919315,-0.08097007,-0.18009311
잠실4동,0.08070198,-0.1765781,0.17671892,0.40918502,0.20961927,0.39457235,-0.07402092,-0.02670035,0.06314477,0.64527875,0.0425929,0.37273815,-0.20162764,0.8923717,-0.018832585,-0.24454111,0.11822853,0.30302578,0.032637183,0.19999544,0.068293385,0.06021867,0.27097157,0.13405141,0.33248582,0.070171885,0.42738068,-0.08990066,0.057286806,-0.0071240403,-0.18319568,0.005705172,-0.026897408,0.06542276,-0.18623713
자양4동,0.4626894,-0.33819118,-0.34732592,-0.27446142,0.60692596,-0.12364422,-0.025660723,0.20085162,0.1504833,0.30563697,-0.40540162,0.50933826,1.5276948,-0.12687655,0.20482688,-1.0721408,0.46621767,0.4282717,0.041958056,-0.45006815,1.2758719,0.07777335,1.146738,-0.36344153,0.6620006,-0.27950656,0.45509857,0.65982646,0.62598324,-0.20558162,-1.0227023,-0.3052055,0.22410554,-0.45363423,-0.8117234
잠실6동,0.3773718,-0.2146186,0.38569748,0.6923558,0.3052069,0.62113285,-0.10654549,0.0069180555,0.06773998,0.7370898,0.1344392,0.4689198,-0.42553544,1.4024285,0.021325573,-0.33574367,0.10567105,0.42954883,0.10419878,0.43417847,0.120937176,-0.051598176,0.6049981,0.059636228,0.6688851,0.0478151,0.89246446,-0.26608482,0.02576929,0.013046917,-0.06056907,-0.08493235,-0.017484782,0.16184859,-0.35644168
회기동,-0.2919022,0.59222054,1.1713146,0.5740216,-0.92266357,0.54650176,1.0622989,0.7207698,-0.42098427,-0.23865266,-0.7056374,0.06284924,0.36086458,0.041896008,0.3732921,0.21951708,-0.7689331,-1.0851992,0.456883,-0.026226122,-0.081276245,0.40827507,-0.38417065,1.089708,0.92772907,0.26766896,-0.6767822,0.66679615,-0.4055518,-1.0865221,0.109727204,-0.71815324,-0.77974105,-1.1404623,0.4929204
휘경2동,-0.21974286,0.44740993,0.9675599,0.4154654,-0.75107545,0.38856134,0.82299596,0.5525967,-0.32409117,-0.1898753,-0.54004323,0.009688104,0.26904675,0.025394693,0.2634239,0.14730647,-0.6317149,-0.8496913,0.37976208,-0.052894235,-0.019252794,0.27074713,-0.27793923,0.8558165,0.6960782,0.22313556,-0.5406598,0.55449516,-0.30591342,-0.88104016,0.07548868,-0.5677796,-0.64925224,-0.87848204,0.38998514
청량리동,-0.17212659,0.44639784,0.26896256,0.31262854,-0.6696366,0.4372628,0.89748484,0.52376366,-0.04526606,-0.16964008,-0.75288683,0.17367655,0.33162084,-0.07298195,0.140485,0.03387209,-0.57693666,-0.787944,0.17677554,-0.022516739,-0.26109305,0.2931701,-0.29573476,0.6261315,0.31013408,0.3240009,-0.64580023,0.5213534,-0.17205852,-0.64166385,0.14011215,-0.24186122,-0.6440739,-0.50699145,0.31957167
용신동,-0.016092345,-0.25238124,0.16015424,-0.16550276,-0.1051331,-0.114642814,0.06297316,-0.15175976,-0.26477343,0.19622928,0.0036498052,0.0030762106,0.23478384,0.13468124,0.13367838,0.037468545,0.039039493,0.08169018,-0.22304182,0.056446005,0.08044042,-0.26064792,0.12745793,0.020243676,-0.066878095,-0.14141974,-0.023780975,0.010985156,-0.03171979,0.2366523,-0.003224939,0.039911047,0.16236815,-0.17541993,-0.08091468
제기동,-0.11644456,0.18018797,-0.24862422,-0.040881187,-0.32610363,0.10994378,0.5190125,-0.03335966,0.0965105,0.039769292,-0.21987464,0.015209552,0.086105466,-0.23273031,-0.002551712,-0.13149388,-0.19819587,-0.44951406,0.16003151,-0.07049763,-0.16348843,0.113477536,-0.28596503,0.23210153,-0.23007807,0.25692058,-0.498975,0.25275812,-0.121826954,-0.14666173,0.2723304,0.011977695,-0.47484836,0.21207392,-0.0067017497
전농1동,-0.19494839,0.15109453,-0.19566558,0.104998134,-0.72535825,0.12287076,0.4483177,0.02466764,0.028972138,0.29832783,-0.1252258,-0.02240941,-0.042600196,-0.26213193,0.21527518,-0.06779456,-0.17002207,-0.5779216,0.17054716,-0.06356385,0.010017104,0.24868996,-0.12926945,0.38113597,-0.08376157,0.24519937,-0.5796998,0.24691944,-0.26280603,-0.31241637,0.14513442,-0.14807351,-0.4688656,0.066312864,-0.023903813
전농2동,-0.16104378,0.31492233,0.05029154,0.113915026,-0.49074602,0.31748304,0.6383379,0.14691795,0.09481818,0.024784448,-0.4596408,-0.0008729026,0.15465264,-0.020916512,0.060155056,-0.14736882,-0.37590036,-0.46715096,0.049411383,-0.056045048,-0.17082797,0.13727383,-0.3332943,0.38471195,-0.0772638,0.21195057,-0.45353228,0.32375664,-0.07775923,-0.2621624,0.06948687,-0.07638575,-0.45189023,-0.11065822,0.20817028
답십리2동,-0.16910133,0.10552091,-0.53403383,0.21104614,-0.69226325,-0.028826177,0.13129705,-0.20898943,-0.038000654,0.66730803,-0.09265862,-0.09150813,-0.28503722,-0.6519504,0.33358708,-0.036221668,0.082628295,-0.38488364,-0.048757307,-0.10661854,0.18963069,0.3768485,-0.020492561,0.54378116,-0.5994235,0.13445807,-0.46290597,0.3477934,-0.3077325,-0.27241257,-0.20953292,-0.11159696,-0.26144722,0.67903787,-0.021460753
잠실7동,0.70539224,-0.011789598,0.43993247,0.12541643,0.65521884,-0.08007392,-0.13342558,0.09699471,0.9707784,-0.4271148,1.3530333,-0.41845384,0.047158964,0.43806198,-0.7402473,-0.28530025,0.44007352,0.6669732,0.4006654,-0.79406947,0.3377929,-0.054569803,-0.52880126,-0.044033263,0.18260704,-0.44263592,1.7219287,-0.21547824,-0.0133732725,-1.0646081,0.2707153,-0.14737208,0.020511184,0.19738282,-0.5723126
장안1동,-0.010275013,0.06312021,-0.059120715,-0.045962706,-0.004003845,-0.027273638,0.02200253,0.0007318612,0.02291222,0.08212982,-0.0004245541,-0.026524924,0.025823466,-0.04569298,0.051368665,-0.06495821,0.036275633,-0.050234076,0.06803942,-0.062044736,-0.0024050642,0.01921677,-0.025388133,-0.0017215647,-0.0733868,0.030122021,-0.05157226,0.027866397,-0.034832515,-0.06579691,0.031099994,0.009128109,-0.03188496,0.069686994,-0.008700015
장안2동,-0.24083999,0.5251717,0.2520835,0.5237204,-0.75697523,0.2933387,0.5751395,0.26676142,-0.254454,0.3604864,-0.54501957,-0.066140115,0.1356299,-0.38085958,0.49716288,0.14455399,-0.23871943,-0.7021509,0.06765562,-0.04087808,0.003376186,0.62161297,-0.30288598,0.9858462,-0.07196982,0.022127371,-0.49135587,0.5197817,-0.40193632,-0.6750849,-0.16811088,-0.40654814,-0.33663446,-0.094921716,0.34330046
면목2동,-0.044081867,0.28743404,0.6645412,0.1628496,-0.01902137,0.10346784,0.4315563,0.3648118,-0.40910223,-0.23102991,-0.24775591,0.10160755,0.036771018,0.17888841,0.026310293,0.18848515,-0.4015948,-0.33992383,0.10081373,-0.02147099,0.080058046,-0.021248499,-0.29766685,0.40008718,0.44084626,0.03599758,-0.2252083,0.058283698,-0.14689414,-0.39578998,0.053382605,-0.29821318,-0.4186015,-0.5613961,0.47648078
면목4동,0.3337528,0.1283963,-0.27499026,-0.0687557,0.18939638,-0.074619025,0.23206711,-0.26729506,-0.46690372,0.2832013,0.6332831,0.13017736,-0.111288995,-0.1680075,0.18194021,-0.17626747,-0.38448486,0.06491971,0.25255886,0.510221,-0.33562562,0.44731656,-0.029235551,-0.058238886,-0.13570927,0.4273281,-0.09332356,-0.06530368,0.18387952,0.18952017,-0.3061163,0.08695538,0.5333075,-0.087449506,-0.086822964
잠실2동,0.230849,-0.06561538,0.18080501,0.0515974,0.26090306,-0.023096623,-0.037340354,0.06451041,0.24255134,-0.08503713,0.37634364,-0.054107457,0.050417658,0.10151578,-0.18203998,-0.14334944,0.10189531,0.15554388,0.100824915,-0.1983405,0.104967915,-0.028349187,-0.11803227,-0.042517275,0.015409173,-0.14456418,0.46219268,-0.02288109,0.028574415,-0.31614965,0.085417755,-0.04655703,0.005118847,0.03918428,-0.1687131
면목5동,-0.029083986,0.4154427,0.41400152,-0.058439612,-0.12499237,0.15780509,0.056032937,0.62291,-0.11354654,-0.11365794,-0.18632738,-0.4134611,0.15800208,-0.16626635,0.51016724,-0.21436596,-0.522993,-0.47427422,-0.043561507,0.052387547,-0.07338829,0.7798666,-0.422545,0.2883766,-0.14861798,-0.084309205,-0.45485795,0.11661512,-0.12825407,-0.16653548,0.16974303,-0.48206252,0.12859271,-0.6948471,0.30995956
면목7동,0.6521714,-0.114571705,-0.443215,-0.3114566,0.07128421,-0.7992108,-0.3158045,0.7982839,-1.0760958,0.60079086,0.80515665,-0.89677906,0.56481797,0.06442271,0.19190398,-0.5368575,-0.66412896,-0.39362955,0.21431603,1.0074683,-1.155864,1.692893,0.047112793,-0.29872724,-0.44410372,0.1403209,-0.5885929,-0.5662357,-0.58583176,0.5155654,0.2704233,-0.21738498,1.0563055,-0.89604855,0.24960792
상봉2동,-0.09694439,0.29353085,0.44137055,0.19694406,-0.28792846,0.17194445,0.42617795,0.29500172,-0.2477868,-0.12770134,-0.26712036,0.06658305,0.1286365,0.044871032,0.032942384,0.0894041,-0.3275812,-0.39455038,0.24973518,-0.010305373,-0.0023968052,0.102646284,-0.19288956,0.4214021,0.30182424,0.11525422,-0.27889216,0.21381614,-0.16324048,-0.42016435,0.020273052,-0.27513665,-0.40665424,-0.42664814,0.26982182
중화2동,-0.13187355,0.28246224,0.54127485,0.30090567,-0.36893225,0.27142996,0.4946391,0.35795495,-0.21409456,-0.0918608,-0.3383753,0.07206796,0.20458762,0.032683708,0.20610192,0.06874099,-0.33745864,-0.5423076,0.21953824,-0.0019250251,-0.0738999,0.21549062,-0.20833953,0.5016531,0.4488551,0.11676545,-0.32091355,0.29086924,-0.18864967,-0.49731427,0.06459099,-0.33545643,-0.35498753,-0.55558926,0.23295313
묵1동,0.0443518,0.0019300058,0.077077866,0.017407438,0.10337162,0.010571152,0.27556807,0.23057655,-0.02100579,-0.29537907,-0.51364213,0.13894746,0.21728906,-0.09274949,-0.005319653,-0.063816644,-0.36000672,-0.13786685,-0.12864077,-0.3137604,-0.06036281,-0.06692957,-0.17640856,0.1222741,0.051619332,0.11226589,-0.20003492,0.241517,-0.053659268,-0.29057145,0.2611685,0.017457904,-0.4148189,-0.08689633,0.28655574
묵2동,-0.214728,0.08186088,-0.11159712,0.46226767,-0.45726645,0.31855446,0.28904098,0.4334031,0.037176594,-0.35520408,-0.4952437,0.4293697,0.37471813,0.29194692,-0.11155978,-0.052977182,-0.45885286,-0.41419777,-0.111223474,-0.08112239,-0.23900177,-0.13571978,-0.36083677,0.23588392,-0.17067878,-0.18189538,-0.06122731,0.42207697,-0.15909454,-0.06903474,0.005945513,0.1329174,-0.03762837,0.12990212,0.29410088
공릉2동,-0.19692978,-0.25739738,0.48578632,0.23128329,0.31941926,-0.0660494,0.07775441,0.3003499,-0.38711503,-0.13022713,-0.30480966,0.40976748,0.07254183,0.13285157,0.2296653,-0.04926653,-0.51070094,0.03504282,-0.32891965,-0.6739528,0.13174482,0.08463501,0.022233984,0.06971513,0.56899506,-0.24875577,0.011837092,0.020055,-0.22031154,-0.24625657,0.31869018,-0.16723676,-0.3735316,-0.3715795,0.16835488
망우3동,-0.79449064,-0.25199562,0.5359295,0.44107944,0.67996866,0.5620836,-0.36406818,1.4795103,-0.73597157,-0.6264616,-0.05857665,0.54726976,-0.056577098,0.6691212,0.485178,-0.1849863,-1.0573976,-0.11519638,-1.5363975,-1.7352479,0.50377524,0.6662079,-0.11412316,-0.47858834,1.1216089,-0.37706292,-0.5188339,-0.5829439,-0.08798259,-0.26781154,0.4265563,-0.32988754,-0.052552,-1.0203701,0.59299797
신내2동,-0.22741605,-0.16888475,0.66796714,0.10702092,0.30390686,-0.14391322,0.26005363,0.27202028,-0.534947,-0.21068937,-0.33095378,0.46929884,0.0017502941,0.1626481,0.12655853,0.11579881,-0.63692874,0.08648375,-0.2426816,-0.58769846,0.14794697,-0.090222165,-0.058198124,0.26803672,0.7133488,-0.15550664,-0.052013814,0.051921036,-0.28429297,-0.37311903,0.2535488,-0.21846318,-0.6573914,-0.4473963,0.25231177
면목본동,0.00076670107,0.21350211,0.3643992,-0.14877665,0.07453974,0.01519366,-0.032206606,0.33106214,-0.1323637,-0.15517284,-0.019992929,-0.18595654,-0.041841004,-0.023647392,0.23731291,-0.12229155,-0.3394834,-0.1983318,-0.10099003,-0.0372027,0.11457921,0.23182017,-0.2893856,0.07364708,-0.11178607,-0.052687373,-0.2571031,-0.02149313,-0.034912005,-0.044710442,0.058881417,-0.3061987,0.0024441592,-0.43101,0.2602944
면목3·8동,0.06577135,0.2183775,0.08374378,-0.18057701,0.34824532,-0.09364261,-0.18145534,0.24486956,-0.0041424474,-0.14998654,0.01790301,-0.2795644,-0.20512217,-0.15316667,0.30875406,-0.30486262,-0.27923647,-0.120618924,-0.024371237,-0.15541297,-0.0420771,0.32618943,-0.18354847,-0.07315939,-0.11183448,-0.035419807,-0.19496855,0.017990615,-0.015493585,0.006993402,0.23387097,-0.25757435,0.10512321,-0.19787318,0.15057111
망우본동,-0.3252175,-0.39179936,0.779408,0.2646015,0.40454096,-0.18981628,0.2172656,0.33582425,-0.6428692,-0.15783425,-0.5867637,0.62306803,0.1402298,0.11401615,0.31791127,0.016165636,-0.82703245,0.073585615,-0.4102821,-0.9216607,0.18208428,0.070382304,-0.032123223,0.26470244,0.922774,-0.36961454,-0.0126125915,0.10924053,-0.3299165,-0.46798563,0.39482188,-0.27507266,-0.7248076,-0.6507817,0.35881764
돈암1동,0.5291136,0.062413663,-0.45460576,0.07785699,0.7933858,-1.0060507,-0.6190354,-0.31538367,0.14990191,-0.22774823,-0.5586811,-0.15501645,-0.25781095,-0.371375,0.2631266,0.25526258,-0.080336645,0.132473,-0.4108128,-0.012669688,-0.42167258,-0.007054493,-0.18725216,0.5880303,-0.21176785,-0.032977547,0.3760894,0.30177882,0.06397939,-0.30697858,0.26815128,-0.037373535,-0.024917278,0.33671576,0.8936785
돈암2동,0.17260551,0.35458145,-0.4995696,0.21179241,0.77237386,-0.57720697,-0.08336121,-0.052719392,0.40026727,0.025970161,-0.82779765,-0.16263536,0.08650538,-0.6239687,0.15581813,0.117442735,-0.090057336,0.1375137,-0.25359467,-0.021461923,-0.059020102,0.32997125,-0.1608799,0.4941012,-0.4957231,-0.16837573,0.26659912,0.5727738,0.22667469,-0.24141441,0.3091727,0.008116817,-0.12586376,0.39961207,0.64568835
안암동,-0.14194298,0.42102286,-0.11212696,-0.008094504,0.023239397,-0.07443029,0.20576851,0.09333881,0.33457616,-0.12622052,-0.6154882,-0.116355695,0.076763764,-0.17710729,0.026829924,0.014723666,-0.36050227,-0.19851854,-0.22395259,-0.15903483,0.14654234,0.20460013,-0.10924051,0.2977848,-0.41697946,-0.15033972,-0.20907669,0.24420334,0.08877745,-0.08037819,0.38019648,0.08898396,-0.32491538,0.32381353,0.17772008
보문동,0.010551025,0.2783262,-0.2310126,-0.008308785,-0.066499874,-0.059040632,0.29179436,0.068668075,0.47103253,-0.26139796,-0.6020606,-0.08946391,0.098149866,-0.14492814,0.017279383,-0.14671862,-0.17527112,-0.20893775,-0.13929503,-0.14642122,-0.03795787,0.10623904,-0.19580464,0.19296521,-0.44059202,0.05617039,-0.21434543,0.26706642,0.2416129,-0.07715142,0.46585307,0.10148658,-0.3393166,0.20136061,0.084824786
길음2동,0.18000774,0.16565618,-0.59674764,-0.058524355,0.6267098,-0.46463934,-0.42472938,-0.26015547,0.035351846,-0.32506812,-0.354088,-0.30166557,-0.22867823,-0.2653093,0.076068975,0.22065619,-0.02903476,-0.10914764,-0.21827866,-0.06914583,-0.39427057,0.21631889,-0.19170254,0.5029253,-0.1326066,0.13619745,0.35536563,0.116901346,0.12730114,-0.042595144,0.18776989,0.14138505,0.108027846,0.4914728,0.4498821
공릉1동,-0.117010444,-0.24207532,0.12418792,0.41162935,0.5892182,-0.067566976,-0.19032219,0.60596603,-0.22667715,-0.38018104,-0.21112244,0.37797523,0.012668464,0.32205582,0.219486,-0.20865601,-0.6928892,-0.11691557,-0.89392656,-0.78224695,0.047282033,0.14382766,0.005527069,-0.18376148,0.5981955,-0.1260431,-0.17318386,0.029759612,0.05903215,-0.37184712,0.39353853,-0.14853734,-0.23454694,-0.36401907,0.4943334
월곡1동,0.3108829,-0.061437204,-0.5504935,-0.25035918,0.09511034,-0.09869407,0.090574905,0.36434597,0.493794,-0.26106867,-0.7084957,-0.22536883,0.3120646,-0.23961996,-0.097096905,-0.20743203,-0.29701352,-0.15875787,-0.4161386,-0.07306735,-0.24811514,-0.019519774,0.04954572,0.3571817,-0.42491922,0.18343134,-0.10499854,0.37776572,0.3443541,-0.33977264,0.10069251,0.22148451,-0.33464846,0.5452411,0.15515484
장위1동,0.083913416,0.08643899,-0.25747108,-0.0054213125,0.14948498,0.114433035,0.100149006,0.2290164,0.1226418,0.012526132,-0.12744819,-0.09683242,0.2098272,-0.06364351,0.016863402,-0.13655677,-0.08232318,-0.061691914,-0.058000196,-0.0138187,-0.049109906,0.13469538,0.01922495,-0.037538707,-0.072575584,0.12146266,-0.008427101,0.11861375,0.0764152,-0.094621226,0.12574665,0.080612585,-0.07109068,0.17178097,-0.06311138
장위2동,0.43568888,0.13599122,-0.72755283,-0.28200555,-0.31278497,0.22940658,0.5985821,0.8717709,0.86443436,-0.45012286,-1.1573986,-0.107140936,0.86656827,-0.22524501,-0.15260226,-0.44060668,-0.78282684,-0.4917694,-0.55551153,-0.046761967,-0.17292778,-0.064785734,0.016787758,0.17148405,-0.68020374,0.21688649,-0.36693645,0.708745,0.4733064,-0.54679835,0.36835694,0.36687616,-0.6119828,0.8099545,0.06156063
불광1동,-0.1386401,-0.11104655,-0.13875681,0.27049512,-0.14525078,0.10776827,0.024248403,0.07121851,-0.0017192708,-0.029526625,-0.0397515,0.36990708,0.17146996,0.07444059,-0.22357059,-0.029530695,-0.16734737,-0.3715746,-0.13853934,0.20860071,-0.2366373,0.07619216,-0.21847777,0.14738151,-0.30579266,-0.13551939,0.0073213177,0.24877985,0.056392252,-0.015287509,-0.05772829,0.056003727,-0.05996882,0.024632934,-0.017245952
종암동,0.18503846,0.04570139,-0.43408597,-0.11503328,0.14094213,-0.01813212,0.11385012,0.22531092,0.28242698,-0.20692652,-0.42374247,-0.19230404,0.16530085,-0.12874894,-0.021832148,-0.19897264,-0.22881293,-0.1837282,-0.22484554,-0.04008439,-0.21858893,0.0041497014,-0.019312464,0.19048488,-0.19498633,0.19922484,-0.10155567,0.22526632,0.16461405,-0.15077786,0.25688803,0.111270204,-0.24662358,0.36736417,0.098625
석관동,0.0105665,0.21362692,-0.074789375,0.30297464,-0.09942259,0.13916828,0.27854472,0.311437,0.102605,-0.11037928,-0.64677745,0.20868844,0.082113415,-0.09199646,0.008311627,0.25286815,-0.009091638,-0.310841,0.019762866,-0.21891822,-0.23610687,0.25899887,-0.3096231,0.2655979,-0.11436242,0.0013458418,-0.2431468,0.44562685,-0.05539324,-0.19586772,-0.026444862,0.0981711,-0.1623089,-0.021199835,0.21854505
번1동,0.1416967,0.11885939,-0.48484534,0.070281,0.42364925,0.18787515,0.17123285,-0.0055279117,0.073119216,-0.03231268,-0.29731804,-0.12688035,0.08690359,-0.46375638,0.026026964,0.025268115,0.06432379,-0.08093139,0.26903713,-0.09311816,-0.44454363,0.66465485,-0.29247257,-0.06367577,-0.14383288,-0.0042603454,0.11627986,0.17099838,0.39842537,-0.11751941,-0.016722457,0.3845152,0.057580616,0.30468127,0.1459125
번2동,0.0175963,0.42750877,-0.6575677,0.019358283,0.6861633,0.17263153,0.03831437,0.14708635,0.27495965,0.08295059,-0.7308383,-0.4350483,0.18926361,-0.5633139,0.09342234,-0.0338957,-0.0036541559,0.17318128,0.19846183,-0.21888201,-0.22018173,0.9384668,-0.24513,0.19569215,-0.4623159,-0.19346026,0.27133453,0.44549453,0.39885616,-0.19217964,0.02561438,0.3221702,0.061587024,0.56489706,0.25433886
번3동,0.03730695,0.38198915,-0.40379536,-0.064663835,0.33200595,0.0289752,0.19020647,0.23815106,0.32791558,0.063818,-0.6418888,-0.33020183,0.313227,-0.31490666,0.11342235,-0.23090544,-0.2662556,0.0057932027,-0.036675308,-0.20794725,0.0017426573,0.4022307,-0.07642937,0.2202052,-0.39545992,-0.05740947,-0.001351309,0.4329911,0.12087095,-0.25113758,0.27377352,0.071434684,-0.17790845,0.47597557,0.16398579
수유2동,-0.0056834677,0.14354107,-0.40905643,0.0294286,0.16929108,0.31402493,0.4816631,-0.18428898,0.3162292,-0.15684202,-0.42821798,-0.2519891,0.08555435,-0.5824036,-0.100130804,0.20531073,0.15541115,-0.20844486,0.39858547,-0.20941435,-0.73667616,0.6483309,-0.4607965,-0.13639495,-0.20346968,-0.013929507,0.08451998,-0.029710002,0.6648478,-0.063779905,-0.042675808,0.6416696,-0.13946408,0.36855564,0.030555038
수유3동,-0.06536693,0.07359056,-0.6171038,0.097291194,0.38535708,0.29802364,0.43715546,-0.21141993,0.23068582,0.063988015,-0.18278234,-0.32431906,-0.01162383,-0.80363667,-0.23633441,0.32244578,0.3264016,-0.109225556,0.6345669,-0.18845792,-0.8613843,1.0364941,-0.47207537,-0.23792595,-0.08093616,0.073501684,0.41741517,-0.05142385,0.650635,0.04015354,-0.052018322,0.79700065,0.017786453,0.43170488,-0.11054429
송중동,0.10587155,0.29846537,-0.7126516,0.020289877,0.47103828,0.34056246,0.18842886,0.30463526,0.123069614,-0.06921323,-0.39825916,-0.27635443,0.25128186,-0.40649605,0.024845675,-0.069058955,-0.1070041,-0.06992653,0.111815125,-0.10766144,-0.2590299,0.7451341,-0.198596,0.043134287,-0.20292796,0.13599718,0.12747422,0.27390808,0.24511585,-0.1340052,0.19509019,0.30216634,0.00887768,0.4347792,0.032598786
쌍문1동,0.09440162,0.19844103,-0.26907748,-0.06496432,0.0694354,0.16241017,0.25137898,0.11296628,0.5098468,-0.40558538,-0.54884744,-0.31228718,0.09862496,-0.38781857,-0.24179703,0.1549553,0.29371557,-0.20421825,0.25722724,-0.15638497,-0.45321596,0.41439605,-0.39035475,-0.091873184,-0.22518288,0.00027564043,0.06781114,-0.020552864,0.58151686,0.0053077023,0.15032026,0.34787977,-0.27199766,0.13134553,-0.07929799
쌍문2동,-0.0708419,-0.034325555,-0.20097099,0.13955002,0.25743163,-0.37014264,-0.18625665,-0.1616958,0.10354626,0.2610883,-0.032940704,0.09240343,0.019813702,-0.22861284,-0.13118897,0.06640423,-0.108680405,-0.08026387,0.0717386,0.00826351,-0.24959037,0.29270816,-0.10382927,0.14103514,0.00044216774,-0.111620106,0.20867524,-0.090416126,-0.020353748,-0.004566755,0.14686067,0.052996993,-0.20433997,0.17621318,0.2110309
쌍문3동,0.12961872,0.11225819,-0.36957926,0.083619945,0.445037,-0.12748884,0.01220708,0.07289486,0.24344751,0.09088139,-0.15607807,-0.14653558,0.04501798,-0.37321895,-0.055108488,-0.04953463,0.035712868,0.03707694,0.20954718,0.018443137,-0.23716785,0.45636985,-0.1747174,0.0041593593,-0.1463181,0.044052716,0.21737252,0.22585213,0.11010021,-0.10662337,0.15087664,0.13018982,-0.015298771,0.25765023,0.034736387
쌍문4동,-0.035074264,0.10769244,-0.19900265,0.0068103727,0.30391687,0.0065552406,0.050084975,0.08396199,0.09938306,0.09820284,-0.17742088,-0.09462365,0.06573116,-0.20164378,-0.023889305,-0.03511449,-0.02933012,0.061686654,0.085128166,-0.065561235,-0.054198958,0.2831344,-0.08883774,0.03977619,-0.124680385,0.009786644,0.09257022,0.19075309,0.011299245,-0.0593536,0.06264491,0.11033732,-0.041211072,0.21643478,-0.019299524
방학1동,0.1682986,-0.29524326,-0.44504255,0.63405687,0.6610306,-0.97334915,-0.33632243,-0.31455582,0.5678924,0.79593056,0.2388156,0.026174646,-0.13107501,-0.6196589,-0.53492504,0.21176788,-0.080229186,-0.22553217,0.23987442,0.29465297,-0.8969623,0.66949826,-0.40450987,0.0025156084,0.15536654,-0.25490257,0.6312482,-0.081925035,0.04427325,-0.26386154,0.49116677,0.24170493,-0.28588498,0.19677386,0.30569974
방학2동,-0.2733632,-0.47290584,-0.4810937,0.7941618,0.2771933,-0.98937416,-0.51391417,-0.5195457,0.42471808,1.0446475,0.48647672,0.38604707,0.05134984,-0.60268927,-0.74385387,0.40667912,-0.165624,-0.498539,0.23129198,0.19109915,-0.93900305,0.9747175,-0.4041829,0.09180529,0.2656313,-0.35182315,0.7053271,-0.565096,-0.1284045,-0.01926805,0.4240342,0.31515118,-0.46197203,0.23482005,0.29035446
방학3동,0.041232232,-0.012521395,-0.119234115,0.059355557,0.1991544,0.005825538,0.040640116,0.047454543,0.119801894,0.030463427,0.006407263,-0.045885287,0.016132917,-0.19113527,-0.09547861,-0.00055817515,0.11439631,-0.027168656,0.19440594,0.0020469408,-0.18764053,0.25286996,-0.13191693,-0.10488457,-0.026906947,0.042047106,0.1218551,0.049115494,0.073681,-0.007608763,0.06213834,0.14232138,0.0010459982,0.0834731,-0.12283195
창1동,0.27297616,0.10470378,-0.22537346,0.17532298,0.4741832,-0.39842558,-0.16415961,-0.08525766,0.17473133,0.17586951,-0.16560583,-0.010213532,-0.049536925,-0.25574628,0.10230218,-0.07936366,-0.042234294,0.04745404,-0.045245454,0.10237436,-0.16209802,0.091403216,-0.10876147,0.12523511,-0.10137285,0.00819317,0.09933298,0.2675311,0.20415758,-0.23578435,0.010727631,-0.02613858,0.007868696,0.14230277,0.37835538
창2동,0.9046541,0.403932,-0.8662566,0.6342566,1.6248891,-1.2986735,-0.45871794,-0.26694834,0.6632417,0.51127654,-0.6896675,-0.20909399,-0.15977602,-0.91438645,0.34839374,-0.08841853,-0.1265375,0.38863376,-0.13410267,0.31749085,-0.5928082,0.48754603,-0.21502078,0.494177,-0.29797563,-0.1195127,0.4578125,0.97703063,0.6144195,-0.73417467,0.05702267,-0.11248723,-0.08274925,0.5082445,1.4088304
창3동,0.5945933,0.28091493,-0.54806834,0.40565878,0.9668313,-0.8668885,-0.32871062,-0.19067281,0.41850746,0.39880133,-0.41351143,-0.09504468,-0.14507994,-0.6375044,0.2175791,-0.105833545,-0.14057434,0.16839854,-0.115664184,0.22682114,-0.33448637,0.2686648,-0.26873654,0.33527547,-0.26420283,0.006198208,0.24857676,0.6678118,0.4406473,-0.58392006,-0.002916256,-0.069512665,0.050584793,0.35613516,0.8758924
창4동,0.46566617,0.19232681,-0.40107852,0.30568224,0.74803925,-0.67406887,-0.2742831,-0.15224132,0.3004176,0.27835235,-0.2847319,-0.03766256,-0.10975568,-0.44800484,0.16579409,-0.08701503,-0.08994769,0.10544135,-0.09096752,0.18699484,-0.2644172,0.1701483,-0.17852399,0.23835838,-0.1725806,0.0071093724,0.17933556,0.4659733,0.3349054,-0.40983543,0.0058549065,-0.058672473,0.023586202,0.24216649,0.66925615
창5동,0.3959321,0.1567471,-0.43518198,0.30583966,0.76599383,-0.72304183,-0.31331664,-0.19591719,0.302311,0.31197768,-0.25032032,-0.006521687,-0.066220954,-0.39831397,0.1099248,-0.03677855,-0.09781818,0.09381534,-0.07329004,0.20366165,-0.3050319,0.22515862,-0.10659562,0.26053697,-0.12984805,-0.07437776,0.23338382,0.33319765,0.28919712,-0.2928521,0.059235804,-0.06292806,-0.07023929,0.26063335,0.700081
남가좌2동,1.2509738,-0.34328866,0.55050397,-0.49348396,-0.040594652,-0.35921666,0.10142052,1.0479957,-0.43425786,0.33672696,0.38609365,0.17556939,0.29234126,-0.099998884,-0.23746485,-0.35860774,-0.68592227,0.048133392,-0.22925459,0.5891023,0.49587125,0.17543152,0.69559,-0.1392032,-0.4534842,-0.66300255,-0.14651443,-0.037320167,0.20262614,-0.44136074,-0.3602774,-0.027966084,-0.12794742,-0.32186052,-0.7619185
북가좌1동,0.16243222,-0.09179477,-0.048585035,-0.21990496,0.18741876,0.10410376,-0.022770531,0.093447894,-0.14270532,-0.23201753,0.36691806,0.10285665,-0.17340016,-0.09131875,-0.004595274,-0.14018635,0.09529043,-0.10560794,0.2919105,0.064235896,0.061176278,0.14083914,-0.09632278,-0.17133906,0.0040142853,0.06259437,0.01796025,-0.07055104,-0.035777047,-0.09813891,0.19707978,-0.047226377,0.09285462,-0.1033844,-0.2567041
